1766 100
胃炎 -0.08822084 0.5981291 0.7475929 -0.58230686 0.85179234 0.111171775 -0.051824037 0.6829138 0.03254838 0.09005869 1.0688872 -0.51707125 0.020712137 0.43887448 0.44604546 0.7066451 1.433284 -0.49564528 -0.4553378 -1.2131475 -0.3333978 -0.29285195 0.95752937 0.5205743 0.8542112 0.059720386 -0.027363917 1.2601806 -0.8969076 0.1535521 0.4396495 0.3581822 0.6951224 -0.32870725 0.4207201 -0.19757368 -0.21661164 0.3872926 0.9438192 0.44520476 0.30463043 0.24039672 -0.073506035 -0.025627453 -0.046901055 -0.9023278 0.5189901 -1.5732597 -0.36148548 -0.34433088 -0.18775484 0.790905 0.42197588 1.0401585 0.4481228 -0.6181798 -0.007669948 -0.90201646 0.026587967 -0.15784904 0.5973928 0.016533652 0.79049563 -0.27385038 -0.22542734 -0.27372184 -0.16906564 0.09196008 0.2464299 -0.35718164 -0.487378 -0.83847064 -1.4391359 -0.51027 0.84705216 -0.1727415 0.32377043 0.24387844 0.2927746 0.5102222 -0.6195995 0.06928126 0.7481816 -0.65625644 -0.014743531 -0.61289865 0.14488357 1.2158668 0.24701622 0.50050765 0.20110182 0.21487829 -0.027258271 0.11323415 0.34169513 -0.17851222 0.3486128 0.905718 -0.67635256 -0.31866655
慢性 -0.089979574 0.6181463 0.708977 -0.5460209 0.81171155 0.15354021 -0.024006767 0.64460105 0.021641253 0.08773844 1.062332 -0.48320967 0.014155713 0.4345241 0.40917072 0.6679082 1.378202 -0.4770303 -0.40037724 -1.1277024 -0.2907781 -0.28545797 0.9144787 0.51824266 0.8487518 0.012920316 -0.052863408 1.2015072 -0.8956258 0.15077907 0.43834677 0.29771987 0.66348624 -0.27875584 0.4251639 -0.21628928 -0.15897252 0.35207608 0.9338899 0.41391256 0.27965793 0.24978852 -0.09161612 -0.019244628 -0.057534352 -0.84288216 0.48077875 -1.5178859 -0.32332474 -0.3473204 -0.21404578 0.78149635 0.39619327 1.004253 0.4231795 -0.606441 -0.019938035 -0.8444278 0.024685128 -0.17665648 0.57882154 0.020464374 0.73983973 -0.26778927 -0.22370721 -0.26670203 -0.17300464 0.070203386 0.21659958 -0.31804547 -0.45288497 -0.8242275 -1.38577 -0.46320063 0.81391567 -0.16114302 0.31337985 0.2572226 0.2886976 0.50106066 -0.59280515 0.081208065 0.74151284 -0.6427606 -0.018699378 -0.567327 0.16195713 1.1565908 0.20605373 0.4918668 0.20630014 0.2250653 -0.053976327 0.103369504 0.31408703 -0.19891866 0.31400833 0.8291372 -0.6421801 -0.29335243
肠胃炎 0.09760377 0.2344836 0.5727037 -0.5298709 0.04097594 -0.11050557 -0.389092 0.4366202 0.2698549 -0.28280702 0.1606147 -0.21174496 -0.14428034 -0.14738888 -0.17169712 0.30249417 0.27720106 0.111118086 -0.13036568 -0.49960697 0.18746866 0.15043823 0.18372838 0.23395278 0.34942892 0.44376093 -0.23219103 0.6216323 -0.093284264 -0.05907695 0.21152702 0.6044367 -0.31296167 -0.7863842 0.29390532 0.25150433 -0.20083435 0.35949484 0.16258955 -0.19463375 0.09743279 0.2529106 0.10487692 0.27110624 0.41495565 -0.1279097 0.27361387 -1.0033351 0.31456664 0.23764284 -0.1195511 0.6964347 0.36071578 0.33340496 -0.17335021 -0.53671306 -0.008711049 -0.14657788 -0.1713408 0.07195016 0.385355 -0.14144659 0.1854767 -0.061596908 0.036170594 -0.029592844 0.43152392 0.39495617 -0.08361065 -0.20260441 -0.20302759 -0.29914293 -0.82142943 -0.45168743 0.44228697 -0.17636932 -0.037092477 -0.27563432 -0.07717031 0.19760203 -0.52516127 -0.23604864 0.067133985 -0.012913562 -0.40256867 -0.21939638 -0.18084162 -0.12391898 0.42343453 -0.0059444783 0.1911874 0.39812905 -0.016681733 0.5645502 -0.072436266 -0.15902984 0.4757721 0.22721095 0.13820711 -0.36901656
吃 0.14846137 0.15923658 0.5781226 -0.5512612 -0.10643481 -0.12211265 -0.42404246 0.46172175 0.26923195 -0.27556804 0.09583751 -0.13047825 -0.16788493 -0.19502567 -0.28358608 0.20291542 0.08306396 0.14245756 -0.076511346 -0.333372 0.32519516 0.14779702 0.021235358 0.18210866 0.26709187 0.52219325 -0.28308484 0.53104496 0.027903996 -0.06651248 0.21006742 0.63231444 -0.48908147 -0.848712 0.3374411 0.33360216 -0.20809083 0.42511973 -0.075696155 -0.33417854 0.07424176 0.30082834 0.1326343 0.3831773 0.5203608 0.008528184 0.18379214 -0.9853841 0.4132937 0.31052503 -0.13425852 0.6552263 0.3529115 0.23370588 -0.2990678 -0.6558606 -0.04850649 0.076742224 -0.14979139 0.05474702 0.40648228 -0.18450442 0.122279465 0.007108909 0.0755469 0.014462065 0.52152956 0.4170851 -0.20590176 -0.13804513 -0.15248445 -0.34045038 -0.80518687 -0.43644813 0.3318543 -0.29662043 -0.054500777 -0.41828024 -0.16760793 0.16329896 -0.5670583 -0.31346804 -0.030497897 0.09162157 -0.5061419 -0.15034218 -0.1996506 -0.3732316 0.44013292 -0.06425137 0.19427295 0.4416877 -0.07396948 0.6691346 -0.15202983 -0.121931314 0.5447141 0.10370852 0.25575474 -0.3857395
胃癌 0.13576172 0.17214808 0.74873835 -0.50164646 0.15123728 -0.14730018 -0.48667252 0.5745875 0.19515134 -0.2112788 0.23601653 -0.29248044 -0.14796352 0.02292343 -0.07278403 0.4440262 0.47547606 0.08242699 -0.21830794 -0.7457855 -0.05187876 0.18999726 0.30233294 0.24621132 0.27260447 0.50910425 -0.16520424 0.71435994 -0.13617995 -0.01236881 0.35188338 0.7212283 -0.28398684 -0.768173 0.25363588 0.18025072 -0.30401236 0.4826015 0.27540785 -0.026904711 0.16552426 0.25839755 0.10951677 0.20884877 0.23332621 -0.22499676 0.40906936 -1.0848826 0.24076499 0.13238677 0.06144513 0.70798385 0.33184958 0.49195045 -0.103361666 -0.45115644 0.13515678 -0.31291217 -0.26832357 0.070501015 0.34198138 -0.06073797 0.16331096 -0.22207388 -0.06638037 -0.055816445 0.199605 0.44468835 -0.13529798 -0.18120943 -0.21915004 -0.35909134 -0.8936055 -0.55301803 0.5636979 -0.21035217 0.006809789 -0.3928497 -0.1200119 0.24104574 -0.6307071 -0.29070577 0.09129157 -0.033537865 -0.3548858 -0.45324463 -0.123470336 0.011477416 0.23656076 -0.009541032 0.15465447 0.43799335 0.11070683 0.6436275 0.14243658 -0.15506698 0.5353347 0.3815852 0.029862594 -0.39372915
浅表性 -0.13441679 0.55228597 0.63880086 -0.4935593 0.84588724 0.15882188 0.05853082 0.611578 -0.020179395 0.19706799 1.0367303 -0.5294898 0.05379769 0.44866383 0.5092706 0.6787099 1.4486487 -0.48767728 -0.41923806 -1.1282849 -0.38718188 -0.31727725 0.9885101 0.44314563 0.7615012 -0.00039024156 0.0015020532 1.1564441 -0.85732824 0.18855113 0.41328892 0.24017222 0.74735576 -0.19111 0.39710978 -0.30083752 -0.18842266 0.32236713 0.91033876 0.5525402 0.2839041 0.2108011 -0.052947573 -0.08561684 -0.11896778 -0.91984916 0.49627936 -1.4520329 -0.4310034 -0.37792936 -0.13487506 0.6465142 0.34966636 1.0226272 0.5159915 -0.5213362 0.029661568 -0.9054653 0.06662194 -0.17903826 0.50400656 0.028680528 0.7754996 -0.26619807 -0.20769548 -0.2582382 -0.26207203 0.051266305 0.2576853 -0.323432 -0.3941542 -0.75801766 -1.2643965 -0.45293042 0.8419221 -0.13466097 0.36227715 0.25147852 0.32029274 0.4655808 -0.47173315 0.102351226 0.7772863 -0.675516 0.084547445 -0.59219617 0.1963732 1.2580209 0.13997144 0.5520369 0.1824603 0.13332687 0.0018406517 -0.037469145 0.3800392 -0.13705447 0.29587677 0.8965436 -0.72168237 -0.20211694
胃 0.16434945 0.31609964 0.5343762 -0.57630235 0.12804563 -0.03370926 -0.3835237 0.41621938 0.1637582 -0.27019435 0.3853893 -0.2517718 -0.100569785 -0.013038655 -0.0005837112 0.27321222 0.32436165 -0.016873691 -0.17565459 -0.62841576 0.16809306 0.02649341 0.31197205 0.30545428 0.44053817 0.41740355 -0.15844119 0.7569652 -0.18504477 -0.099653095 0.24282418 0.5018717 -0.11471535 -0.69314516 0.22538127 0.13702413 -0.26697233 0.39818162 0.2786536 -0.18708628 0.116846755 0.18128456 -0.014744924 0.2834233 0.41772744 -0.18117099 0.25751236 -1.0017936 0.21035926 0.09800503 -0.16889776 0.7367414 0.3400806 0.36236608 -0.15053928 -0.49058914 0.0006594296 -0.20711765 -0.08618503 0.022990454 0.38317797 -0.0794526 0.22527924 -0.16888751 0.046766598 -0.07022863 0.3654967 0.35165137 -0.012359461 -0.31820074 -0.2583865 -0.3884292 -0.9313209 -0.50221646 0.46912986 -0.16567981 0.012928154 -0.09830934 -0.044345196 0.25517064 -0.59984547 -0.1701921 0.077869795 -0.090229966 -0.37470683 -0.20851135 -0.18346156 0.11807397 0.41793302 0.056168325 0.29375306 0.384447 -0.10540241 0.5034541 -0.0072241453 -0.1438714 0.41015112 0.32066676 -0.004230687 -0.41264114
做 -0.0092523405 0.28368124 0.59056896 -0.47413865 0.37457964 0.0019724662 -0.1583663 0.5317044 0.08507715 0.031663608 0.4997441 -0.35479727 -0.03156477 0.1720328 0.20718166 0.41074374 0.7980156 -0.18203254 -0.27322543 -0.7327027 -0.15604037 -0.04299054 0.50831217 0.24411541 0.43993872 0.27395844 -0.1042441 0.79599214 -0.33731624 0.06214105 0.29971373 0.4199623 0.18876421 -0.44270444 0.36799654 -0.023225617 -0.23315257 0.3708824 0.39901495 0.23348363 0.1872863 0.22174355 0.06812044 0.08350113 0.120788276 -0.4785256 0.38326097 -1.1472427 -0.05948405 -0.1005324 -0.059651967 0.5694751 0.3364447 0.6495651 0.15585688 -0.5136754 0.11450216 -0.42515165 -0.063565515 -0.06702312 0.38286147 -0.0022237054 0.4379321 -0.1345765 -0.07936964 -0.08663966 0.044314247 0.2458911 0.03857551 -0.2518485 -0.2163247 -0.47818702 -0.9003942 -0.490035 0.61652476 -0.19944042 0.18645494 -0.10974779 0.06438458 0.29524818 -0.45379943 -0.09400045 0.30929646 -0.29095414 -0.19518171 -0.45859584 0.018549386 0.49948734 0.23406638 0.25500605 0.20198613 0.24256326 0.023214668 0.2868186 0.20296079 -0.07827661 0.42972773 0.4870937 -0.2980683 -0.22528899
胃镜 -0.056860767 0.3205854 0.5437179 -0.45579275 0.4929514 0.050050084 -0.06406333 0.5283909 0.03779876 0.11044435 0.64217544 -0.38163766 0.013005797 0.25025988 0.29939947 0.44456995 0.9353205 -0.28491083 -0.29853946 -0.76490134 -0.22120556 -0.13741192 0.6155653 0.2586543 0.4998951 0.18550964 -0.05811737 0.8362039 -0.45923483 0.090791374 0.2927813 0.31733862 0.3534945 -0.30908242 0.3598577 -0.09974635 -0.20080014 0.32007504 0.5103405 0.3294554 0.20541503 0.23253614 0.02258423 0.0019608294 0.048787165 -0.60753244 0.3894579 -1.1760724 -0.17777792 -0.1889227 -0.077187754 0.5245601 0.33000275 0.7385886 0.25930378 -0.4993998 0.087040015 -0.51970375 -0.0012438691 -0.097237416 0.3742568 -0.005405155 0.51472414 -0.14498965 -0.10135365 -0.11881371 -0.053339098 0.16916917 0.11459656 -0.2577495 -0.24878168 -0.54478407 -0.9319274 -0.44668165 0.6397953 -0.17609695 0.24136607 0.0010347604 0.14093027 0.29716706 -0.41904333 -0.012779432 0.43974748 -0.39547572 -0.08586929 -0.4708255 0.06618986 0.715156 0.20244858 0.35352987 0.19016829 0.18879186 -0.008033437 0.13837232 0.24945007 -0.048468824 0.3732266 0.57145953 -0.40034032 -0.17975254
月 0.057068802 0.15535748 0.6047739 -0.45149013 0.15349697 -0.10852852 -0.2964691 0.5157629 0.19820312 -0.03763211 0.28828096 -0.24452005 -0.11522027 0.036373973 -0.039191917 0.33610013 0.48713478 -0.019078426 -0.19750138 -0.5204587 0.0042421995 0.084301144 0.27153054 0.16787435 0.25929806 0.37541837 -0.19249448 0.5935513 -0.14066014 0.046658188 0.2773868 0.55619025 -0.15013197 -0.5783153 0.3349462 0.1636151 -0.21429397 0.3921579 0.12773032 0.048908096 0.15295365 0.29647076 0.15372732 0.1710694 0.20241539 -0.2753211 0.29981363 -1.0391189 0.16133587 0.11929169 -0.00056366256 0.52931845 0.3254171 0.46091047 -0.04686017 -0.5565445 0.052622467 -0.18832646 -0.15574968 -0.010596806 0.36197373 -0.08082474 0.27200603 -0.064592406 -0.041323 -0.054395158 0.1799548 0.31870377 -0.11097875 -0.153953 -0.16713783 -0.35930884 -0.7626213 -0.43899912 0.47042105 -0.2399121 0.08832261 -0.32234612 -0.033749625 0.1817228 -0.46766195 -0.21490179 0.17790768 -0.0847778 -0.28186426 -0.3624128 -0.03753239 0.06469726 0.22613081 0.08515022 0.11471261 0.33522686 0.033552177 0.4354127 0.06968228 -0.07733456 0.48974633 0.32737765 -0.021520536 -0.24585974
前 0.045833386 0.48677823 0.54510057 -0.47142822 0.40852273 0.11205253 -0.26199865 0.48157102 0.08470347 -0.15159006 0.5928786 -0.23980625 -0.10092267 0.2130969 0.023267802 0.3533917 0.6864226 -0.26168075 -0.2046902 -0.680395 0.034881826 -0.07427602 0.3978066 0.4266623 0.6196951 0.06655299 -0.14354415 0.777871 -0.5493599 -0.0036479493 0.30698425 0.29776067 0.2469743 -0.40092644 0.34915364 0.08095208 -0.09789735 0.2936049 0.50405955 0.011006997 0.16275585 0.17877063 -0.14334221 0.108816765 0.1317445 -0.31572014 0.29419965 -1.0499914 0.082089014 -0.1542057 -0.30654103 0.7282363 0.34500304 0.5425613 0.0579086 -0.51762056 -0.066298254 -0.37626922 -0.033954836 -0.08459959 0.48511222 -0.008444351 0.3758373 -0.15481028 -0.15845318 -0.17128047 0.030417815 0.107196696 0.02429675 -0.17559479 -0.4264362 -0.64191943 -1.1003609 -0.3473342 0.4291417 -0.1617317 0.06882187 0.070863105 0.07338717 0.3777303 -0.6047845 0.0045754374 0.31171802 -0.29517445 -0.30721104 -0.28445262 0.010644443 0.4537952 0.27103007 0.1661766 0.17938016 0.30053818 -0.1238189 0.39422238 0.03847882 -0.2766519 0.24581097 0.40221283 -0.22045265 -0.38142884
萎缩性 -0.064234786 0.58344424 0.79889417 -0.58878344 0.88585794 0.07208306 -0.0056650867 0.6742903 0.09229725 0.13100287 1.1050366 -0.61229205 0.071414895 0.45055923 0.5553164 0.77007675 1.4866561 -0.42989355 -0.5070344 -1.3123176 -0.4152463 -0.2777751 1.0589381 0.49906912 0.84738237 0.102810405 -0.007648388 1.3560562 -0.8551835 0.20665842 0.455161 0.42384657 0.6723015 -0.36449772 0.36149237 -0.2506775 -0.26753798 0.39203867 1.0637208 0.48671252 0.30466813 0.21880355 -0.040994048 -0.045151975 -0.048693754 -1.0080332 0.57922333 -1.6516091 -0.4496512 -0.32596657 -0.11955283 0.83076817 0.40423846 1.0942165 0.49275783 -0.53384066 -0.0034928329 -1.0069935 -0.006406119 -0.11135896 0.54803085 0.034920797 0.8319701 -0.31275973 -0.16651787 -0.31184098 -0.10764429 0.115524575 0.30534756 -0.42726883 -0.44965386 -0.7217703 -1.4432267 -0.5925533 0.9463017 -0.10923119 0.36225915 0.26939943 0.33484775 0.49016172 -0.57629704 0.050272588 0.8102779 -0.68850905 0.07302367 -0.65399307 0.1337234 1.2887026 0.25318 0.5197727 0.20196402 0.21906684 0.044522494 0.07471857 0.39941233 -0.1328046 0.34324133 1.0350261 -0.72577506 -0.32924616
- 0.33015117 0.32574198 1.125059 -1.261758 -0.5957551 -0.35785282 -1.5044786 0.20914255 0.72891223 -1.559691 -0.706359 -0.90990305 -0.07813802 -0.5989615 0.08406202 0.43212044 -0.6046733 1.005475 -0.17507333 -1.3265184 0.3557412 0.9878112 0.2976701 0.7539433 0.58763266 1.2586983 -0.21048462 1.2041788 0.7486639 -0.77688587 0.30399996 1.3889836 -1.2667565 -2.36317 -0.5015325 0.61013377 -0.7619315 0.5734636 0.9258823 -0.7056852 -0.3355092 -0.35746607 -0.31169873 0.5616642 1.354188 0.4861114 1.1608433 -1.0971767 0.9713568 0.8564283 -0.15842593 2.1478713 0.5682924 0.046794817 -0.5990296 0.3123673 0.698148 -0.584311 -0.7049501 0.991218 -0.018228326 0.38363674 -0.56342447 -0.9449219 0.59947574 -0.17618689 1.7980332 0.93979377 0.1731745 -1.0273658 -0.24921685 0.68714017 -1.1775984 -1.6881157 0.93065405 0.49717665 -0.54271984 -0.24404708 -0.60825145 0.119249515 -1.0843807 -0.8416765 -0.96268994 0.5760521 -1.2034297 -0.24432316 -1.4528025 -0.59937626 1.4872425 -0.6744106 0.8877355 0.84086657 0.518472 1.7449045 0.09613648 -0.5079936 0.6105056 0.12333047 0.85842013 -1.3871982
感觉 0.312112 0.20425296 0.53898406 -0.67724335 -0.2744043 -0.13078791 -0.6435955 0.36635026 0.3064094 -0.5467815 0.011199624 -0.10565699 -0.20827636 -0.28754285 -0.33523768 0.08013161 -0.24889009 0.2531022 -0.020393495 -0.33999687 0.5082782 0.26497582 -0.05824491 0.26064605 0.30607912 0.66029656 -0.2909393 0.573667 0.16689979 -0.2536993 0.16759542 0.6832978 -0.6416992 -1.0594718 0.21005169 0.43915614 -0.3104852 0.47159344 -0.08873722 -0.57671213 0.035551473 0.20062007 0.009430322 0.5214754 0.75918996 0.23931938 0.16308561 -0.8827802 0.6180933 0.39414227 -0.23164725 0.8812289 0.38177705 0.048791096 -0.51637477 -0.55553144 -0.01725938 0.18320629 -0.19027543 0.13634327 0.36511615 -0.14813092 -0.047546018 -0.09771287 0.18070252 0.017967552 0.7567964 0.52528477 -0.17555678 -0.29095283 -0.21476956 -0.24851814 -0.8472724 -0.5475667 0.30004027 -0.21691802 -0.18523142 -0.35288084 -0.26758838 0.16634981 -0.7131919 -0.36452287 -0.29650953 0.2333858 -0.6998749 -0.011716796 -0.39946404 -0.56490636 0.6476078 -0.21249683 0.36325857 0.5666744 -0.17347166 0.88686424 -0.23455602 -0.19616535 0.54458964 0.009296991 0.43157884 -0.56719303
治疗 0.03804594 0.29990283 0.6652369 -0.510606 0.29660672 -0.046678465 -0.3022809 0.53452027 0.16201994 -0.12759253 0.41447294 -0.35095146 -0.07534839 0.08478697 0.07221639 0.4659628 0.671338 -0.05886067 -0.24644311 -0.7737335 -0.07347284 0.05152523 0.44496754 0.30244067 0.44130418 0.32796156 -0.1315359 0.81374717 -0.30471355 0.040827464 0.31919044 0.5581078 -0.024911126 -0.6254228 0.28784892 0.0761725 -0.21882421 0.38770068 0.4523705 0.093070656 0.14983165 0.22770442 0.04597597 0.1375119 0.20267574 -0.38492817 0.4187085 -1.1579198 0.0643992 0.02851234 -0.055706866 0.7020815 0.34210584 0.59081376 0.046543527 -0.47838688 0.07887291 -0.42495346 -0.15163657 0.015059633 0.41006622 -0.0405899 0.3439543 -0.19295822 -0.060799226 -0.11388702 0.18415537 0.29736745 -0.010513924 -0.23685582 -0.24433738 -0.43123868 -0.96998674 -0.5033296 0.58347315 -0.17264755 0.08757323 -0.17904934 0.0008267531 0.27853557 -0.53929555 -0.17490011 0.2628832 -0.20169947 -0.25831202 -0.41956538 -0.0706788 0.32413098 0.2948011 0.13487363 0.1804498 0.33384562 0.06626337 0.43787402 0.1445126 -0.15146288 0.43366954 0.45926714 -0.14267914 -0.33693242
检查 -0.025898559 0.30561104 0.60497373 -0.46459186 0.3967248 0.006830875 -0.16634922 0.5685917 0.096899725 0.060403965 0.5405218 -0.353551 -0.046856016 0.18915413 0.1685849 0.46455696 0.8400381 -0.19550468 -0.27533364 -0.72719043 -0.16347161 -0.06178827 0.50332505 0.25968805 0.43701103 0.2309818 -0.11834338 0.8031255 -0.39687243 0.11096611 0.3205099 0.44112659 0.190758 -0.4272806 0.37432197 0.0019619227 -0.18516257 0.37247816 0.4166815 0.24502726 0.20862904 0.26286015 0.07228066 0.06220626 0.07601503 -0.5235099 0.36777997 -1.1959876 -0.0483243 -0.08492702 -0.044778336 0.56838495 0.35039544 0.67325616 0.16670133 -0.5448528 0.07180119 -0.43560416 -0.06957171 -0.08090013 0.42957878 -0.030156028 0.45570818 -0.121864356 -0.12251291 -0.116323926 0.016499873 0.22317155 0.0022383935 -0.21469295 -0.22726522 -0.50710464 -0.9297777 -0.4406317 0.5999988 -0.22588873 0.18027471 -0.12861443 0.091501825 0.285642 -0.4537184 -0.08925216 0.39061397 -0.3053086 -0.15971895 -0.4818509 0.04859846 0.51250654 0.19353299 0.26098576 0.14778163 0.25459868 0.012322145 0.26852885 0.19653824 -0.09397429 0.42577296 0.5122381 -0.30062863 -0.21811807
伴 -0.11816551 0.62733364 0.8733141 -0.6505483 0.95021456 0.095299646 -0.016552065 0.72507364 0.0865165 0.15743934 1.1757758 -0.7021534 0.068146035 0.46477857 0.57493484 0.8729969 1.657977 -0.45380682 -0.52876467 -1.4451444 -0.43712267 -0.32268786 1.2060696 0.55548143 0.9024743 0.1318146 -0.032610953 1.4511541 -0.948705 0.20193799 0.51369125 0.4600785 0.7039582 -0.40203935 0.39647937 -0.3078774 -0.30447784 0.41976935 1.1365069 0.5710464 0.32999238 0.25682732 -0.023966486 -0.028558228 -0.055455253 -1.1037885 0.67556685 -1.8243023 -0.50734 -0.3202909 -0.08083999 0.8775282 0.4648066 1.2480221 0.5747408 -0.60714775 -0.018331314 -1.1144253 0.006641467 -0.13034905 0.5989638 0.029267665 0.915899 -0.36647654 -0.17053343 -0.32929707 -0.14872336 0.14666574 0.33183575 -0.44633943 -0.4706104 -0.80029464 -1.5547668 -0.64572203 1.1034514 -0.11156218 0.39272997 0.2691527 0.36685422 0.52880627 -0.6056964 0.016828472 0.9009433 -0.7718797 0.07507538 -0.7213892 0.16756666 1.4323738 0.25674736 0.59550595 0.19396599 0.25384378 0.082092255 0.023452606 0.43964365 -0.1627202 0.4191839 1.144301 -0.7623628 -0.33369625
医生 0.060556028 0.24993455 0.6806361 -0.5606681 0.17542174 -0.08576786 -0.3707815 0.52807695 0.21932347 -0.20263748 0.26629126 -0.3287393 -0.10631228 -0.009613177 -0.018443663 0.41725686 0.49224475 0.027640538 -0.21498498 -0.6743752 0.02413042 0.1135331 0.3428796 0.2795251 0.3841767 0.43540937 -0.18067016 0.76695955 -0.17136082 0.00717032 0.3048249 0.6427993 -0.21638149 -0.7762593 0.2935178 0.17446001 -0.24538931 0.4229541 0.32121846 -0.022864467 0.12713218 0.2666913 0.08788317 0.2166646 0.32152674 -0.29850855 0.40516162 -1.1942003 0.19369279 0.14863706 -0.06360321 0.73952913 0.37027308 0.51842767 -0.057944503 -0.5213068 0.07500527 -0.303164 -0.19939376 0.06652303 0.4060065 -0.06778202 0.26325858 -0.13793631 -0.016798928 -0.0843122 0.31551597 0.38054723 -0.07368399 -0.23297322 -0.19449688 -0.3530074 -0.9344942 -0.55684906 0.58042395 -0.19509552 0.040530898 -0.28556108 -0.059652243 0.23627998 -0.5638735 -0.26033193 0.15251797 -0.10802336 -0.3562661 -0.38767797 -0.15448104 0.111270435 0.36945748 0.07709823 0.1880098 0.39322737 0.07507248 0.5698675 0.07847587 -0.1361127 0.50117576 0.3591468 0.003225925 -0.37914237
没有 0.13215588 0.17823313 0.60045356 -0.53243375 -0.034760647 -0.11331375 -0.44714594 0.46664894 0.26384082 -0.2757759 0.113397926 -0.1878962 -0.15348724 -0.13123755 -0.21350852 0.25260654 0.16433853 0.113671824 -0.107280634 -0.43242308 0.23279521 0.18076898 0.09073431 0.20342018 0.28420505 0.48633766 -0.24241973 0.5835694 -0.02171157 -0.05685035 0.23009485 0.6396922 -0.4192908 -0.82402253 0.29350615 0.31754833 -0.21601796 0.42516163 0.051749084 -0.2514712 0.08317152 0.2659452 0.10081985 0.3151069 0.45015386 -0.05878609 0.25121158 -1.0093052 0.37374675 0.26276293 -0.1108181 0.7060431 0.37083825 0.30445838 -0.24979043 -0.57667696 0.0025195004 -0.041829817 -0.17969286 0.055870812 0.39881805 -0.13596986 0.13577683 -0.052185126 0.03616032 -0.02482192 0.46676233 0.40414554 -0.1582078 -0.1702444 -0.17163105 -0.32568467 -0.8303205 -0.47503865 0.39670175 -0.23839252 -0.044927087 -0.38179383 -0.14769953 0.16968125 -0.5717817 -0.2921024 -0.017121686 0.048562583 -0.48455077 -0.2328924 -0.2047363 -0.24661896 0.4225581 -0.043447122 0.2063275 0.43249848 -0.027270673 0.66691273 -0.07992495 -0.14528376 0.51911217 0.16793476 0.20283507 -0.4076947
岁 0.06146467 0.25584066 0.75147414 -0.44934586 0.4310506 -0.036174454 -0.27803624 0.6557946 0.120540775 -0.0031250503 0.57465774 -0.33357862 -0.09639557 0.15721045 0.087642156 0.549236 0.88610005 -0.11341448 -0.34392834 -0.8567836 -0.14850272 -0.06923622 0.57893974 0.32105136 0.45517376 0.36765262 -0.09318963 0.880393 -0.44201884 0.061548874 0.41232887 0.5721413 0.07268284 -0.513923 0.30401716 -0.019475156 -0.2646361 0.46259576 0.42494568 0.16541968 0.24957278 0.30284715 0.11128738 0.089134105 0.054453913 -0.48153794 0.36025697 -1.219543 -0.01845081 0.0053235707 0.03574003 0.6608406 0.33598858 0.7178188 0.087895766 -0.546624 0.008874468 -0.5429992 -0.108294666 -0.027609922 0.43500122 -0.12474896 0.3997472 -0.22660686 -0.14562434 -0.11426204 -0.015191565 0.33132583 -0.016369322 -0.24078886 -0.30946302 -0.51965135 -1.0076114 -0.4644992 0.7091328 -0.24048226 0.16560863 -0.1894212 0.019435218 0.31758782 -0.57892984 -0.16931765 0.37764508 -0.2996415 -0.15115823 -0.53476155 0.060584836 0.4369222 0.13837919 0.19919877 0.09459908 0.36821198 0.01957587 0.37379557 0.24568573 -0.14064239 0.49542347 0.62604505 -0.2825368 -0.26223195
医院 0.06783775 0.21258846 0.6196502 -0.5158161 0.13992518 -0.08497781 -0.34452108 0.51328605 0.21017827 -0.1432099 0.24289589 -0.28228188 -0.11040016 -0.008062952 -0.032562353 0.34576035 0.4425733 0.026246713 -0.19684453 -0.56952834 0.03588643 0.116434895 0.27981654 0.21714486 0.3227615 0.41860715 -0.18253471 0.6766617 -0.12721296 0.014063008 0.26797295 0.5866515 -0.19475254 -0.70598924 0.30842027 0.18351129 -0.23627546 0.41051674 0.22708398 -0.024108713 0.12948456 0.26262677 0.1066049 0.203778 0.2984765 -0.25421578 0.34386286 -1.1040733 0.19078237 0.13969408 -0.06524345 0.6625236 0.35614592 0.45882273 -0.072212666 -0.5229588 0.0778236 -0.23383552 -0.16613217 0.039373964 0.37716064 -0.066869736 0.24620596 -0.096411295 -0.0075598876 -0.060041104 0.29647326 0.3589247 -0.08263448 -0.20113868 -0.18296781 -0.3529157 -0.85266995 -0.5059973 0.5240827 -0.21296991 0.045608446 -0.3041414 -0.06916483 0.21805376 -0.5168245 -0.23496611 0.11987164 -0.08968973 -0.363889 -0.36400032 -0.12316388 0.06615888 0.34891048 0.075807795 0.18045661 0.36300895 0.029844293 0.5383217 0.064119436 -0.10915848 0.4920302 0.32021606 0.013205587 -0.3470811
; 0.32902166 0.3700468 1.3362657 -1.4022388 -0.6260891 -0.4227217 -1.6764288 0.303545 0.84152585 -1.7033969 -0.7791986 -1.0566938 -0.10891908 -0.6364775 0.09681773 0.5595227 -0.5766668 1.1139389 -0.21211243 -1.5245444 0.3447251 1.1079077 0.3492601 0.82917434 0.6480156 1.4044323 -0.24164842 1.372865 0.7968722 -0.8017854 0.39746964 1.6179965 -1.433307 -2.6553364 -0.5201141 0.6881003 -0.8259559 0.65523005 1.0628114 -0.74368787 -0.37195578 -0.35070065 -0.29352453 0.60304725 1.4505886 0.49033877 1.3311467 -1.3184 1.075193 0.9781026 -0.1261511 2.414334 0.6505219 0.1077286 -0.637743 0.30320662 0.76868063 -0.704403 -0.82860696 1.0998079 0.023308396 0.4144923 -0.59523916 -1.0370891 0.6249349 -0.21264921 1.9759365 1.043968 0.15806562 -1.0947597 -0.27509975 0.742693 -1.3854303 -1.8777717 1.0757625 0.51084894 -0.5992866 -0.3514901 -0.674734 0.1420805 -1.2247132 -0.961917 -1.0152692 0.62779653 -1.3338252 -0.35372967 -1.585029 -0.6428264 1.6208711 -0.74202955 0.9315851 0.93419987 0.62187535 1.972178 0.15569448 -0.57433105 0.7251548 0.19346571 0.94805986 -1.5619289
变性 -0.019740207 0.4757163 0.43549368 -0.3968602 0.47739527 0.15641244 -0.12100098 0.40707076 0.018546963 -0.07177239 0.6918441 -0.20521016 -0.06270911 0.27640983 0.10120259 0.33768523 0.76566523 -0.30422023 -0.16053458 -0.67085195 -0.02785776 -0.10480174 0.40956813 0.38490528 0.6039639 -0.043615118 -0.074006125 0.6971993 -0.62703073 0.03468609 0.27197456 0.17341202 0.39256027 -0.1945461 0.32846177 -0.022843918 -0.029065726 0.21688376 0.5622558 0.15012662 0.1572888 0.15600844 -0.16952708 0.045164265 0.033202562 -0.36122975 0.2548506 -0.9553414 -0.031701848 -0.22568516 -0.29186815 0.6001388 0.24767876 0.5543189 0.1658887 -0.4336664 -0.05833655 -0.42999792 -0.020763319 -0.1488574 0.41913685 0.03178212 0.3860286 -0.15075862 -0.17209698 -0.1778636 -0.08893319 -0.02356859 0.053011633 -0.11965291 -0.36807695 -0.65767896 -0.9964208 -0.23390473 0.40516818 -0.14280696 0.10950674 0.17026052 0.13816835 0.36377764 -0.51258534 0.08272391 0.4080242 -0.34670082 -0.1458883 -0.29312828 0.08978488 0.5521828 0.18440081 0.25178635 0.17007072 0.20456275 -0.14576522 0.23645096 0.09250723 -0.2467915 0.1606357 0.36071616 -0.30706048 -0.29391596
现在 0.13237806 0.1846875 0.60857695 -0.5294465 -0.012437838 -0.12445452 -0.44967222 0.45267594 0.25922856 -0.2766706 0.12760863 -0.22735536 -0.13917336 -0.11807004 -0.16344948 0.28564346 0.19874391 0.124945134 -0.13155623 -0.50139105 0.18969053 0.17228478 0.1570472 0.22194639 0.2889318 0.50361454 -0.22247906 0.61544824 -0.022351574 -0.066492416 0.24650452 0.65044826 -0.3964316 -0.8338786 0.25030127 0.2751325 -0.25147602 0.42049527 0.11009419 -0.22846793 0.09435872 0.24968028 0.094323345 0.31450778 0.43618563 -0.0851075 0.2760786 -1.00509 0.32812452 0.25823423 -0.080677435 0.71441805 0.36085504 0.3155349 -0.22996466 -0.5217456 0.023246402 -0.10246165 -0.18942897 0.07582219 0.3754101 -0.12009694 0.1412153 -0.09697661 0.054673396 -0.037746727 0.45212418 0.4146873 -0.123097934 -0.19623092 -0.17105809 -0.29524186 -0.83343184 -0.49486238 0.4323138 -0.21396568 -0.037177637 -0.3549656 -0.13138708 0.17826091 -0.56039083 -0.29461643 -0.0073648174 0.035240505 -0.44959325 -0.24530806 -0.20452166 -0.18738742 0.40196222 -0.047385585 0.20030996 0.42659757 -0.0036705807 0.64105177 -0.038639747 -0.14716718 0.50760883 0.21961522 0.17594954 -0.41823858
大便 0.17652641 0.20490402 0.63816684 -0.6223634 -0.14683996 -0.1432885 -0.5391002 0.46266797 0.30150646 -0.4052804 0.06071017 -0.19268283 -0.18899634 -0.23152319 -0.26401505 0.19833054 0.039489504 0.18429573 -0.09075358 -0.45235822 0.36771294 0.21387771 0.014378752 0.20560053 0.3167124 0.59001344 -0.28065315 0.6290123 0.07731532 -0.111193456 0.19458635 0.71913725 -0.56130576 -0.9559817 0.3071798 0.3948653 -0.28591794 0.46478978 -0.044275843 -0.42314237 0.04706945 0.29338783 0.11108171 0.42142132 0.6154555 0.042817205 0.204292 -1.0537949 0.5134806 0.37278104 -0.14250904 0.7720794 0.38996735 0.17903677 -0.40840915 -0.62335235 0.009493808 0.049887367 -0.16242799 0.09727147 0.4486026 -0.1799282 0.07526077 -0.00074059475 0.10170838 -0.018741367 0.6335806 0.49805498 -0.18681376 -0.21515937 -0.15354568 -0.2844653 -0.86708844 -0.5215507 0.34124783 -0.27319917 -0.106458485 -0.4268641 -0.18532966 0.15601973 -0.61602896 -0.32337278 -0.10498646 0.13560385 -0.5664213 -0.16003026 -0.2899686 -0.38622472 0.5149269 -0.088582985 0.28056002 0.48123598 -0.098777056 0.8006963 -0.1739874 -0.16907205 0.5469651 0.08103443 0.3028122 -0.48237345
年 0.017445238 0.23968498 0.59689105 -0.44521385 0.31079602 -0.0478728 -0.20927048 0.5157142 0.14461519 0.014356082 0.46337986 -0.3088691 -0.06436499 0.13718253 0.11035713 0.4153543 0.70107013 -0.13019305 -0.24710488 -0.66480523 -0.12671983 -0.025514545 0.4482709 0.2186849 0.35485744 0.29706883 -0.1303799 0.74171853 -0.31856486 0.08111437 0.30783597 0.46559465 0.06617738 -0.47115126 0.313469 0.035435963 -0.21421775 0.37026197 0.33088818 0.1783975 0.19137022 0.25405806 0.09434269 0.08951418 0.106293306 -0.4395445 0.33273655 -1.0995942 0.0008627491 -0.0088651255 -0.011853154 0.56017846 0.32817402 0.5839539 0.08214599 -0.5060142 0.05785964 -0.37364244 -0.097675286 -0.053220756 0.36926514 -0.05633152 0.39460075 -0.13718973 -0.08387046 -0.10524489 0.06558055 0.2447774 -0.017082116 -0.19741924 -0.21306497 -0.43825138 -0.85336363 -0.45397198 0.56245506 -0.21198335 0.14885874 -0.17987809 0.04546743 0.24949674 -0.46369904 -0.1371863 0.30552274 -0.23134114 -0.1784909 -0.43755323 0.015516856 0.38108337 0.20439959 0.18110241 0.14101584 0.26874527 0.01607939 0.31166834 0.16412236 -0.08232689 0.42814928 0.4773617 -0.20516448 -0.23764887
糜烂 -0.10625629 0.55586964 0.72733015 -0.5491155 0.80668753 0.069104746 -0.014513083 0.6202643 0.061092634 0.12668006 1.0115738 -0.58223957 0.05366062 0.4158743 0.5040762 0.7398288 1.3919134 -0.40491876 -0.44888175 -1.2080567 -0.37711275 -0.25887936 1.0215418 0.48971346 0.7804588 0.10472678 -0.0052952175 1.240198 -0.8158317 0.17875898 0.45149618 0.3673791 0.63481045 -0.3568718 0.3189983 -0.252057 -0.24793477 0.36481917 0.96955484 0.48419398 0.2848824 0.22005731 -0.036548283 -0.03688417 -0.053875603 -0.9275703 0.552001 -1.539408 -0.41874325 -0.2963849 -0.09854166 0.7641933 0.38542607 1.0244308 0.47991797 -0.49909312 0.026223471 -0.9609292 -0.0007941929 -0.12737337 0.4958087 0.02102901 0.76096326 -0.32362258 -0.17286326 -0.27059916 -0.11322564 0.13485906 0.29460102 -0.39851514 -0.40029606 -0.68971163 -1.331762 -0.5564865 0.91903937 -0.09129102 0.3477309 0.24817546 0.2945305 0.4437407 -0.5401912 0.026801303 0.7561404 -0.6515918 0.0464545 -0.6100152 0.12604447 1.2168397 0.2309501 0.49965787 0.19115426 0.19816914 0.059387073 0.04159075 0.39848295 -0.13430277 0.34264535 0.9618317 -0.6443094 -0.30800822
药 0.08849032 0.2157824 0.6014408 -0.51182866 0.090260416 -0.08335503 -0.3522403 0.51292765 0.21229483 -0.17218363 0.24345596 -0.20016043 -0.1447491 -0.06984088 -0.15029633 0.3032321 0.35225677 0.020650543 -0.14330712 -0.47221968 0.16135201 0.082544185 0.19603351 0.19985081 0.33649245 0.404014 -0.2312057 0.6196202 -0.13037796 0.018905409 0.24833593 0.58906627 -0.2755258 -0.70897895 0.3634147 0.22024815 -0.19824658 0.41345865 0.09242977 -0.14384143 0.11847233 0.31390768 0.12355282 0.2603484 0.34585848 -0.18681298 0.24627176 -1.0795144 0.25479972 0.18432753 -0.100551784 0.6199418 0.35113132 0.40029696 -0.15762074 -0.62263507 -0.016884044 -0.11421946 -0.14111951 0.010377724 0.4312898 -0.1345781 0.23830815 -0.00603604 -0.0008250957 -0.047611214 0.33018142 0.35235128 -0.13508219 -0.13495529 -0.16754436 -0.39605615 -0.8607882 -0.41877088 0.41964516 -0.27164206 0.027616858 -0.34888986 -0.07585678 0.21263298 -0.5412093 -0.23714672 0.117242195 -0.04521014 -0.38353282 -0.271191 -0.10331873 -0.07735121 0.3505916 0.0605184 0.14931135 0.3741868 -0.023086293 0.5418139 -0.037082653 -0.11804465 0.4875836 0.24015597 0.08835442 -0.3354043
急性 0.076971345 0.23317733 0.6005727 -0.5020947 0.09025344 -0.12065675 -0.37477294 0.47612154 0.2796273 -0.2516307 0.18046536 -0.23685615 -0.13114868 -0.12261558 -0.15338515 0.3595298 0.36223108 0.09538818 -0.16477735 -0.53495604 0.12604883 0.15287119 0.23142695 0.22673154 0.34730503 0.4369805 -0.23808938 0.6311952 -0.13442717 -0.029220048 0.23341307 0.6112779 -0.29663542 -0.770719 0.30758378 0.21092112 -0.20098945 0.34819165 0.1934321 -0.13457514 0.11331952 0.27018344 0.13920084 0.23748454 0.3430005 -0.17976664 0.30510947 -1.0235046 0.27031 0.2302082 -0.0887582 0.67168456 0.36267343 0.3999135 -0.12632966 -0.5310866 0.009502657 -0.18902709 -0.1910018 0.07491456 0.37654948 -0.15366806 0.21195415 -0.07454234 0.014928173 -0.035049744 0.356365 0.40410292 -0.06942333 -0.19110632 -0.19882615 -0.29280657 -0.79428226 -0.45569918 0.48703292 -0.17085744 -0.013132772 -0.2740332 -0.06682843 0.20816591 -0.51232076 -0.23911333 0.1102554 -0.032116435 -0.36219442 -0.26173356 -0.1402737 -0.07012034 0.37937182 0.016805185 0.15246311 0.38453448 0.025520984 0.52463 -0.028036054 -0.16079073 0.47900665 0.27534434 0.09179988 -0.33851555
疼 0.18493761 0.24024792 0.57168645 -0.5924947 -0.061914686 -0.09307518 -0.44948974 0.4644011 0.24239433 -0.33254778 0.20719597 -0.15131737 -0.18621252 -0.17253041 -0.23158853 0.18850523 0.12789498 0.07652079 -0.10323641 -0.44756764 0.36795604 0.10630689 0.06384638 0.2064383 0.34709194 0.5296251 -0.26836842 0.6364129 -0.037170622 -0.081648394 0.20958301 0.62136716 -0.42784947 -0.84014934 0.3527946 0.32454187 -0.25675067 0.44995943 -0.053278726 -0.3953377 0.07924916 0.30307344 0.09573041 0.42199823 0.57292765 0.00053045136 0.1390305 -1.0509875 0.4352379 0.29339287 -0.18004592 0.7082635 0.36537197 0.20930824 -0.36023888 -0.67779297 -0.06237485 0.05307301 -0.096206404 0.028176429 0.47059897 -0.20727481 0.14328778 0.03130747 0.076748215 -0.0069513856 0.52024347 0.4461232 -0.16924223 -0.1741709 -0.1864783 -0.40430352 -0.9007797 -0.44263217 0.30781773 -0.30552214 -0.06518646 -0.3527844 -0.13078739 0.19631708 -0.60571563 -0.2601634 -0.022454573 0.052078202 -0.51562786 -0.12898971 -0.20538814 -0.28589103 0.45954826 -0.01574924 0.24935266 0.4406483 -0.17355636 0.698324 -0.17960887 -0.15386267 0.51170826 0.12790237 0.22007972 -0.4205411
非 -0.102756545 0.5279949 0.6989195 -0.5116191 0.8571158 0.07456755 0.036395017 0.5789801 0.069471456 0.1469625 1.0401208 -0.5701876 0.0859664 0.44614837 0.569978 0.73780394 1.414797 -0.44316936 -0.48045334 -1.2383795 -0.425917 -0.29339498 1.0136826 0.47349444 0.7919777 0.043384545 0.0016943902 1.241767 -0.82935315 0.19526643 0.43248168 0.3408885 0.694937 -0.27760935 0.31836057 -0.2735636 -0.22602087 0.3362553 1.0344236 0.4998227 0.28559637 0.19038261 -0.033509605 -0.0771231 -0.100125626 -0.98123866 0.5604436 -1.4959402 -0.4846424 -0.32921904 -0.07877749 0.7145161 0.37664145 1.0506595 0.51688313 -0.45219967 0.0031044048 -1.0005238 0.0022868796 -0.11986757 0.49467903 0.038226668 0.8046215 -0.30757692 -0.16515718 -0.28833404 -0.1650549 0.058721904 0.3239227 -0.3875585 -0.42372298 -0.68591976 -1.304733 -0.51330847 0.9078202 -0.05744629 0.37912074 0.2929776 0.3435469 0.45851642 -0.4905559 0.044673882 0.7803065 -0.6748307 0.1470367 -0.61882246 0.14744224 1.3032334 0.1816671 0.51131225 0.16470332 0.18842462 0.058270164 -0.025476523 0.3951848 -0.0950307 0.28172037 0.99719626 -0.7174316 -0.26287243
会 0.19718814 0.18603013 0.56256527 -0.59189653 -0.14016932 -0.11986521 -0.5269809 0.40165377 0.2774593 -0.4045671 0.07162779 -0.17403784 -0.1691465 -0.20959595 -0.24368183 0.1738922 -0.008624394 0.18041983 -0.06901814 -0.41892013 0.34623498 0.198227 0.034999963 0.24333315 0.30356383 0.5680091 -0.24133767 0.58692276 0.06151093 -0.1498049 0.19678934 0.64413065 -0.4990223 -0.93463755 0.22779365 0.35923225 -0.2624181 0.4330671 0.007891278 -0.4129848 0.04891663 0.2323485 0.053578094 0.41636226 0.6091567 0.07347289 0.2084204 -0.9333763 0.46669248 0.3425665 -0.15293539 0.7867078 0.36513472 0.17967834 -0.35787758 -0.5361853 -0.0022818686 0.021827536 -0.17576237 0.10215839 0.3802709 -0.15374951 0.045967285 -0.074695334 0.11194322 -0.0061098295 0.6044002 0.4533734 -0.14222546 -0.22458144 -0.19276562 -0.26215765 -0.83971596 -0.5082813 0.34637648 -0.2150932 -0.10405197 -0.3411365 -0.19652438 0.16176932 -0.6219698 -0.3238122 -0.12678188 0.12507264 -0.5616963 -0.12250336 -0.31294104 -0.36529607 0.5195494 -0.11956502 0.27142158 0.46686152 -0.08062986 0.7550179 -0.14947751 -0.17885605 0.5226197 0.110277966 0.2940443 -0.492276
肚子 0.25836074 0.18066572 0.5262866 -0.71183354 -0.28804782 -0.12405481 -0.6622935 0.25445035 0.3132982 -0.63769984 -0.122467496 -0.23501785 -0.12002643 -0.34147194 -0.18625033 0.09092942 -0.2798908 0.35388583 -0.043496337 -0.45207515 0.43382815 0.3175526 0.01977399 0.29979318 0.31388357 0.705826 -0.24081965 0.6033182 0.2724806 -0.3526061 0.12818986 0.6617871 -0.6317491 -1.1222674 0.06965393 0.3946734 -0.3807485 0.42609757 0.07097513 -0.53055334 -0.03703776 0.08168484 -0.06616037 0.47070947 0.8138467 0.24292004 0.299361 -0.7955102 0.5775774 0.4220511 -0.20126808 0.938851 0.35571176 0.03404725 -0.4551119 -0.32041937 0.12989183 0.037159692 -0.18846966 0.27205113 0.22810341 -0.04454167 -0.11935393 -0.1974208 0.25325456 -0.0036759032 0.8405945 0.5389974 -0.06445185 -0.41527092 -0.18557627 -0.062364478 -0.7519724 -0.6969883 0.35249728 -0.046948798 -0.18420964 -0.24652722 -0.2702415 0.11171702 -0.64862156 -0.3625291 -0.37965557 0.2545613 -0.6769916 -0.020401029 -0.55767274 -0.48126033 0.7298287 -0.22925507 0.4477184 0.523769 -0.045897834 0.87832636 -0.17304611 -0.20954275 0.49174577 -0.0037071074 0.4333436 -0.6116497
一直 0.13039812 0.20516416 0.6003229 -0.5612339 -0.0048084473 -0.10660623 -0.4162004 0.4599818 0.24835391 -0.27567223 0.19066742 -0.20524633 -0.148794 -0.11215932 -0.1557031 0.2664821 0.21598521 0.09525111 -0.13417323 -0.4985305 0.21906468 0.1299922 0.15857925 0.23095253 0.33165836 0.49249786 -0.22446296 0.6305013 -0.054241516 -0.06452804 0.23909232 0.6108251 -0.3574272 -0.8033591 0.28361118 0.278578 -0.25177354 0.43232927 0.09937434 -0.23836663 0.09412197 0.25874424 0.08967931 0.3269953 0.46089175 -0.098674424 0.25237915 -1.0384289 0.32635525 0.24165514 -0.12060369 0.7229189 0.37071908 0.32553393 -0.228234 -0.5687326 0.00029729315 -0.083090074 -0.15327431 0.056547865 0.3915396 -0.12612861 0.1707825 -0.067890406 0.056693394 -0.032896377 0.44437012 0.39978972 -0.11622794 -0.20491712 -0.18813553 -0.33777148 -0.8667986 -0.48361614 0.4262025 -0.22994131 -0.019699369 -0.3203765 -0.121639036 0.19333659 -0.5767334 -0.2769827 0.017523168 0.011038756 -0.44830328 -0.22122523 -0.19947037 -0.15155664 0.42687705 -0.026510974 0.22205801 0.4247471 -0.043968897 0.6257475 -0.06646343 -0.15068798 0.5172739 0.22162834 0.16067588 -0.41237062
胆汁 -0.07940155 0.60866326 0.84516615 -0.61821187 0.79959327 0.05689421 -0.08223591 0.63029224 0.116159365 0.10355033 1.0525403 -0.6716206 -0.015115553 0.42822778 0.4933541 0.8043818 1.4553643 -0.34803498 -0.46120256 -1.2992237 -0.29227528 -0.27503943 1.0655577 0.49922588 0.7989339 0.16283992 -0.104965284 1.3027946 -0.8035335 0.15068929 0.5010034 0.4756025 0.55305636 -0.4487009 0.35283095 -0.20629245 -0.32852295 0.38738185 1.0382257 0.4688492 0.26289538 0.23314159 -0.032725714 0.058862828 0.06251385 -0.93525004 0.6463704 -1.7615265 -0.4106737 -0.21840361 -0.08675928 0.8716667 0.4825186 1.1321844 0.45767653 -0.56706506 -0.04527349 -1.0015113 -0.004204935 -0.08820152 0.55059886 0.03250352 0.79377586 -0.33767158 -0.12560123 -0.2684729 -0.050787974 0.2040132 0.26404026 -0.4441325 -0.38208953 -0.73125845 -1.443082 -0.6231088 1.0251197 -0.08701544 0.3449804 0.21148878 0.30005297 0.48387244 -0.5645971 -0.040253088 0.7976517 -0.6603511 0.0021882092 -0.6150082 0.10642904 1.2236243 0.27495047 0.49251965 0.1764638 0.31776956 0.062376313 0.107661344 0.3483504 -0.19530052 0.41306725 1.000755 -0.60575324 -0.38139734
症状 0.11585551 0.213161 0.6244235 -0.5485651 0.022979962 -0.10468288 -0.4469251 0.47736242 0.24872579 -0.26786786 0.1891154 -0.23342471 -0.14006513 -0.090208046 -0.14623527 0.2916307 0.24118875 0.08993057 -0.14243974 -0.51900256 0.1864328 0.15914683 0.16962272 0.23670861 0.3310021 0.47787228 -0.22279641 0.6427595 -0.07844446 -0.0527865 0.25320694 0.6292894 -0.34618363 -0.8123681 0.2813845 0.27568355 -0.23249725 0.42732605 0.1295887 -0.20622228 0.103288434 0.25331798 0.07935301 0.29535154 0.4334331 -0.10317994 0.28261396 -1.0489209 0.32543677 0.23205699 -0.11642894 0.7325015 0.37474966 0.33991668 -0.20872252 -0.5590839 0.013610871 -0.10908095 -0.17457005 0.055560566 0.40556997 -0.109822124 0.16995242 -0.08960414 0.037411787 -0.04237174 0.4337666 0.3969536 -0.13012235 -0.20168112 -0.19292642 -0.33805358 -0.8868121 -0.49011618 0.42576 -0.22356473 -0.028075987 -0.327727 -0.12110649 0.19719467 -0.5826776 -0.27526712 0.023094466 0.01496693 -0.46089718 -0.2500889 -0.20231159 -0.14151976 0.42631817 -0.033411443 0.2215051 0.42101178 -0.029416861 0.64981574 -0.049054466 -0.17089032 0.51196545 0.22728527 0.15018576 -0.42245737
吐 0.18220241 0.14739296 0.6164359 -0.61062205 -0.20897439 -0.1380177 -0.5631633 0.43922544 0.33503982 -0.4101625 0.0076146373 -0.1490018 -0.17460486 -0.26587638 -0.3371468 0.18719219 -0.07056747 0.25416595 -0.038844902 -0.3546368 0.39341027 0.25378957 -0.031997602 0.23012236 0.27987286 0.61236864 -0.30726117 0.559594 0.124946296 -0.1519272 0.1885102 0.7363452 -0.608265 -1.0040898 0.26783076 0.4406464 -0.26721656 0.4893459 -0.06324508 -0.44477898 0.059493713 0.28100076 0.094026044 0.4503377 0.63934344 0.10722776 0.20110887 -1.0025221 0.53980994 0.3984263 -0.15553255 0.81045437 0.38603032 0.17675312 -0.38409248 -0.59604007 -0.021053314 0.07416475 -0.21687265 0.11271656 0.39690965 -0.17704187 0.030217411 -0.04701483 0.11538071 0.012405817 0.65744454 0.48609585 -0.20015143 -0.18960668 -0.18293583 -0.25799465 -0.8430477 -0.5252532 0.3759307 -0.24991854 -0.11800258 -0.41688475 -0.21717538 0.16556053 -0.62464577 -0.37683842 -0.15291204 0.1680374 -0.6048768 -0.11757297 -0.30810145 -0.5112664 0.5323011 -0.14262334 0.25173366 0.5175634 -0.08148878 0.83557117 -0.19987501 -0.18266846 0.5801315 0.06470648 0.37325734 -0.5218879
难受 0.34474745 0.3054825 0.4012687 -0.6453095 -0.20501418 -0.025788134 -0.5841673 0.2409814 0.21553119 -0.56746167 0.14453274 -0.066618234 -0.15945081 -0.19264081 -0.23807728 0.004209025 -0.246 0.15260991 0.014231444 -0.32408208 0.49962103 0.19075257 0.007410132 0.3511394 0.40888488 0.47788098 -0.21797545 0.57090807 0.029450154 -0.30769938 0.13025357 0.4339769 -0.3789305 -0.8685493 0.13445069 0.3087364 -0.2632074 0.35125706 0.096099146 -0.53800094 0.05921886 0.06428483 -0.16744965 0.45932811 0.65701604 0.25616908 0.13048564 -0.6801456 0.511413 0.22034085 -0.34836042 0.88717246 0.30473745 0.025981637 -0.4428465 -0.3951757 -0.03946748 0.1469292 -0.10910433 0.09788159 0.28859994 -0.035816304 -0.05476673 -0.20293365 0.17717572 -0.016100533 0.6618675 0.3900956 -0.054470684 -0.36822513 -0.3009646 -0.27212834 -0.8318164 -0.49057418 0.25668088 -0.10743301 -0.18393399 -0.06916086 -0.2150389 0.25171208 -0.7119775 -0.21332866 -0.30481273 0.16013482 -0.64976996 0.07562653 -0.35598725 -0.3470259 0.6387619 -0.19458552 0.41234672 0.5066879 -0.25840858 0.7351095 -0.19480625 -0.22448465 0.3304815 0.026370153 0.3045226 -0.5459597
幽门 -0.10484404 0.42207715 0.708438 -0.53979254 0.5930261 0.06766533 -0.21295822 0.6827626 0.17052704 0.07783729 0.73653466 -0.44356066 -0.05497383 0.2530708 0.27520004 0.65040785 1.1327641 -0.23701657 -0.37486103 -0.9461705 -0.25017133 -0.11657606 0.72669345 0.38171184 0.6029556 0.17445524 -0.15318829 1.0532296 -0.5526948 0.23088793 0.34549287 0.5153046 0.30513257 -0.4878374 0.4141016 -0.07058008 -0.15140817 0.41465136 0.692198 0.38383657 0.29200083 0.2840632 0.054324783 -0.04438516 0.05080577 -0.7050364 0.50001544 -1.4710724 -0.083688095 -0.094785444 -0.09754384 0.72984064 0.4306462 0.856328 0.22572231 -0.63352895 0.09424048 -0.6214661 -0.021851948 -0.070978925 0.57910126 -0.013780153 0.61851716 -0.1979565 -0.10739137 -0.20618899 0.0662768 0.17036697 0.011816004 -0.35351688 -0.3297288 -0.6193673 -1.2129834 -0.57079 0.71507674 -0.17487629 0.24819236 -0.10985306 0.1820786 0.37320453 -0.5014832 -0.12011712 0.59344375 -0.36183262 -0.07500171 -0.6127035 0.05062252 0.7875753 0.23112074 0.32610488 0.16987388 0.32090592 0.026032517 0.2515887 0.2972174 -0.13131888 0.47415227 0.64947635 -0.4555466 -0.27933547
舒服 0.18505028 0.18033564 0.467055 -0.50572497 -0.102580845 -0.08841497 -0.42577228 0.35669592 0.22166972 -0.31634948 0.11377187 -0.13041478 -0.1499148 -0.16344362 -0.19879669 0.1554294 0.021086859 0.1242953 -0.06858483 -0.35955757 0.31558892 0.139676 0.057434544 0.20695677 0.2853148 0.479267 -0.21397117 0.52698684 0.016333861 -0.115162104 0.1742062 0.5245719 -0.39036882 -0.76755095 0.21961567 0.28519484 -0.24089968 0.3795131 -0.00058659434 -0.33642602 0.06628537 0.20942235 0.048977587 0.360305 0.5129695 0.040071346 0.16443247 -0.8260536 0.38478377 0.26590303 -0.1484897 0.6701199 0.31889287 0.16680625 -0.3115591 -0.50489414 -0.029483074 0.044921346 -0.11980389 0.06452402 0.3316786 -0.12607053 0.075841844 -0.05765158 0.08585873 -0.006744313 0.4926765 0.37943295 -0.12053092 -0.20305091 -0.17582665 -0.283817 -0.7491025 -0.42191648 0.31164056 -0.19820932 -0.07731354 -0.2749243 -0.14099245 0.1602852 -0.54048884 -0.24870254 -0.093320355 0.08826457 -0.47425488 -0.102012634 -0.2267595 -0.2676768 0.43780604 -0.08268382 0.2374238 0.4087771 -0.10743774 0.61737317 -0.13523138 -0.1389974 0.45087576 0.12226618 0.2229618 -0.40728268
说 0.058674227 0.20804268 0.60913426 -0.4952257 0.1301119 -0.08382078 -0.34764004 0.48718008 0.19556956 -0.14758806 0.2298392 -0.28701437 -0.11153753 -0.011255288 -0.037066102 0.35113043 0.43767232 0.016288795 -0.18696937 -0.5816052 0.031509243 0.11045733 0.2626053 0.22892839 0.31855276 0.39633447 -0.16926867 0.6624099 -0.14023106 0.009445297 0.26832882 0.58686316 -0.1931415 -0.6811496 0.3038341 0.1839253 -0.21957721 0.3936041 0.23397103 -0.037392437 0.11479447 0.24499129 0.09485512 0.20677456 0.27691653 -0.24781734 0.3402488 -1.0657241 0.19725673 0.12454159 -0.058588848 0.6356205 0.34322962 0.44747338 -0.061194222 -0.5084616 0.06827966 -0.23161137 -0.17311975 0.028881717 0.3742371 -0.07137463 0.2314921 -0.09832589 -0.018210705 -0.061041545 0.28144857 0.33608136 -0.09135872 -0.17919025 -0.17489097 -0.34424868 -0.826189 -0.48803836 0.48957443 -0.21186182 0.038380146 -0.29058695 -0.067717135 0.20730545 -0.49826553 -0.21992674 0.1326466 -0.087477334 -0.34816396 -0.34798753 -0.11517391 0.055735093 0.31948668 0.0657686 0.1627827 0.3566834 0.04203709 0.52089435 0.053961016 -0.11368307 0.47424248 0.30142125 0.0011991863 -0.32489938
没 0.14523879 0.1763034 0.60739726 -0.56270254 -0.07829786 -0.1309581 -0.4899744 0.44598424 0.27325925 -0.32885095 0.08633961 -0.1929543 -0.15302758 -0.16705573 -0.21170901 0.24148402 0.1090528 0.14960258 -0.104117885 -0.4441933 0.24542113 0.2050771 0.08264882 0.22310287 0.28685534 0.5251107 -0.23630826 0.5847157 0.020266486 -0.098237805 0.2266232 0.65915096 -0.45183071 -0.8744963 0.26872736 0.31970614 -0.24493618 0.43754315 0.057554677 -0.29079753 0.080881245 0.25522348 0.09303605 0.34337318 0.49100873 -0.020071784 0.25580323 -0.9765314 0.4087103 0.29189524 -0.11603169 0.737726 0.36606964 0.2682755 -0.28118873 -0.5454866 0.02374732 -0.03278476 -0.1968063 0.09242896 0.37235796 -0.13006744 0.09401234 -0.07803156 0.05900975 -0.014109758 0.4975043 0.4289833 -0.14860937 -0.19374293 -0.17602861 -0.28501496 -0.8168667 -0.51145464 0.40802968 -0.2173198 -0.062171068 -0.3701225 -0.17178364 0.17854893 -0.591794 -0.30578998 -0.062008414 0.08516805 -0.50341195 -0.20446 -0.2380838 -0.28649297 0.44586042 -0.08283155 0.22480796 0.44458818 -0.026387932 0.6995794 -0.09352483 -0.15570623 0.53063715 0.15967496 0.23223141 -0.4419946
东西 0.20350325 0.21215151 0.594317 -0.59685516 -0.10229902 -0.11466421 -0.5233134 0.4507304 0.27745208 -0.36313072 0.12033392 -0.15406705 -0.17673516 -0.19347113 -0.26829177 0.20093521 0.027353564 0.16222104 -0.07480336 -0.41014826 0.36359832 0.17486916 0.05206881 0.2457244 0.324827 0.5546744 -0.27159202 0.6095902 0.017478494 -0.12186239 0.2074204 0.65521175 -0.4825816 -0.91164285 0.2792493 0.35526228 -0.26010698 0.4571553 -0.0024846918 -0.39347863 0.08394838 0.26915157 0.08075592 0.4174921 0.5791244 0.050466012 0.18410589 -0.9892098 0.45623872 0.32058117 -0.17705202 0.7803631 0.3718885 0.224704 -0.34856716 -0.60819805 -0.047863238 0.03355017 -0.17596166 0.07146964 0.4194489 -0.1736317 0.08537681 -0.051611148 0.09518143 -0.019050356 0.57226306 0.45368305 -0.16383491 -0.1962142 -0.20526077 -0.32143745 -0.8890825 -0.48066822 0.36033008 -0.25419524 -0.09516394 -0.35720104 -0.17619084 0.19858271 -0.63983226 -0.31179628 -0.078673095 0.10038008 -0.5444524 -0.12960126 -0.2649777 -0.35863456 0.49445865 -0.098577425 0.24965659 0.4830326 -0.10436226 0.74166507 -0.160742 -0.1696508 0.5447892 0.13729057 0.2855197 -0.4889931
有点 0.30967498 0.25979197 0.47793332 -0.6531881 -0.21698138 -0.07504522 -0.61034447 0.30648258 0.26976994 -0.54327554 0.09563081 -0.09304071 -0.18728213 -0.23611791 -0.2735512 0.06087022 -0.20656738 0.1784627 -0.017727537 -0.34660637 0.47681093 0.22238053 -0.023961963 0.30423093 0.3652886 0.5552072 -0.24552897 0.5731858 0.066405386 -0.25477922 0.14898267 0.5584893 -0.48111022 -0.932306 0.1793112 0.3671702 -0.27216718 0.40166876 0.017957905 -0.5328207 0.054936357 0.13622761 -0.07659787 0.47165912 0.6747474 0.21170098 0.1472493 -0.80371195 0.5489392 0.2892621 -0.27896446 0.8768222 0.33999512 0.057793368 -0.4668367 -0.47929165 -0.020435238 0.1335306 -0.14203504 0.10568089 0.3318442 -0.10088457 -0.027039826 -0.13155283 0.15676124 6.532194e-05 0.6873016 0.44827753 -0.12058708 -0.3093853 -0.25708684 -0.2731887 -0.84953064 -0.50856304 0.2778586 -0.16399272 -0.17731127 -0.21236716 -0.2240935 0.21404806 -0.70593387 -0.28488588 -0.26788917 0.17572197 -0.6514735 0.008224588 -0.3606776 -0.43678248 0.6293609 -0.1788524 0.37289092 0.52830327 -0.20679182 0.79332966 -0.21957645 -0.21639043 0.42878008 0.023084834 0.3571401 -0.5562358
呕吐 0.15004508 0.19617383 0.677268 -0.6090495 -0.07233765 -0.13484907 -0.5310578 0.490812 0.3202801 -0.36281684 0.10363233 -0.23417608 -0.16321255 -0.19993411 -0.23573418 0.28401402 0.13644463 0.18923552 -0.11275851 -0.504139 0.26256427 0.22428271 0.1058978 0.2561863 0.33070803 0.5805087 -0.27581045 0.6549025 0.0065377774 -0.11294833 0.24691348 0.7403676 -0.49089128 -0.9718364 0.26856172 0.35102594 -0.26323235 0.46076515 0.08925313 -0.30747783 0.08024786 0.26629588 0.09565628 0.37387988 0.5440085 -0.03168916 0.2977289 -1.0852034 0.4282566 0.33453968 -0.12518479 0.83158576 0.3989102 0.30534917 -0.2849304 -0.5746296 0.017844543 -0.07540265 -0.21382144 0.11819755 0.40409118 -0.15085174 0.11684611 -0.08885156 0.075904 -0.030312814 0.565505 0.47588047 -0.14442731 -0.22728483 -0.2007312 -0.29363656 -0.9045686 -0.554155 0.46735507 -0.21059409 -0.06561913 -0.3812699 -0.16869229 0.20208184 -0.6323454 -0.34008175 -0.04077634 0.06956306 -0.5348222 -0.21853098 -0.27550954 -0.29721218 0.50489736 -0.08090056 0.2398008 0.49219468 -0.020842634 0.76257956 -0.1075733 -0.19412957 0.56726974 0.19730058 0.25763083 -0.49223462
吃饭 0.28592557 0.24710052 0.4525343 -0.5812091 -0.16868675 -0.065625295 -0.5429874 0.31637627 0.23974013 -0.46299434 0.13574097 -0.07710243 -0.17410445 -0.18415898 -0.2545702 0.05893875 -0.15022366 0.13773894 -0.02640664 -0.32619333 0.41477537 0.18667987 -0.0074319164 0.28604668 0.35274202 0.4843191 -0.22642179 0.53279126 0.019627705 -0.22146751 0.14665204 0.5100561 -0.39564535 -0.8355264 0.18351215 0.327301 -0.23922667 0.38216835 0.028862275 -0.46023527 0.07770947 0.14097798 -0.06466339 0.41591436 0.5902825 0.18091862 0.12462949 -0.7515032 0.4793494 0.23056544 -0.26488483 0.7837151 0.31998357 0.08669708 -0.4096573 -0.45899844 -0.043639913 0.120113425 -0.13557087 0.06941744 0.32053334 -0.0913574 0.0035859018 -0.13092093 0.13223436 -0.0060101952 0.5882162 0.40350243 -0.103404745 -0.27973583 -0.2528421 -0.28424636 -0.79569995 -0.45103383 0.27309012 -0.17200832 -0.14220624 -0.18956678 -0.19972631 0.22099541 -0.64998436 -0.24319477 -0.22023033 0.13965395 -0.5890057 -0.004695863 -0.29879928 -0.37298474 0.5547808 -0.1542358 0.33598596 0.48304796 -0.20819029 0.72383684 -0.18310648 -0.19288023 0.40469143 0.044742197 0.28773782 -0.5014011
一次 0.16363508 0.20039397 0.72921014 -0.6907591 -0.13891101 -0.15487917 -0.59623057 0.4869078 0.35128546 -0.43574792 0.03068644 -0.26803374 -0.15410058 -0.22878873 -0.2189609 0.27749726 0.08547358 0.23535447 -0.11388397 -0.543703 0.27680624 0.29557958 0.0885274 0.27211535 0.343913 0.6476978 -0.2726899 0.6928174 0.09058215 -0.14258967 0.24174169 0.7974196 -0.5684676 -1.0733181 0.2555731 0.39411393 -0.32329133 0.4970805 0.085924506 -0.34070763 0.06324517 0.26358014 0.076987445 0.3918945 0.60704094 0.01105823 0.34685948 -1.1257846 0.49452293 0.37465554 -0.12931971 0.91792095 0.43004575 0.2919826 -0.34921843 -0.56289154 0.06780375 -0.06963334 -0.24978521 0.1561009 0.38927412 -0.11179946 0.06889382 -0.11671143 0.10385739 -0.032731816 0.6587531 0.5084849 -0.14586551 -0.26975295 -0.19679263 -0.2574709 -0.92996174 -0.64529526 0.48477593 -0.19781022 -0.09697591 -0.41919112 -0.21130985 0.1702067 -0.6712275 -0.3796986 -0.11840136 0.1301313 -0.6044299 -0.2265947 -0.3459362 -0.35148087 0.57749116 -0.11616616 0.3001002 0.5369924 -0.0006029686 0.8753764 -0.101189576 -0.19691703 0.59691596 0.1553433 0.30913165 -0.56154704
手术 0.10579286 0.21301316 0.72061336 -0.5399858 0.13701606 -0.11871548 -0.47876436 0.5440064 0.2134506 -0.23350675 0.22472942 -0.3345771 -0.119709566 0.0016053541 -0.020801522 0.42244503 0.45132002 0.07533044 -0.21908396 -0.7451303 -0.027086025 0.18762125 0.31507602 0.2638338 0.33045503 0.49307987 -0.15662222 0.75076663 -0.11515387 -0.032882795 0.3322356 0.69644594 -0.27081412 -0.81137675 0.23253155 0.18284033 -0.30535236 0.44917458 0.32401738 -0.029900812 0.13677828 0.23286238 0.0777401 0.21635203 0.29342106 -0.21666071 0.44053447 -1.0984949 0.23216327 0.14284801 0.007626935 0.7615007 0.36048108 0.47741693 -0.09333987 -0.43474907 0.13868332 -0.30965307 -0.26480654 0.09664145 0.33951104 -0.040005665 0.18731733 -0.22052093 -0.022887552 -0.076963365 0.26883894 0.42133978 -0.08611216 -0.22531407 -0.22918579 -0.331199 -0.91467565 -0.5888381 0.5785438 -0.16422652 0.0062775626 -0.33273786 -0.12057222 0.2371914 -0.6190238 -0.2750838 0.08307576 -0.05322952 -0.38594416 -0.4297113 -0.17392996 0.063871466 0.31138486 0.002877559 0.19580194 0.42643774 0.10551429 0.6493123 0.119605966 -0.16231306 0.5240123 0.37613803 0.033563524 -0.4088021
想 0.16459306 0.17259483 0.5929221 -0.57074517 -0.1018939 -0.1339949 -0.51613826 0.42253292 0.28698805 -0.37662524 0.06896099 -0.20263226 -0.15474954 -0.17839235 -0.20472482 0.2234322 0.062087808 0.19036134 -0.092889726 -0.45180804 0.28006548 0.2242824 0.073125646 0.24255337 0.29968134 0.5327362 -0.23586136 0.5940766 0.05428624 -0.12349635 0.21402624 0.67667294 -0.4695002 -0.9200022 0.2136418 0.3311682 -0.24861994 0.43505752 0.073381804 -0.33944455 0.063977756 0.21779542 0.06360663 0.3717557 0.5445702 0.011948514 0.253959 -0.95198727 0.41061962 0.31026733 -0.13458863 0.7716804 0.36391842 0.22529446 -0.29104832 -0.5037425 0.029095525 -0.04364019 -0.21375299 0.117379494 0.37274632 -0.11765329 0.06325782 -0.099341206 0.09521713 -0.011922864 0.5700997 0.45276505 -0.13797058 -0.22677203 -0.17120473 -0.23880576 -0.81881684 -0.51869345 0.39754954 -0.20232971 -0.09825214 -0.33337167 -0.18722923 0.16921508 -0.5906595 -0.33047318 -0.08759378 0.09357388 -0.51931673 -0.1681209 -0.29040742 -0.31585255 0.48014745 -0.10507956 0.25249505 0.4491918 -0.022181425 0.72609717 -0.10074063 -0.16574295 0.5039312 0.12976108 0.26325107 -0.46908262
晚上 0.1910633 0.17872731 0.62954724 -0.6343562 -0.17971475 -0.14583182 -0.57285416 0.42118666 0.32778022 -0.4341874 0.004501351 -0.19534335 -0.16336906 -0.25840014 -0.2732814 0.20791245 -0.043621495 0.25726196 -0.07026765 -0.4337437 0.35444415 0.26222646 0.012479981 0.24695209 0.30017027 0.6234369 -0.28353265 0.5978761 0.118065566 -0.16728152 0.20395514 0.73393536 -0.58775514 -1.0249444 0.2389774 0.40756357 -0.2964616 0.46986803 -0.0021321168 -0.41990542 0.04499536 0.23955114 0.072274484 0.42267606 0.63794607 0.09004717 0.25576696 -0.9879552 0.5142685 0.38467133 -0.15381078 0.84422874 0.39765635 0.20457995 -0.38165593 -0.5510402 0.017872054 0.022983516 -0.21121123 0.15202945 0.3643744 -0.13505016 0.027035477 -0.093191415 0.13664283 -0.006156909 0.66121835 0.48332888 -0.16865054 -0.24028778 -0.1889254 -0.23213576 -0.85240114 -0.56508434 0.3972143 -0.19529691 -0.11374172 -0.38314572 -0.21939194 0.15178987 -0.6433134 -0.36602634 -0.16421083 0.15049121 -0.6011373 -0.13929208 -0.34375265 -0.44242883 0.55596083 -0.1430702 0.29123765 0.5155722 -0.04446939 0.8392874 -0.15559079 -0.19423752 0.56304246 0.09207744 0.3488463 -0.53179425
拉肚子 0.16004814 0.213251 0.66103536 -0.63518816 -0.10147532 -0.13093415 -0.54208446 0.46846583 0.31631452 -0.40169635 0.0935059 -0.21660829 -0.1664879 -0.21199752 -0.24869052 0.25570926 0.09530425 0.18105568 -0.10333644 -0.49843514 0.31690338 0.21993528 0.0787205 0.26823097 0.35554552 0.5900766 -0.27291152 0.66721773 0.017005177 -0.12600575 0.23063788 0.72610617 -0.5088967 -0.9839688 0.27402022 0.37390286 -0.26955017 0.4664965 0.056769796 -0.35364377 0.06843228 0.2679744 0.07109004 0.394428 0.5952521 0.0017327279 0.26874998 -1.0834948 0.4645687 0.3484316 -0.1560584 0.846865 0.4157683 0.26576462 -0.33797112 -0.59443754 0.0040981066 -0.030709224 -0.19665289 0.10941952 0.42516005 -0.14740273 0.102440886 -0.07443334 0.087787114 -0.023759788 0.6092709 0.47724995 -0.15106924 -0.2340876 -0.21625283 -0.30991927 -0.9272352 -0.5621612 0.42456672 -0.22505575 -0.08520019 -0.38261598 -0.17339325 0.18652679 -0.645042 -0.33405212 -0.063640945 0.09430579 -0.5713404 -0.18696116 -0.2942753 -0.33173853 0.54248434 -0.088050604 0.26993728 0.50264186 -0.051549364 0.79706645 -0.1370308 -0.19892745 0.56805617 0.14620286 0.27796462 -0.5132481
最近 0.14495957 0.22400399 0.62183297 -0.5718491 0.009972341 -0.1043023 -0.4497151 0.47638085 0.2527157 -0.2780224 0.20046581 -0.23071438 -0.14428046 -0.10181396 -0.13512824 0.29016978 0.240407 0.0971532 -0.14239682 -0.53323483 0.21438877 0.12942034 0.18853848 0.24895507 0.3452528 0.50754297 -0.22148491 0.66971165 -0.06293639 -0.07461169 0.24439387 0.63486356 -0.34647006 -0.8328833 0.26912364 0.2708017 -0.265246 0.4381379 0.1277733 -0.22928776 0.1060481 0.2541214 0.08266223 0.32456243 0.4755107 -0.11067881 0.26815492 -1.0680987 0.33289126 0.24898185 -0.1140893 0.7463454 0.37593946 0.34231222 -0.2221289 -0.5583574 0.004075155 -0.11914089 -0.16002625 0.061382506 0.4009308 -0.1348112 0.18200389 -0.09421109 0.05050246 -0.04495485 0.46217376 0.41167402 -0.10752775 -0.23153567 -0.20874494 -0.336142 -0.9019726 -0.51640165 0.44270712 -0.21832566 -0.021445885 -0.32237804 -0.11759474 0.20219475 -0.5992855 -0.28187996 0.019865364 0.009318087 -0.4576553 -0.23735142 -0.20942448 -0.13369268 0.4393889 -0.021390157 0.23981781 0.43330303 -0.03993228 0.641208 -0.04803598 -0.15105511 0.5255527 0.23926671 0.14327152 -0.43198496
腹泻 0.123575866 0.19442518 0.63169694 -0.56262946 -0.029116819 -0.11590729 -0.46576673 0.4544068 0.28650782 -0.31725174 0.124461055 -0.24205549 -0.14616272 -0.15560336 -0.18710493 0.27794588 0.18604918 0.14284544 -0.11753512 -0.50486815 0.2242711 0.20169097 0.12913918 0.24218309 0.3306417 0.5135781 -0.24491963 0.6341224 -0.019370455 -0.08179682 0.22580135 0.67106944 -0.40507564 -0.8792076 0.26229125 0.31395403 -0.24489744 0.4176541 0.119420804 -0.24759506 0.07913562 0.2561146 0.0914192 0.31971154 0.47945106 -0.07456249 0.29559767 -1.032866 0.36939034 0.2893346 -0.1170799 0.75542754 0.38128352 0.31062496 -0.23298119 -0.53840154 0.02058254 -0.1090053 -0.1898128 0.0981996 0.38745704 -0.1273377 0.1341679 -0.08298399 0.06641664 -0.035500273 0.5009928 0.42903835 -0.11422935 -0.21120414 -0.19710858 -0.28588393 -0.854357 -0.52374715 0.4324109 -0.18794066 -0.048448857 -0.33009037 -0.13945149 0.19354302 -0.57309514 -0.28966048 -0.015493513 0.042101335 -0.48370668 -0.22897078 -0.23860462 -0.21931499 0.4634025 -0.05356711 0.22425535 0.4487561 -0.007495361 0.681096 -0.07904526 -0.17569092 0.51890224 0.19940941 0.19993365 -0.44870222
男 0.03938437 0.22936958 0.59517455 -0.34609193 0.3869005 -0.06560913 -0.21571276 0.47460505 0.12644796 -0.011873386 0.52141637 -0.27096227 -0.0856417 0.19715372 0.12776938 0.4945094 0.7167425 -0.15547398 -0.2556748 -0.78163576 -0.19010285 -0.02681707 0.48489743 0.26809993 0.33715096 0.2619801 -0.07537657 0.72335976 -0.3955774 0.098785475 0.3624705 0.4481041 0.13542908 -0.37691677 0.2470467 -0.047412667 -0.22445512 0.36033824 0.40226468 0.1941302 0.22117081 0.22449094 0.10682137 0.086101204 0.011784142 -0.46707046 0.31497514 -1.0226105 -0.031900205 -0.07395653 0.0591248 0.46824795 0.23473851 0.5798708 0.13037717 -0.39791584 0.05948157 -0.45953804 -0.12631051 -0.042272914 0.3270903 -0.048915558 0.36427572 -0.19236343 -0.138136 -0.13215642 -0.09688163 0.23055919 -0.015271369 -0.14405985 -0.22874083 -0.46356398 -0.8147207 -0.4005144 0.53206754 -0.17855582 0.14776117 -0.14648975 0.09873301 0.31569767 -0.48755795 -0.08877452 0.35111767 -0.23955934 -0.07197189 -0.42607814 0.1049454 0.42804623 0.061854433 0.16224618 0.11373874 0.25076878 0.042776447 0.25518343 0.18120635 -0.07568947 0.38436368 0.55902624 -0.25905046 -0.25212884
胃胀 0.12465294 0.22520757 0.5712752 -0.50141495 0.09362051 -0.07089926 -0.36246166 0.48131964 0.20940204 -0.19990712 0.3024689 -0.18858217 -0.13385825 -0.040705647 -0.12052943 0.28770298 0.31870005 0.0049304357 -0.14247394 -0.5091728 0.18949795 0.056971468 0.2014404 0.2378732 0.35848746 0.42223686 -0.20188537 0.65603465 -0.15720369 -0.023005614 0.24725902 0.54751766 -0.22457832 -0.6900779 0.30295578 0.2091274 -0.21861984 0.4143273 0.11386035 -0.18509975 0.13873939 0.27119496 0.09302574 0.28535166 0.3837779 -0.15845637 0.21516266 -1.0265657 0.25290608 0.18215431 -0.1258933 0.6606382 0.34841362 0.35244527 -0.16825296 -0.5831485 -0.031572245 -0.12807418 -0.11007204 0.0034627244 0.42687416 -0.15694809 0.23264605 -0.05867196 0.012419363 -0.05662905 0.33423078 0.34508887 -0.1087862 -0.17534922 -0.21340668 -0.41078967 -0.88579047 -0.41581059 0.4075363 -0.245334 0.013183871 -0.26914778 -0.075229 0.2157104 -0.5551502 -0.20715044 0.10976582 -0.054852936 -0.38131753 -0.22866666 -0.12711123 -0.04088304 0.35925674 0.026891505 0.19607207 0.37651333 -0.09417165 0.5350812 -0.042073205 -0.14183423 0.48028108 0.2730932 0.07089435 -0.37052962
打嗝 0.17509513 0.21892834 0.5437912 -0.5338635 -0.026663968 -0.08517347 -0.43726414 0.4285854 0.23151231 -0.2898689 0.20923835 -0.15241584 -0.14826638 -0.1129328 -0.18585795 0.20960005 0.13767134 0.08718143 -0.09451923 -0.43818486 0.2902016 0.107087806 0.105058156 0.23451258 0.3303209 0.47356564 -0.2218211 0.60201985 -0.065377146 -0.088786855 0.20584302 0.57413787 -0.34295473 -0.77954036 0.2638241 0.27762425 -0.22731957 0.42178985 0.050693717 -0.3124473 0.0944664 0.24476892 0.058961097 0.35927552 0.49868396 -0.0367605 0.18116032 -0.9630893 0.36633497 0.23997222 -0.15640372 0.7089918 0.34708342 0.25150615 -0.27791533 -0.57546365 -0.04796923 -0.02748785 -0.13449186 0.04082987 0.4077746 -0.16058429 0.14109105 -0.054544624 0.058525182 -0.022223178 0.45666626 0.38642636 -0.12691262 -0.19327821 -0.21815918 -0.36596885 -0.85871047 -0.43528694 0.3586251 -0.23075047 -0.05008909 -0.28871605 -0.12557425 0.19993491 -0.5946274 -0.25147185 -0.009090039 0.027719108 -0.46046248 -0.15402077 -0.1976783 -0.2031491 0.42402208 -0.04310136 0.23535441 0.43288237 -0.11479797 0.62614346 -0.11613526 -0.16414036 0.48203656 0.1751627 0.17826946 -0.43025333
腹部 0.13970686 0.21459547 0.612154 -0.5325172 0.02846924 -0.10046059 -0.4099765 0.4851481 0.22527486 -0.25140682 0.22955331 -0.21781524 -0.14768545 -0.09831202 -0.15095252 0.2687184 0.2652133 0.04088889 -0.15347901 -0.51917875 0.21376191 0.1011626 0.14328618 0.2044807 0.3154832 0.48058322 -0.23478176 0.64030254 -0.08197828 -0.046415 0.2362097 0.62864584 -0.3429745 -0.7652475 0.32730758 0.26641828 -0.24855483 0.43313563 0.047783762 -0.24677476 0.0936064 0.2990642 0.12371518 0.32228622 0.44859526 -0.10212375 0.2173023 -1.0571253 0.34136832 0.23543312 -0.09212324 0.64823824 0.3645734 0.3095576 -0.25120854 -0.60636365 -0.009824105 -0.0770077 -0.12326204 0.031965833 0.43898708 -0.1773606 0.17198223 -0.025309393 0.038205262 -0.030444512 0.39608094 0.42144114 -0.15558387 -0.17949241 -0.16768649 -0.37762088 -0.86292917 -0.45149246 0.36844888 -0.27586654 -0.0110103795 -0.35810715 -0.102021016 0.19963379 -0.5727428 -0.2522401 0.033028457 0.004295381 -0.43010625 -0.23181593 -0.17304151 -0.1387177 0.37943965 0.019652953 0.21708214 0.4125092 -0.081998706 0.622785 -0.08441394 -0.1374375 0.496693 0.20425484 0.13311392 -0.3816517
饿 0.4953648 0.17971957 0.44887912 -0.9674013 -0.79984033 -0.19896846 -1.1555598 -0.07377115 0.45665556 -1.3059335 -0.6508117 -0.27592754 -0.12392626 -0.68634987 -0.24827112 -0.13046494 -1.1439162 0.81312835 0.11667895 -0.42421842 0.75572884 0.71103776 -0.17926666 0.4592512 0.2994481 1.0296856 -0.22776267 0.55437243 0.7915188 -0.8057593 -0.0036954149 0.7805782 -1.1390787 -1.6836545 -0.3446117 0.56682974 -0.58302647 0.38853407 0.13279212 -0.98950005 -0.25792012 -0.2768184 -0.3371231 0.6704221 1.3154292 0.8261456 0.4749594 -0.3714909 1.0050411 0.67913413 -0.326533 1.4145229 0.31323004 -0.4101613 -0.8256145 0.15447907 0.3791491 0.22155796 -0.32928476 0.66372174 -0.11236097 0.20494904 -0.6329437 -0.52992886 0.59891874 0.021253655 1.5194248 0.7634675 0.023172954 -0.7786003 -0.2014833 0.45629606 -0.57623786 -1.0812553 0.319876 0.31744763 -0.51182634 -0.13039193 -0.5420004 0.016251272 -0.819283 -0.55252296 -1.0584872 0.68817186 -1.0812129 0.27665842 -1.1304535 -1.0014367 1.239981 -0.6660207 0.7952769 0.70345193 0.0047830325 1.3185533 -0.28740257 -0.32342744 0.41024727 -0.3278696 0.90369684 -0.9510493
正常 0.10997273 0.24604993 0.6497715 -0.5985092 0.026685653 -0.09798401 -0.47557655 0.4499151 0.26572192 -0.32427293 0.15798093 -0.29022476 -0.120406665 -0.089195624 -0.09817434 0.31151775 0.2772912 0.120928116 -0.15781918 -0.60012484 0.16456506 0.19775575 0.21208057 0.28571844 0.37448332 0.48915222 -0.20189066 0.70725906 -0.05370201 -0.072774544 0.2516401 0.6544015 -0.3497226 -0.85541105 0.23095927 0.27315497 -0.2739752 0.42698362 0.23427947 -0.19648844 0.07456073 0.21216848 0.03852474 0.2766563 0.45023012 -0.11973577 0.3561496 -1.0774419 0.33843634 0.24723443 -0.11179529 0.8179055 0.37551233 0.3558594 -0.2043009 -0.483329 0.08476781 -0.19790488 -0.19458613 0.10695832 0.3838779 -0.056296095 0.14552037 -0.14860158 0.04509149 -0.07372448 0.48346558 0.40602046 -0.08423919 -0.26254898 -0.20601875 -0.28950238 -0.9068453 -0.5748725 0.47213858 -0.16826339 -0.04704709 -0.29533324 -0.12137995 0.20453453 -0.59260714 -0.27849033 0.0077750115 0.020880671 -0.47291183 -0.28010914 -0.25686646 -0.08134375 0.4641797 -0.03528156 0.2547364 0.43955836 0.01673419 0.68381196 -0.010782936 -0.19262588 0.49071556 0.2307947 0.13703531 -0.46564382
胃窦 -0.06656818 0.48527962 0.7019088 -0.52230114 0.70599353 0.048532203 -0.068978794 0.5932902 0.083469756 0.057732478 0.85987306 -0.5177418 0.03705686 0.3422411 0.43034855 0.6554247 1.2168036 -0.34854499 -0.42255673 -1.1043934 -0.33873174 -0.18662404 0.8799087 0.4342595 0.709438 0.13551185 -0.005932134 1.1459876 -0.69117534 0.13590023 0.4058335 0.39996907 0.51138246 -0.39129975 0.3003415 -0.19360816 -0.23766115 0.36048263 0.8631545 0.39745706 0.23827522 0.20205049 -0.013363041 -0.033027776 -0.027600314 -0.8078349 0.5292892 -1.3887937 -0.31617936 -0.23948115 -0.09418054 0.7386669 0.37228486 0.92300934 0.3837962 -0.45455962 0.061390117 -0.83770746 -0.04852961 -0.07930935 0.45652714 0.027525926 0.6530468 -0.29729876 -0.1528476 -0.24839465 -0.07048858 0.14045171 0.22962816 -0.3609692 -0.38421667 -0.59662694 -1.2117958 -0.5417019 0.8244085 -0.1023861 0.27651128 0.17347902 0.22120161 0.41702348 -0.52794504 0.006704571 0.6162962 -0.5381616 -0.0016672177 -0.57112026 0.06209425 1.0398943 0.23685785 0.40605792 0.19329688 0.20873708 0.06713344 0.1441817 0.3525296 -0.13782617 0.34779474 0.84161735 -0.5553045 -0.29874235
请问 0.08148474 0.22766224 0.579318 -0.4821032 0.10370054 -0.08523271 -0.3443996 0.45989215 0.19516253 -0.19957663 0.23730564 -0.24579789 -0.1277674 -0.041946545 -0.09373982 0.30350333 0.3666573 0.02087922 -0.17206429 -0.541774 0.11882558 0.09113141 0.21932308 0.21636626 0.34476632 0.38119277 -0.19811344 0.65192 -0.13697475 -0.016613783 0.23891148 0.56408924 -0.23240373 -0.678576 0.29707006 0.1962007 -0.20591697 0.37639284 0.17745283 -0.14163634 0.08858788 0.25050342 0.09659526 0.2472883 0.33207408 -0.17710382 0.2613513 -1.0097483 0.23551159 0.14897224 -0.095727794 0.61254257 0.32389215 0.35882473 -0.1438105 -0.5313598 0.023286913 -0.17235756 -0.1333235 0.029348543 0.40696806 -0.11692942 0.20258498 -0.057921138 0.0005354471 -0.05388167 0.32917485 0.351624 -0.10122042 -0.16108193 -0.17384122 -0.3528908 -0.8297667 -0.4224747 0.40605316 -0.22675094 0.00544589 -0.27684307 -0.06257405 0.20414644 -0.50864494 -0.20530745 0.104400925 -0.050594952 -0.34810787 -0.2651411 -0.12941283 -0.0076156515 0.32461163 0.05294069 0.17613633 0.34904546 -0.021002322 0.52408296 -0.021085417 -0.12813821 0.42883632 0.24513969 0.049356434 -0.34334505
开 0.09387232 0.21756414 0.6723592 -0.56695104 0.04902946 -0.1266305 -0.424544 0.5060466 0.25340268 -0.24147938 0.16091712 -0.2931644 -0.14162077 -0.08872318 -0.12680975 0.34592217 0.32496983 0.10155523 -0.17249982 -0.56627995 0.12956105 0.16465494 0.21682616 0.24377796 0.32560015 0.47229257 -0.23130023 0.6902976 -0.074667096 -0.026435735 0.27466246 0.67149377 -0.3432368 -0.8393072 0.30089906 0.24704945 -0.24572805 0.41981134 0.17845182 -0.13107692 0.08579339 0.2635527 0.09909776 0.27027357 0.40094426 -0.16747528 0.34954265 -1.1211393 0.2851324 0.2188346 -0.07944614 0.7284047 0.38108367 0.39863735 -0.14466085 -0.56568885 0.051089577 -0.17279793 -0.20470415 0.08212381 0.39216277 -0.08384502 0.20150155 -0.10053496 0.01771219 -0.05200002 0.4358779 0.40079224 -0.12435451 -0.20529482 -0.18326625 -0.33197784 -0.8760893 -0.5474186 0.49144903 -0.22229381 -0.01274946 -0.34800255 -0.105522744 0.19900307 -0.56017894 -0.29795775 0.06785976 -0.01295114 -0.44664553 -0.3105543 -0.19588597 -0.09325613 0.4166005 -0.0049299947 0.195648 0.4105618 0.042599864 0.63075733 -0.0035843458 -0.1356258 0.5319514 0.2542076 0.10969426 -0.3877499
左右 0.16939178 0.19024271 0.5521772 -0.6873332 -0.16143522 -0.09411327 -0.58524626 0.2621247 0.27638274 -0.57224935 -0.07672496 -0.32241878 -0.068537794 -0.2560064 -0.027881127 0.17927036 -0.07997579 0.3053479 -0.10407304 -0.57866526 0.2509931 0.30882394 0.17049597 0.31480986 0.3569792 0.6360424 -0.18929145 0.65808094 0.20611455 -0.32595807 0.14960012 0.606231 -0.4614076 -1.0233065 0.047462832 0.29166302 -0.3855795 0.39391723 0.23755562 -0.32366684 -0.04092653 0.025310054 -0.0850959 0.35168195 0.6818346 0.10380734 0.42089167 -0.80366296 0.440946 0.30607405 -0.16347548 0.9295243 0.3386091 0.1754186 -0.30103892 -0.22860654 0.21963163 -0.13954036 -0.17880335 0.2768062 0.16803433 0.051832303 -0.044017036 -0.26957637 0.23026499 -0.03200143 0.7175256 0.47161824 0.023359004 -0.44446865 -0.1896342 -0.041578658 -0.7289694 -0.7419926 0.46359548 0.032107487 -0.117961146 -0.15680107 -0.20677966 0.13599584 -0.58792984 -0.31801012 -0.29424807 0.1557101 -0.5872851 -0.11614217 -0.5200615 -0.22920085 0.68627816 -0.15842162 0.44561404 0.43899423 0.03953231 0.76939416 -0.05851961 -0.1983944 0.44907752 0.10222683 0.27689078 -0.54833883
经常 0.1403564 0.22583754 0.5201581 -0.5053966 0.0043433392 -0.07153893 -0.3964346 0.38152713 0.21513 -0.29011756 0.20158772 -0.1947651 -0.12897526 -0.096448265 -0.12048208 0.2429993 0.18024163 0.07436064 -0.11635334 -0.47452998 0.21599846 0.11801872 0.16075705 0.24547233 0.3339748 0.43887952 -0.18117279 0.60687 -0.070561655 -0.08624558 0.21384157 0.5316523 -0.28166392 -0.7254824 0.21703643 0.22755314 -0.22558343 0.37136197 0.14283688 -0.23481151 0.08261286 0.19729887 0.037172426 0.30323353 0.43818077 -0.07172314 0.23248063 -0.9060618 0.2916296 0.2115495 -0.13219021 0.68279976 0.3255008 0.27480033 -0.20543028 -0.47389826 -0.0072280816 -0.10597977 -0.1288639 0.05644113 0.35693067 -0.107200295 0.13509609 -0.09425243 0.050874233 -0.040954594 0.41250974 0.35098565 -0.074512705 -0.21777125 -0.20630005 -0.30669224 -0.81032294 -0.44805858 0.38206542 -0.17252275 -0.03458079 -0.23030846 -0.100483485 0.19258353 -0.5360996 -0.22649553 0.013405423 0.011039154 -0.40319252 -0.17358856 -0.19713698 -0.10351854 0.40899485 -0.025710823 0.23291835 0.38306147 -0.06713479 0.56683695 -0.060650263 -0.1549071 0.43214458 0.20502657 0.12852448 -0.4024396
疼痛 0.1451815 0.22947828 0.6251013 -0.5777438 0.030016115 -0.104803674 -0.45830223 0.47387528 0.25125617 -0.29336944 0.21561246 -0.24722207 -0.1410931 -0.08586297 -0.12979066 0.28433636 0.25148657 0.07819748 -0.15104699 -0.5692738 0.20314547 0.14490545 0.18162416 0.25808764 0.35874325 0.504138 -0.22839597 0.6852629 -0.085804224 -0.079682834 0.2541712 0.6267713 -0.33639997 -0.83454716 0.26415285 0.27227142 -0.26865575 0.44112125 0.1472064 -0.23136353 0.09960774 0.24510221 0.06728122 0.32981887 0.46661404 -0.10540097 0.29216114 -1.0578761 0.34682897 0.23213474 -0.12525149 0.7718362 0.3839886 0.34078744 -0.22283186 -0.5474212 0.0049983663 -0.13316572 -0.16044132 0.061581995 0.39954093 -0.12058753 0.17457686 -0.109085195 0.04327469 -0.056982435 0.4433161 0.40432966 -0.10991016 -0.21582715 -0.22475012 -0.35382015 -0.92597264 -0.52080524 0.4343904 -0.2071822 -0.041275684 -0.29274568 -0.1100012 0.21205379 -0.6101475 -0.27204704 0.01050302 -0.0043482487 -0.47246256 -0.24391118 -0.221386 -0.11257174 0.44364652 -0.008286422 0.24742463 0.44282162 -0.044148542 0.6678979 -0.05412939 -0.18073042 0.5143111 0.2532834 0.1504961 -0.4510831
女 0.052982435 0.25258926 0.5840838 -0.39479524 0.36082697 -0.06139572 -0.21512812 0.47068778 0.14998056 -0.03824092 0.5179823 -0.2675223 -0.08962457 0.16602631 0.109301955 0.4694195 0.6782281 -0.13632582 -0.24531816 -0.762301 -0.12911451 -0.034710657 0.47833928 0.27599743 0.37768388 0.28726184 -0.09673784 0.7381582 -0.38125896 0.08289947 0.34764406 0.44759086 0.1122072 -0.42924497 0.2578719 -0.03175777 -0.22889902 0.36218536 0.39581725 0.15007769 0.20653118 0.2273085 0.10384473 0.12407604 0.08060892 -0.4456983 0.31448218 -1.06082 -0.0059973295 -0.04111774 0.018689092 0.517577 0.2657455 0.5712078 0.09699916 -0.43361846 0.032317482 -0.43611926 -0.09880323 -0.03957865 0.34954387 -0.07037392 0.38326493 -0.1714964 -0.10232395 -0.12646554 -0.01222454 0.24917637 -0.0016110777 -0.18258633 -0.23547654 -0.46779075 -0.8560634 -0.41906962 0.54144096 -0.17373101 0.13839874 -0.12907137 0.09624147 0.31446013 -0.49969062 -0.097019136 0.3389276 -0.2417826 -0.10399316 -0.38152048 0.06763363 0.41522792 0.13662502 0.15790446 0.14565691 0.27399936 0.00656954 0.2800588 0.1391614 -0.08935607 0.398766 0.5452363 -0.22418399 -0.2741776
严重 0.086323015 0.2514992 0.5578731 -0.5011749 0.10782896 -0.05425745 -0.35063824 0.42956087 0.19749369 -0.2253619 0.26235828 -0.24904849 -0.10998874 -0.028168792 -0.051932123 0.30102718 0.3554258 0.021371793 -0.1578181 -0.5641236 0.12093168 0.084965765 0.25162598 0.26445058 0.3837403 0.38113037 -0.16614006 0.6642212 -0.15699743 -0.039176267 0.24387544 0.5321303 -0.18197607 -0.6839511 0.2518799 0.18513618 -0.20878051 0.3618412 0.24573316 -0.12317514 0.10389076 0.21013884 0.03447773 0.23752895 0.34955174 -0.17818315 0.29302874 -0.98669344 0.21816097 0.14828429 -0.12180324 0.6909491 0.33295333 0.37307024 -0.11769052 -0.47376105 0.017079966 -0.2110271 -0.12824908 0.04092974 0.37534648 -0.07807174 0.20864415 -0.10998997 0.013181001 -0.072250456 0.33756256 0.31728414 -0.05466662 -0.21433403 -0.21052015 -0.3516842 -0.8581685 -0.4569456 0.44561282 -0.16587469 0.008235678 -0.20183519 -0.0656826 0.2183333 -0.52933645 -0.1977347 0.09661851 -0.06847666 -0.36520767 -0.25714913 -0.15798393 0.04475444 0.37786335 0.03665366 0.20905337 0.35345516 -0.027591866 0.5246963 -0.001156423 -0.15599781 0.41526723 0.2722427 0.032062657 -0.37448436
号 0.11238434 0.16994657 0.64130896 -0.57448435 -0.044588532 -0.13061404 -0.44684073 0.44724423 0.29529643 -0.28405616 0.099969104 -0.24653542 -0.13030492 -0.13790523 -0.16430265 0.27465892 0.19393706 0.1534661 -0.121093154 -0.49471968 0.17331688 0.2006749 0.13571021 0.22576974 0.29278693 0.52159464 -0.24122664 0.62348056 0.009929928 -0.07333073 0.23724686 0.6703392 -0.41296262 -0.85379535 0.2651128 0.30214718 -0.25581592 0.430449 0.09847441 -0.20277615 0.07562868 0.2523691 0.09031898 0.3090586 0.45607266 -0.074628904 0.3028473 -1.0268114 0.35580125 0.26960385 -0.09544915 0.7548214 0.38132566 0.33351216 -0.22615403 -0.52026606 0.045546975 -0.1026779 -0.20170237 0.09330253 0.35136655 -0.09768789 0.13220331 -0.09907946 0.0584259 -0.035871893 0.47478893 0.4032865 -0.12228859 -0.21217021 -0.18033226 -0.2741505 -0.81484103 -0.54571146 0.46318135 -0.19092974 -0.03865054 -0.34070712 -0.14026731 0.16183491 -0.5555321 -0.3005077 -0.018400423 0.047263034 -0.4609473 -0.23902775 -0.23118353 -0.20996462 0.44246525 -0.05065153 0.23323627 0.43351334 0.00023971495 0.68743604 -0.045189187 -0.16316949 0.525449 0.2011856 0.1982737 -0.44364014
转移 0.14997552 0.1873769 0.81179595 -0.57350886 0.07712561 -0.16517738 -0.6041643 0.5724073 0.24984944 -0.3250172 0.14160143 -0.35057825 -0.15251647 -0.048766024 -0.103290394 0.4607858 0.38244894 0.16221172 -0.21840817 -0.79266167 0.0020853344 0.2659209 0.2845574 0.29750386 0.28738335 0.5993576 -0.20044379 0.76541156 -0.049787913 -0.077991605 0.3700282 0.8173224 -0.42212135 -0.94106454 0.21413806 0.24369827 -0.3595905 0.5259381 0.28627756 -0.108119294 0.13619365 0.23151924 0.078887306 0.25638255 0.3516687 -0.15110058 0.47203368 -1.1244464 0.3401781 0.22785886 0.041092813 0.85548186 0.36762863 0.4658224 -0.17119923 -0.42323592 0.16360036 -0.30044267 -0.32701567 0.14422293 0.3253204 -0.03490248 0.098371744 -0.27204433 -0.0087774955 -0.062322866 0.33781347 0.5123904 -0.13533409 -0.23376714 -0.2365676 -0.3027279 -0.9338594 -0.6545315 0.59918 -0.17926534 -0.035291005 -0.42601976 -0.17110984 0.22026227 -0.7063452 -0.35982543 0.007947002 0.022569695 -0.46346807 -0.4485641 -0.23274949 -0.09492174 0.33999386 -0.08700586 0.20487136 0.5066365 0.14023118 0.7809809 0.117655694 -0.1985019 0.5861061 0.34996837 0.11818089 -0.48539332
胃部 0.13329503 0.20621175 0.5607582 -0.4966528 0.04452558 -0.09437385 -0.39738715 0.42309538 0.21146779 -0.23992595 0.21809894 -0.21431477 -0.124038756 -0.069722116 -0.10454277 0.25633633 0.24176884 0.055857264 -0.14009565 -0.49540648 0.1667738 0.117715545 0.17852208 0.22550923 0.3116304 0.43640652 -0.19326219 0.6100153 -0.084860034 -0.06437572 0.23880234 0.56261307 -0.27750313 -0.7234176 0.23593862 0.23128442 -0.23352475 0.40316755 0.12978333 -0.18198061 0.09831108 0.2239337 0.07040594 0.27054256 0.39216813 -0.10546492 0.24687546 -0.9388365 0.2916096 0.19062331 -0.092122756 0.6594295 0.34223628 0.31374747 -0.19372031 -0.49138612 0.007562125 -0.12752955 -0.14717583 0.04168225 0.36156994 -0.11702446 0.16756874 -0.0973764 0.02515183 -0.040598333 0.36824474 0.3571832 -0.10611348 -0.20044076 -0.19873352 -0.3266077 -0.81356627 -0.45050865 0.39478776 -0.19398098 -0.018977389 -0.26636383 -0.096434176 0.18763785 -0.5522693 -0.24313763 0.023122402 -0.007867266 -0.3992178 -0.22924392 -0.18338017 -0.07962174 0.36368525 -0.017558128 0.21512297 0.39128798 -0.03863246 0.57548445 -0.035455834 -0.14329034 0.45499897 0.24179985 0.10736192 -0.38511142
发烧 0.11931718 0.22481656 0.71795094 -0.63657695 0.0008302458 -0.1328369 -0.52472705 0.51883644 0.32738698 -0.35613415 0.15898295 -0.28111252 -0.16148023 -0.16358098 -0.19254255 0.34880918 0.258474 0.16660741 -0.15480153 -0.6034419 0.20240471 0.23262298 0.19149205 0.27855536 0.37392923 0.55991066 -0.26403874 0.73647696 -0.04686023 -0.081259996 0.28223675 0.7525241 -0.43247962 -0.9812332 0.29352555 0.336326 -0.28259507 0.46763894 0.18112932 -0.24043775 0.0949748 0.2701818 0.0936273 0.34083593 0.51043475 -0.10933174 0.35745198 -1.1734242 0.39316517 0.29984522 -0.123174466 0.86613107 0.42835617 0.39704072 -0.23755626 -0.5762817 0.029397195 -0.16405196 -0.23023134 0.11036408 0.4180986 -0.12068503 0.1695439 -0.12762663 0.06504385 -0.056673598 0.538289 0.466541 -0.117910594 -0.2451007 -0.23048393 -0.3164703 -0.9711763 -0.5965459 0.53353685 -0.19260496 -0.050552007 -0.3508187 -0.13910864 0.21575604 -0.65572375 -0.32313174 0.015639322 0.023863778 -0.5266416 -0.26962698 -0.25596324 -0.18627837 0.50348073 -0.05582618 0.25157514 0.49524412 0.006383946 0.7595902 -0.055876512 -0.20416544 0.5854752 0.25852516 0.1982538 -0.5000198
日 0.088177726 0.21357925 0.7052665 -0.5854859 0.09951727 -0.10939857 -0.42018604 0.5396928 0.27002648 -0.20973763 0.24023232 -0.3077041 -0.13790672 -0.03656674 -0.068808734 0.37487996 0.4248219 0.06637326 -0.19185238 -0.6222256 0.05613334 0.15898775 0.2802812 0.24609344 0.3325101 0.48625073 -0.21989176 0.73987097 -0.115334325 -0.024691865 0.29764396 0.67305106 -0.28483334 -0.81253654 0.30974782 0.24074475 -0.26484314 0.45355156 0.22285263 -0.053588863 0.12726012 0.2785545 0.1075596 0.2340968 0.34744373 -0.2155421 0.37713322 -1.1614674 0.26156542 0.18753663 -0.050023198 0.7721414 0.40884086 0.47204083 -0.12138856 -0.5448375 0.08094184 -0.23205706 -0.20248625 0.06707065 0.38546935 -0.07025286 0.24550714 -0.14186046 -0.0050628823 -0.06569113 0.35595748 0.40016156 -0.1089286 -0.22500525 -0.20843858 -0.3553068 -0.90873134 -0.5934014 0.5603275 -0.21578757 0.021354396 -0.33741954 -0.09070844 0.21800861 -0.58679765 -0.27533153 0.09225108 -0.055757493 -0.41327882 -0.37189555 -0.17730229 -0.004791405 0.39983502 0.02424309 0.21990636 0.42088655 0.0380364 0.6354377 0.04122094 -0.16058207 0.5547099 0.33877197 0.06833162 -0.40290257
早上 0.167356 0.20810388 0.67291063 -0.6415867 -0.10873351 -0.14083719 -0.56635946 0.4543775 0.3220782 -0.41395256 0.07332819 -0.23030156 -0.15359975 -0.21758164 -0.23882766 0.26144144 0.07358874 0.21935599 -0.10377974 -0.49570024 0.30198058 0.24122825 0.07850628 0.27550492 0.3432285 0.5974711 -0.26775473 0.6578305 0.04387614 -0.13262324 0.23713128 0.7380502 -0.5262788 -1.015094 0.24972525 0.37284806 -0.29680023 0.47965637 0.07325605 -0.35578325 0.06608776 0.25430927 0.06499692 0.4001876 0.5989358 0.01850374 0.29112083 -1.0738504 0.47168458 0.3639248 -0.15099041 0.8733853 0.3966077 0.26077962 -0.33854505 -0.5677094 0.024959944 -0.053069655 -0.21617955 0.13260107 0.39493713 -0.13429676 0.07241387 -0.10799513 0.098426014 -0.030996826 0.62142754 0.4869178 -0.15537655 -0.2520301 -0.20658903 -0.27539575 -0.92163557 -0.58683586 0.4489183 -0.2140594 -0.089459255 -0.3658912 -0.19074516 0.19064917 -0.65730053 -0.35241315 -0.09980488 0.10400007 -0.58090484 -0.17935923 -0.3100617 -0.34209928 0.54258764 -0.09998082 0.28417632 0.51210356 -0.044936884 0.8215908 -0.12781547 -0.19269171 0.57504773 0.16429643 0.29528004 -0.53874826
恶心 0.14388981 0.1492201 0.4477751 -0.43783465 -0.056146007 -0.07803845 -0.37193274 0.35457715 0.20893542 -0.25790182 0.14044373 -0.10594011 -0.12464456 -0.13331392 -0.19982573 0.16077492 0.06869814 0.09818221 -0.0634636 -0.3147962 0.26873574 0.122976124 0.055078406 0.18882863 0.25823325 0.40741858 -0.2048621 0.4794343 -0.012468865 -0.08585795 0.16509011 0.49500242 -0.33058432 -0.67185134 0.22879118 0.25685528 -0.17865233 0.35645396 -0.0060216 -0.28951156 0.078055725 0.21663162 0.07302877 0.31611636 0.42810547 0.0059533957 0.12625657 -0.77758765 0.32863387 0.22669266 -0.12671234 0.57532585 0.29660416 0.18022539 -0.2411813 -0.48160324 -0.05071852 0.01364934 -0.12235507 0.036334716 0.34169415 -0.15350713 0.08649416 -0.026116597 0.06344038 -0.00616693 0.4059679 0.3365015 -0.12641561 -0.14526339 -0.17352669 -0.27369514 -0.6910004 -0.34848246 0.28068697 -0.20971747 -0.04613598 -0.25355363 -0.12116398 0.1661599 -0.47737706 -0.22152233 -0.025902722 0.044588674 -0.3990813 -0.104890145 -0.16825597 -0.24816388 0.36067957 -0.057438288 0.19528629 0.35609075 -0.102168545 0.5427581 -0.11375443 -0.1218046 0.41475657 0.12535141 0.17910777 -0.35323238
诊断 0.0022143167 0.28205338 0.56466377 -0.45002532 0.313717 -0.028564781 -0.22041199 0.46369207 0.12418039 -0.06207293 0.4197285 -0.34926754 -0.03625133 0.120172895 0.1525231 0.41926917 0.6611906 -0.09608681 -0.24210085 -0.7135913 -0.112445034 0.0041922363 0.46082866 0.2776116 0.41195685 0.2599815 -0.089393646 0.7527336 -0.31134075 0.038998153 0.28817406 0.44389674 0.08575427 -0.49020845 0.25231177 0.023883078 -0.20399028 0.32541296 0.44409305 0.14364922 0.14359735 0.19453864 0.043512374 0.09282962 0.13257104 -0.41282582 0.3821854 -1.0452665 -0.0132926265 -0.024458138 -0.053981356 0.6011541 0.3108563 0.56825936 0.115773 -0.408223 0.08001014 -0.43493503 -0.109967045 0.00022793988 0.3383171 -0.013514649 0.34757525 -0.17764053 -0.0654424 -0.11469036 0.122114666 0.22925717 0.046084184 -0.23950161 -0.22306609 -0.3702274 -0.8528432 -0.46634805 0.5599303 -0.12963766 0.115839705 -0.084578425 0.043225728 0.2526463 -0.4403277 -0.11666135 0.2771687 -0.23341116 -0.17851704 -0.39368966 -0.044725608 0.41036245 0.24936932 0.17297736 0.15846348 0.25554767 0.0638693 0.31124914 0.16279271 -0.10609135 0.37239733 0.45885137 -0.20353729 -0.27110007
拉 0.17939626 0.21085224 0.7083206 -0.6955886 -0.15332025 -0.15505604 -0.6008677 0.4697764 0.357101 -0.45724323 0.036477078 -0.24778536 -0.16378456 -0.24228814 -0.2564192 0.26223877 0.04376065 0.23612016 -0.09613147 -0.51057124 0.3329421 0.29081944 0.0642314 0.2806423 0.35015604 0.6472772 -0.28453925 0.6778896 0.08539887 -0.14888929 0.23148601 0.7813303 -0.58369875 -1.0713245 0.2526872 0.41896278 -0.31810272 0.49497527 0.07043593 -0.39205426 0.061077695 0.26195738 0.07270932 0.42249116 0.6362833 0.03673757 0.31911802 -1.1166923 0.51797444 0.38961875 -0.15568763 0.92039955 0.42873383 0.26978177 -0.3695378 -0.58003646 0.038203735 -0.03721877 -0.24364221 0.14881447 0.39835086 -0.12991786 0.0648205 -0.10129824 0.10453756 -0.022517044 0.67771137 0.50804627 -0.15402734 -0.266329 -0.19890372 -0.2653185 -0.9471742 -0.6288554 0.46091017 -0.21055342 -0.11181868 -0.40939692 -0.20782688 0.17577453 -0.6835204 -0.3747276 -0.12527947 0.13805176 -0.6199871 -0.191786 -0.34314233 -0.39276195 0.58569115 -0.12496304 0.29868767 0.5456436 -0.03137159 0.8844151 -0.12908836 -0.21264628 0.5925628 0.13845606 0.33267537 -0.57768327
不好 0.12243067 0.22605939 0.57926095 -0.5551413 0.003936663 -0.09524987 -0.43307266 0.41593638 0.24415311 -0.30765018 0.16921017 -0.22447202 -0.12990938 -0.114912815 -0.122612886 0.25561732 0.20019571 0.09966879 -0.12729211 -0.518166 0.20113091 0.14779852 0.16896136 0.25521025 0.3494182 0.47101384 -0.19199304 0.6338672 -0.05911143 -0.08598634 0.22682713 0.58849436 -0.3333155 -0.79404527 0.23031981 0.25245252 -0.23598692 0.39529046 0.16812469 -0.2223041 0.07716349 0.20951165 0.039088003 0.29991955 0.44426525 -0.06814009 0.27544284 -0.958042 0.32147396 0.23399338 -0.1283664 0.7481374 0.34857586 0.30470172 -0.20673043 -0.47934678 0.027952041 -0.12663601 -0.16625623 0.07785263 0.36479515 -0.08641362 0.1354301 -0.1199015 0.052040175 -0.04865231 0.4550108 0.38309762 -0.077864565 -0.22660671 -0.1994808 -0.29745844 -0.8458848 -0.49824032 0.41965485 -0.17565133 -0.048567872 -0.27185678 -0.12721972 0.18923208 -0.5709871 -0.25821865 -0.0022421184 0.025189845 -0.44138297 -0.20951831 -0.23107077 -0.12471885 0.43467492 -0.037437323 0.24047051 0.41436166 -0.021455647 0.63277113 -0.042409897 -0.17256191 0.46119532 0.2052682 0.15284798 -0.43864554
螺杆菌 -0.104362674 0.3679579 0.578519 -0.45239362 0.49583742 0.057633936 -0.13870682 0.57959324 0.115500204 0.09555631 0.6179113 -0.393182 -0.014305388 0.26371443 0.18436101 0.54548806 0.9977993 -0.22439486 -0.28279442 -0.7340774 -0.24796753 -0.1666567 0.60180515 0.2973841 0.46297988 0.12601645 -0.12551424 0.863154 -0.54356813 0.22528175 0.3310347 0.41261366 0.31803778 -0.36890998 0.33420324 -0.035183195 -0.14250432 0.34798074 0.54428595 0.36553648 0.2512142 0.2804736 0.026802247 -0.060591314 -0.022287238 -0.61700773 0.3613693 -1.2331232 -0.109688416 -0.10632199 -0.032334134 0.60006654 0.33779836 0.7220597 0.21502419 -0.55262494 0.03892733 -0.5154765 0.0058659744 -0.11664317 0.50264287 0.006359553 0.5715677 -0.19080806 -0.14925373 -0.1684357 0.0028676738 0.17583068 0.0219478 -0.2770785 -0.26967886 -0.5320898 -0.9794274 -0.43166584 0.5975089 -0.17216024 0.20444879 -0.091141984 0.17667356 0.29807928 -0.44693634 -0.057556428 0.55952364 -0.34669834 -0.043676045 -0.55200505 0.0971258 0.6979773 0.19785908 0.26942426 0.06649568 0.26717636 -0.034397908 0.11163161 0.21267848 -0.13981771 0.39078927 0.58402026 -0.38759273 -0.19832471
反流 -0.03455724 0.46054527 0.61746085 -0.4980703 0.6043228 0.05710211 -0.040649444 0.50741524 0.06689788 0.07583018 0.7818841 -0.498003 0.0060856086 0.30245245 0.3377715 0.6226317 1.0758317 -0.2667186 -0.3267157 -0.98861176 -0.24048625 -0.21276926 0.7928226 0.35850558 0.6061961 0.15918706 -0.082916625 0.97981113 -0.6118265 0.12069735 0.35920146 0.37956253 0.37390867 -0.32244208 0.3030705 -0.15520939 -0.23255712 0.31638873 0.72888917 0.32712385 0.22732201 0.20516494 -0.0038188358 0.03390789 0.054465283 -0.71914643 0.4733826 -1.3318315 -0.29579845 -0.1574888 -0.0545673 0.6431708 0.3452798 0.8430233 0.34290797 -0.47781542 -0.05998633 -0.7224017 0.010415106 -0.06997866 0.4256509 0.0068800664 0.62786025 -0.23116598 -0.06994429 -0.22214432 -0.06308686 0.1274765 0.18601331 -0.31629807 -0.31204525 -0.5519901 -1.106225 -0.45235536 0.7703047 -0.08251028 0.25781325 0.13878256 0.24912874 0.34217608 -0.40917423 -0.032288447 0.58193535 -0.49944413 0.010249826 -0.46872783 0.09857046 0.9059656 0.19182692 0.41711494 0.113765694 0.24355786 0.027994804 0.062907875 0.24259228 -0.12699658 0.32796928 0.7595983 -0.47495994 -0.23978971
术后 0.13179433 0.2134918 0.74784464 -0.5406766 0.119065024 -0.1399667 -0.515202 0.5556218 0.2231941 -0.24781094 0.2186156 -0.31435585 -0.1374219 -0.0031518291 -0.07609813 0.43537307 0.43745175 0.106451884 -0.20678075 -0.74776024 -0.013629208 0.2045644 0.29780972 0.26577264 0.30379865 0.5100881 -0.18848485 0.7449777 -0.116559915 -0.0451843 0.33936104 0.7302863 -0.315683 -0.83175695 0.24019255 0.20194201 -0.303825 0.47649142 0.2882921 -0.05082051 0.13523991 0.25258568 0.080519035 0.23640534 0.3059939 -0.20331438 0.43057075 -1.1120744 0.2758989 0.16134454 0.012428368 0.7668837 0.3595618 0.47595945 -0.13214105 -0.46184853 0.12900032 -0.29732615 -0.26841807 0.09371101 0.35674518 -0.04905633 0.15947577 -0.22112198 -0.03362272 -0.063888684 0.2691631 0.4440042 -0.12010922 -0.20571594 -0.22375745 -0.33414552 -0.9172907 -0.5916007 0.5733023 -0.19609033 -0.014184802 -0.37386692 -0.12672018 0.22760437 -0.65132356 -0.29533172 0.061702278 -0.029016163 -0.40524217 -0.42968255 -0.16194081 -0.004203414 0.30840385 -0.02265586 0.1909553 0.44567877 0.10754698 0.67240685 0.111602835 -0.17960331 0.5381307 0.3510191 0.06542679 -0.41804078
痛 0.15457459 0.24283804 0.5772048 -0.58058816 -0.019509466 -0.086667635 -0.47610453 0.4077525 0.24488536 -0.35475364 0.17377152 -0.23415746 -0.12995084 -0.12393406 -0.1323578 0.24588916 0.15026587 0.119725876 -0.112013005 -0.5241829 0.24165355 0.16591719 0.15465288 0.28033212 0.3604185 0.4958226 -0.2067338 0.6562677 -0.0397302 -0.12399412 0.22655699 0.60671127 -0.35103568 -0.8530301 0.21569602 0.27512684 -0.2569088 0.40272707 0.1640545 -0.2727273 0.07193482 0.19599907 0.015664445 0.33648533 0.5084312 -0.038280968 0.2793979 -0.9785696 0.36670554 0.24055953 -0.15295428 0.78710014 0.36220834 0.27815342 -0.2512042 -0.48646355 0.028078226 -0.10708749 -0.15935558 0.09757143 0.36170772 -0.090855464 0.11937763 -0.12941724 0.07270742 -0.0524115 0.5030523 0.39508846 -0.082076736 -0.24604025 -0.22849435 -0.30057344 -0.877112 -0.52497804 0.41694844 -0.1706325 -0.06144596 -0.25686166 -0.13883755 0.20583083 -0.60480547 -0.268561 -0.041006386 0.032021392 -0.49200523 -0.18717213 -0.26775497 -0.15757225 0.480727 -0.047187816 0.27346364 0.43847883 -0.04004663 0.6783303 -0.07605794 -0.1836932 0.4729849 0.19870597 0.17185326 -0.4616574
今天 0.12335913 0.21417306 0.64229673 -0.59438944 -0.022777138 -0.11064468 -0.48569587 0.46063575 0.27994934 -0.3284553 0.12975748 -0.24019697 -0.14194018 -0.1478191 -0.17938536 0.28863043 0.19614094 0.1443845 -0.12700357 -0.5167216 0.2233987 0.19467519 0.14485118 0.2592158 0.34650782 0.51241034 -0.24029209 0.6560834 -0.02159928 -0.09257101 0.23483084 0.66847676 -0.41093537 -0.8916629 0.2688592 0.3103798 -0.25457856 0.4433311 0.12742978 -0.2593035 0.07600383 0.2555568 0.0704776 0.33711213 0.4960543 -0.07448257 0.29603964 -1.0587546 0.38209996 0.27742264 -0.13416801 0.78897804 0.37979904 0.32578763 -0.23606323 -0.5457821 0.03064131 -0.1062004 -0.19085722 0.09673155 0.3934894 -0.112453766 0.13191284 -0.1047917 0.06360322 -0.043170728 0.49651963 0.4261054 -0.118685514 -0.22798386 -0.20566346 -0.3097959 -0.8838104 -0.5398485 0.45926026 -0.19794515 -0.051927343 -0.33090594 -0.1426679 0.19676568 -0.5981845 -0.30126706 -0.018384192 0.033847466 -0.49701324 -0.22381407 -0.24442802 -0.19644785 0.47418046 -0.040633447 0.24056995 0.45660207 -0.019415101 0.7071831 -0.06792894 -0.17246835 0.5204761 0.20187564 0.19540651 -0.46079147
情况 0.09742261 0.22262485 0.6381197 -0.5454076 0.058118448 -0.098309055 -0.44293365 0.45676768 0.24108233 -0.28363308 0.17111059 -0.2844397 -0.11388657 -0.079154305 -0.08699079 0.33385623 0.31080902 0.10798675 -0.1684535 -0.60143256 0.11555182 0.17191781 0.24379718 0.26723415 0.3498535 0.4599349 -0.18858397 0.6954204 -0.08842976 -0.05398846 0.2593901 0.63257307 -0.30756563 -0.81627566 0.23257978 0.22647732 -0.24212705 0.40050948 0.25574318 -0.13911739 0.07819448 0.20486622 0.055942733 0.25247315 0.39151394 -0.1487572 0.35386685 -1.0330579 0.27403158 0.20521295 -0.08189971 0.76789397 0.35335362 0.37178323 -0.1550225 -0.4628659 0.068378486 -0.21184276 -0.19957928 0.105198026 0.3723531 -0.05548075 0.16155861 -0.1552659 0.038685568 -0.07008332 0.42696756 0.39382485 -0.0833965 -0.24275611 -0.2004257 -0.2934887 -0.8686299 -0.54592365 0.4899782 -0.15210505 -0.027270902 -0.28184986 -0.11724177 0.19986196 -0.5666617 -0.27080753 0.0437523 -0.015896127 -0.42228732 -0.29715627 -0.2231663 -0.038715385 0.41687265 -0.024721315 0.22595066 0.409903 0.044951446 0.62338275 0.023451285 -0.16933611 0.46936572 0.26348057 0.10358776 -0.43213883
反流性 -0.058786243 0.5192136 0.68762547 -0.52319974 0.6769016 0.08006744 -0.049244087 0.55662346 0.06904178 0.058877617 0.8455736 -0.5286975 0.0026792465 0.3228372 0.38313383 0.66792494 1.1861931 -0.3006366 -0.36300755 -1.0753566 -0.2677836 -0.20093486 0.85902655 0.4156002 0.6752476 0.14664707 -0.07515674 1.0856869 -0.6930129 0.1277277 0.381344 0.39813855 0.44214794 -0.3461469 0.33990574 -0.1844181 -0.21258813 0.31491226 0.838285 0.3756815 0.2267303 0.22261135 -0.027728971 0.020855471 0.025654996 -0.7680947 0.5206255 -1.4251996 -0.3045769 -0.18794784 -0.088875934 0.715186 0.3690485 0.9233149 0.3799867 -0.4952333 -0.036215898 -0.7995784 -0.018738626 -0.074184544 0.46926484 0.0013441072 0.66887647 -0.26972416 -0.11006279 -0.23787864 -0.0862226 0.12580755 0.20278846 -0.34470022 -0.33689234 -0.6115969 -1.2025343 -0.49617618 0.81508946 -0.08378922 0.27031183 0.15937358 0.25313956 0.4135278 -0.46615052 0.0006219689 0.6411548 -0.5417419 0.00723546 -0.5353304 0.11549993 0.99428684 0.20589136 0.4398689 0.14411078 0.2635134 0.031411868 0.09483722 0.28039393 -0.15442754 0.34353727 0.80441624 -0.524849 -0.27601132
嗳气 0.13105638 0.23612395 0.55389106 -0.5238907 0.048767786 -0.070485845 -0.37732002 0.4581424 0.19999652 -0.2315612 0.2733485 -0.19692537 -0.14051814 -0.069630966 -0.13083126 0.2485429 0.28002936 0.015229917 -0.14157553 -0.50061554 0.23438276 0.053886466 0.16982237 0.2180918 0.3568416 0.43508098 -0.209694 0.6459517 -0.12637809 -0.036259647 0.2158584 0.5571826 -0.26794392 -0.69640553 0.32193208 0.2418641 -0.22990829 0.41385102 0.06443875 -0.24522738 0.10244423 0.2767936 0.09476426 0.31803328 0.44108048 -0.12593299 0.18387866 -1.032227 0.29468253 0.21196195 -0.12910904 0.6484403 0.35453388 0.2961034 -0.22335021 -0.61153644 -0.04269714 -0.07667015 -0.091727085 0.00012408613 0.4517638 -0.17630894 0.21084164 -0.005569599 0.02656584 -0.04698 0.3863418 0.37450826 -0.120744534 -0.19067194 -0.19633424 -0.39681366 -0.87129647 -0.4177539 0.36064136 -0.2634813 -0.0009457572 -0.28586742 -0.072881274 0.20746806 -0.5476048 -0.21569492 0.070775844 -0.023526022 -0.40029132 -0.1962171 -0.13875441 -0.07700069 0.37304908 0.04113228 0.215127 0.38127398 -0.11528488 0.552828 -0.09020916 -0.1334472 0.46260342 0.22182688 0.10070104 -0.36839563
好转 0.118583605 0.20160761 0.63209355 -0.5606657 0.02246947 -0.112819485 -0.4439721 0.47282758 0.25826508 -0.2773146 0.16747972 -0.25724265 -0.13351916 -0.10231795 -0.13082853 0.3011225 0.2579658 0.10729882 -0.1424201 -0.5411956 0.15991065 0.17437296 0.19198422 0.24765302 0.32770872 0.48588645 -0.21278495 0.66180706 -0.05634596 -0.061485678 0.25066566 0.64140314 -0.34921977 -0.8358656 0.2701409 0.26679847 -0.249884 0.4181384 0.15626903 -0.18012573 0.08702308 0.24568804 0.08127895 0.29024628 0.42056188 -0.11729004 0.3138509 -1.0537162 0.3127486 0.23232645 -0.09794564 0.75018924 0.36996982 0.35948053 -0.19541423 -0.5237775 0.037600167 -0.14915581 -0.18711232 0.08388419 0.37380967 -0.10332942 0.16644576 -0.10015785 0.04612153 -0.055413492 0.43541834 0.40327054 -0.1125993 -0.21928397 -0.19921808 -0.3031799 -0.86671627 -0.52423394 0.46511054 -0.1927481 -0.021338094 -0.32941422 -0.11486018 0.19226995 -0.57430625 -0.28284293 0.01970519 0.007999428 -0.44647318 -0.27401918 -0.21715266 -0.12638205 0.43423218 -0.027829552 0.214668 0.41499338 0.010828491 0.64052224 -0.022366272 -0.15214142 0.5176242 0.24633163 0.1502261 -0.42573792
十二指肠 -0.08987507 0.47052822 0.63406855 -0.4726539 0.6667088 0.09847272 -0.08495628 0.509643 0.048238162 0.039132748 0.8011385 -0.4898218 0.02779378 0.3315727 0.37665597 0.619922 1.1507887 -0.32674772 -0.36246523 -1.0243999 -0.29380158 -0.16347039 0.80954546 0.4274427 0.6507135 0.07834356 -0.03057657 1.0131506 -0.6821175 0.13896817 0.36537752 0.35028595 0.45790103 -0.33978894 0.27503997 -0.16320033 -0.18522371 0.30798018 0.81100464 0.3656366 0.20717975 0.19209082 -0.077869266 -0.014052848 -0.02601338 -0.75472444 0.49557015 -1.2772359 -0.25315782 -0.23691829 -0.11266977 0.6785128 0.34555897 0.8475555 0.3731487 -0.4238434 0.014969472 -0.80145615 -0.03454762 -0.07888869 0.42353418 0.008385696 0.56510633 -0.286636 -0.16971825 -0.2356399 -0.12398109 0.099402614 0.18134539 -0.27242854 -0.35885966 -0.58049625 -1.1538932 -0.44836265 0.7517268 -0.08682152 0.23197608 0.15453482 0.23540255 0.38864973 -0.4497714 -0.007321486 0.6264419 -0.52314675 -0.008776451 -0.49122605 0.07547768 0.9451688 0.16831607 0.39934036 0.15421152 0.20838171 0.07171217 0.1067432 0.29047927 -0.15884086 0.29997253 0.74070626 -0.52892804 -0.27361587
吃药 0.10015908 0.18803099 0.54743177 -0.4902359 0.020152625 -0.09227526 -0.3857921 0.4224443 0.2256471 -0.2484441 0.15347989 -0.20587909 -0.12485689 -0.0956138 -0.12284993 0.2697842 0.22573043 0.09032073 -0.12859936 -0.46005768 0.14917636 0.14343977 0.15319043 0.21787547 0.29440945 0.42784667 -0.19345096 0.57870716 -0.062074598 -0.050045617 0.22313853 0.5584371 -0.3089744 -0.7226216 0.24660008 0.2374651 -0.21098848 0.37527636 0.12895644 -0.1650613 0.09004073 0.21544966 0.0752114 0.25621888 0.3793589 -0.104559496 0.2585189 -0.9234028 0.2816171 0.20965816 -0.08536176 0.6503284 0.32573336 0.31086352 -0.18364945 -0.47303256 0.029783802 -0.10889868 -0.15749998 0.066441305 0.3436226 -0.08977466 0.14768633 -0.08548498 0.0323224 -0.037871093 0.3839417 0.3479354 -0.10386472 -0.1811127 -0.1736257 -0.2828016 -0.7686813 -0.44512704 0.3866206 -0.18263875 -0.015461967 -0.2936831 -0.09950908 0.16697939 -0.5040836 -0.24798949 0.025960453 0.015390433 -0.39259845 -0.2255702 -0.18105681 -0.12068816 0.37517947 -0.027538445 0.18435536 0.3741618 -0.0061778254 0.55969906 -0.023669086 -0.14111109 0.4476359 0.19835013 0.12305778 -0.36137918
