1766 100
胃炎 -0.52268195 0.8544923 0.2532214 -0.46241802 -0.4867939 -0.41106915 -0.03648246 -0.96263325 0.12891664 0.22938673 -0.83358145 -0.8626652 -0.102828786 0.3570908 -0.23807728 -1.2963593 -0.38719174 -0.67161226 0.22798012 0.7039408 0.7216731 -0.06240242 0.28677717 -0.50178134 0.040091343 -0.36751264 0.4797326 -0.0023219483 0.99033463 -0.34103245 -0.15424526 0.018581139 -0.094982296 -0.9607549 -1.3113817 0.58581275 0.49482122 0.20394081 -0.08028731 -0.19357663 0.77621776 0.550051 0.12115235 0.21183126 0.541025 0.88628197 -0.15823554 -0.4588764 0.9386098 -0.11808699 -0.124775544 0.4613834 0.18386713 0.24761318 -0.07253175 -0.9161279 0.026085787 -0.30217546 0.5991466 -0.7962176 -0.63505113 0.32568908 -0.5460682 0.51241547 0.23114164 -0.38802776 0.7680736 0.29811394 0.8983249 -0.50769275 0.30758962 1.1322263 1.4046612 -0.13751845 -0.13452305 0.5631038 0.53409225 0.9848408 0.018629849 0.20000088 0.1309308 0.49806547 -0.7847573 0.01044054 0.28263128 0.21631597 0.9485759 -0.654016 -0.52278227 -0.6303592 -0.04743032 -0.7247266 0.7349657 -0.33817184 -1.237665 0.51519674 0.48608834 0.8914178 -0.052318953 0.38476616
慢性 -0.5261728 0.8113389 0.2771159 -0.45662564 -0.47651467 -0.3629131 -0.03579902 -0.9655271 0.13351323 0.2260608 -0.84273833 -0.8251332 -0.04976093 0.33303475 -0.2158013 -1.2692624 -0.3434728 -0.6807841 0.17150515 0.6647237 0.73360884 -0.054923233 0.30679378 -0.4820355 0.043427803 -0.4040398 0.5205804 0.014704699 0.97227806 -0.3266365 -0.20797293 0.04607396 -0.07354273 -0.92919225 -1.2813659 0.5557325 0.46370983 0.17283937 -0.0744175 -0.20358308 0.7806769 0.53055185 0.1075075 0.23043264 0.51172906 0.8384676 -0.14941804 -0.42347506 0.9034014 -0.08087687 -0.09468805 0.44381115 0.22730462 0.24468808 -0.09645128 -0.89010936 0.0006990265 -0.31366137 0.6402802 -0.7838684 -0.59305567 0.3054172 -0.5617317 0.52594894 0.21754175 -0.33846483 0.7348898 0.27035102 0.900116 -0.46309257 0.32150033 1.1189438 1.3923529 -0.16494259 -0.08645863 0.5405676 0.52224576 0.92981994 -0.0023933589 0.18946482 0.09808534 0.519265 -0.796293 -0.0138326725 0.2605575 0.17586626 0.94393444 -0.67258877 -0.46025607 -0.6390272 0.019721003 -0.7624806 0.67991316 -0.3328205 -1.2493627 0.5416014 0.4538338 0.8865663 -0.059841856 0.40173176
肠胃炎 0.12076035 0.44513562 -0.20887263 0.054800224 -0.07816406 -0.2370171 -0.34553775 -0.14632459 -0.36994818 -0.22434974 0.18693738 -0.49745527 -0.38540694 0.13060993 -0.060798515 -0.2664349 -0.58382916 0.26659623 -0.009490175 0.64491826 0.301374 -0.11206139 0.119741544 -0.29785138 -0.23799624 0.35932702 0.36460018 -0.47069237 0.5660547 -0.6331111 -0.10762902 -0.12742703 -0.18016167 0.1073351 -0.71447366 0.22229823 0.12480958 0.33710524 0.3665427 0.21197669 0.169447 0.5643939 -0.018222347 0.038075816 0.26536784 0.78519297 0.20747738 -0.6258035 0.38023967 -0.6372243 -0.16883278 0.13618463 -0.35401246 0.13075095 0.07181294 -0.37561107 -0.2695176 -0.08637562 -0.1001933 -0.07236753 0.08641926 -0.0072327578 0.016278654 0.106357925 0.30231076 -0.6768109 0.47911942 0.5017394 0.41267976 -0.3010491 -0.27217063 0.29874945 0.29224846 0.008303523 -0.48787984 0.67905515 0.22402468 0.40787417 0.033757143 -0.050709005 0.22861242 -0.12659082 -0.114157505 0.46207735 0.16126089 0.35681605 0.45272902 0.16262403 -0.60173756 -0.079027124 -0.70902044 0.09803254 0.22159645 0.018460715 -0.26131693 -0.103880726 0.6159775 0.023497952 0.07139908 -0.097050786
吃 0.23465854 0.3683155 -0.29602748 0.16381171 0.059607483 -0.2692251 -0.38550717 -0.07164488 -0.4419211 -0.26287633 0.3438751 -0.46093786 -0.42423514 0.102639504 -0.013329592 -0.18831174 -0.5979044 0.41312277 -0.01934271 0.72334117 0.36417264 -0.073551856 0.11594953 -0.24783042 -0.2704645 0.50774807 0.34935337 -0.60531014 0.49518025 -0.6649234 -0.054367255 -0.11566023 -0.1839211 0.25755528 -0.6827775 0.24517788 0.07372691 0.38710296 0.4031905 0.2579531 0.11522244 0.5129327 -0.04193382 0.089405015 0.2724495 0.7956219 0.21946943 -0.67192584 0.2749898 -0.7125508 -0.25666848 0.14328094 -0.47058457 0.14508082 0.14338227 -0.2614048 -0.29396164 -0.038491577 -0.21427816 0.046450183 0.26446316 0.011050746 0.120870166 0.09587412 0.34057376 -0.74077946 0.4532933 0.5343149 0.33920735 -0.31891647 -0.36697665 0.21801151 0.022001319 0.10886818 -0.6109022 0.73440623 0.109089196 0.38079825 -0.017507052 -0.05689592 0.28061828 -0.25309238 -0.020365695 0.5448729 0.1515207 0.3639992 0.43807 0.2439497 -0.6172192 0.028194396 -0.87887174 0.26345715 0.056947533 0.12911226 -0.10795112 -0.25052628 0.60510725 -0.1079911 0.10702937 -0.11902534
胃癌 0.10543038 0.58860135 -0.11625897 0.0072406353 -0.14140962 -0.22079886 -0.32372835 -0.09544128 -0.18682995 -0.1777361 -0.032155752 -0.6159304 -0.35150504 0.27057 0.04106434 -0.498866 -0.58049864 0.25183803 0.16269869 0.7683397 0.34570253 -0.072895445 0.3589913 -0.2534518 -0.17746308 0.39516154 0.46073082 -0.24982283 0.56168514 -0.50789714 -0.102690235 -0.20998271 -0.13344222 -0.00845861 -0.8966587 0.19608562 0.28957507 0.40004966 0.41131005 0.07706387 0.30439717 0.54341775 -0.017190153 -0.042638607 0.29022303 0.83588046 0.077531055 -0.7871976 0.54873824 -0.5615531 -0.09552239 0.19439842 -0.25105026 0.19635646 0.122015335 -0.5916215 -0.19558884 -0.08403206 -0.06592494 -0.10361569 -0.15641099 0.044085015 -0.23104355 0.3289949 0.30645213 -0.6069717 0.63341564 0.5914051 0.4477866 -0.52051765 -0.21505392 0.41612065 0.44210368 0.016381662 -0.31505892 0.550672 0.17491545 0.47961834 0.102681264 -0.12589449 0.23857707 -0.102035575 -0.25130263 0.22954091 0.182405 0.46678954 0.58393115 0.093231864 -0.5487393 0.114009514 -0.48098326 0.08828917 0.16891044 0.11344185 -0.3876002 0.11103954 0.3451176 0.26791278 0.19869132 -0.091061145
浅表性 -0.5248142 0.77226317 0.2660759 -0.4709478 -0.43252644 -0.38503298 0.018760482 -0.9412285 0.22840694 0.26742047 -0.8756114 -0.72640306 -0.032307234 0.36852434 -0.2105226 -1.2382795 -0.24085666 -0.72995204 0.22391927 0.576531 0.66960263 -0.04916412 0.24652751 -0.4666056 0.09957249 -0.44978425 0.41495472 0.1222949 0.89479846 -0.23701872 -0.11604843 0.03572505 -0.02138347 -0.9500877 -1.1464591 0.5036773 0.43233806 0.14688914 -0.13263766 -0.22393735 0.7793466 0.4466499 0.17700706 0.24626319 0.47059396 0.7468275 -0.22247455 -0.29044265 0.85246605 0.005096859 -0.12900665 0.40767953 0.26838228 0.25608674 -0.12554288 -0.84761167 0.09452236 -0.34758282 0.5950399 -0.757605 -0.6622549 0.31647044 -0.56901044 0.5012516 0.20961596 -0.1930034 0.63623685 0.15677999 0.78100276 -0.39968875 0.3917336 1.0512959 1.3541316 -0.15697236 -0.02933482 0.46061194 0.4780222 0.9023665 0.011995868 0.16229787 0.10092791 0.5683761 -0.75099814 -0.13055924 0.23974325 0.09996272 0.8168271 -0.6994417 -0.37090865 -0.61736166 0.092477575 -0.706046 0.7116707 -0.32892165 -1.2344766 0.5537628 0.34219462 0.90284353 -0.04179447 0.41264024
胃 0.002263267 0.43096584 -0.011411572 0.00085321214 -0.052116033 -0.23609157 -0.2667945 -0.16511366 -0.24999711 -0.16598293 0.025049685 -0.5760297 -0.36744416 0.13733585 -0.009920901 -0.3174605 -0.5559745 0.14979868 -0.043681942 0.67849123 0.36595064 0.055737525 0.27050412 -0.20788507 -0.20404325 0.29010847 0.3445347 -0.5451052 0.478156 -0.62231845 -0.1783137 -0.07672329 -0.14043905 -0.051495507 -0.8847154 0.28603232 0.2478991 0.21578908 0.40075466 0.1640979 0.34481272 0.46033272 -0.17035739 -0.007989004 0.33265883 0.6022354 0.21956237 -0.6376912 0.37400788 -0.35584775 -0.04878283 0.25801143 -0.18640985 0.11187331 0.13059478 -0.37965593 -0.19694082 0.07847453 0.044803094 -0.19152136 0.054132733 0.050261207 0.01441104 0.2608826 0.17328027 -0.64280564 0.503541 0.4945183 0.56192636 -0.37111875 -0.16992326 0.37239173 0.3670156 -0.034786034 -0.35562417 0.53221595 0.21643864 0.45745578 -0.021697013 0.024527771 0.080283344 -0.1262598 -0.16645862 0.41008553 0.060126 0.24058802 0.48552233 -0.03875125 -0.48750678 -0.012247886 -0.51034325 0.10562513 0.098007336 -0.011359493 -0.2581431 -0.009800302 0.61383706 0.07392421 0.05566887 0.056025304
做 -0.20022127 0.6116196 0.039796337 -0.23095109 -0.20829001 -0.3217439 -0.09470154 -0.41020778 0.039481595 0.019548064 -0.3818928 -0.5502905 -0.3043922 0.2841003 -0.10677949 -0.72131217 -0.35523468 -0.16343844 0.16566464 0.63551575 0.38745373 -0.031209033 0.25740224 -0.27409142 0.016224144 0.087310456 0.33862683 -0.1166861 0.57855237 -0.4088496 -0.04708993 -0.116402075 -0.041881148 -0.357734 -0.9109792 0.34355828 0.31364956 0.21322253 0.20236722 -0.022425568 0.5282602 0.40242127 0.030916106 0.06175427 0.31137732 0.71730834 -0.023371503 -0.41810802 0.55492437 -0.26791438 -0.108393736 0.28407738 -0.035018783 0.19652481 -0.047509946 -0.6195971 -0.051174372 -0.13625038 0.1830907 -0.34514937 -0.3369932 0.13822 -0.33824623 0.33082575 0.22688013 -0.3342371 0.53804 0.3250825 0.507184 -0.4139283 0.10690632 0.62306905 0.7812004 -0.079630196 -0.18743695 0.47632575 0.24835074 0.654639 0.117664635 -0.019886594 0.17554045 0.217889 -0.41777205 0.06569535 0.16793628 0.23571332 0.5704791 -0.2593552 -0.37272358 -0.255184 -0.25697833 -0.13922371 0.4077533 -0.056855105 -0.6551431 0.29766345 0.34785065 0.42682937 0.122739986 0.15393955
胃镜 -0.3062292 0.6685982 0.113046914 -0.32817444 -0.2897284 -0.36248094 -0.037161883 -0.5502303 0.11809253 0.11222131 -0.551622 -0.59223807 -0.25209257 0.32764813 -0.14234985 -0.8877042 -0.31591895 -0.37141013 0.18681356 0.59274757 0.4342917 -0.010562204 0.2534218 -0.33823222 0.05025301 -0.066498555 0.32095814 -0.034897633 0.6393379 -0.33664426 -0.034124274 -0.07202723 -0.028209873 -0.56302935 -0.9812126 0.4004395 0.35920745 0.180254 0.09965028 -0.08951243 0.6301395 0.39517286 0.07404504 0.10341548 0.34561294 0.72367775 -0.08923366 -0.32474053 0.6158533 -0.15165359 -0.095841974 0.34941447 0.09087988 0.20433445 -0.08808656 -0.6778838 0.004624586 -0.19402824 0.3301809 -0.4990546 -0.44310817 0.17733523 -0.4317217 0.38681775 0.18157911 -0.27059305 0.52638817 0.25057855 0.56902695 -0.41880423 0.21178241 0.753641 0.9835412 -0.124924 -0.11391982 0.42692223 0.30239135 0.72826797 0.10533867 0.022241836 0.1472627 0.35633248 -0.520524 9.929595e-05 0.186851 0.17214832 0.64608365 -0.4291658 -0.32763913 -0.36610433 -0.10338095 -0.29471976 0.51236296 -0.13322802 -0.83856153 0.40534285 0.322384 0.57686245 0.08867533 0.23938574
月 0.07799189 0.5189579 -0.18753366 -0.025013778 -0.09117563 -0.30356935 -0.27623633 -0.20599926 -0.16301079 -0.117536716 -0.025624113 -0.4984107 -0.34047937 0.23850316 -0.070447184 -0.50499773 -0.45920196 0.09691875 0.15761608 0.6325426 0.35274664 -0.09011078 0.17954637 -0.2945774 -0.12823944 0.30754143 0.33868882 -0.24952027 0.56179595 -0.466376 0.018779436 -0.16204694 -0.09805086 -0.05053885 -0.74010974 0.22821295 0.17724766 0.33942983 0.25621298 0.08629083 0.26260567 0.45785144 0.07017613 0.077061415 0.26333484 0.7975877 0.011091517 -0.5282601 0.46596316 -0.53757745 -0.20976788 0.17713842 -0.27411088 0.19983624 0.078975886 -0.49594036 -0.12752856 -0.15560491 -0.044502158 -0.1173422 -0.11234477 0.06039923 -0.18447292 0.23598227 0.32949534 -0.48172346 0.4702676 0.4153831 0.3346214 -0.37832573 -0.14632937 0.40475884 0.39212993 0.041995727 -0.38715672 0.6175324 0.13706797 0.50965315 0.038072105 -0.073677875 0.288859 -0.01863505 -0.22567563 0.20124575 0.20928091 0.3395935 0.4986751 0.056030657 -0.47780678 -0.09585285 -0.54468805 0.060654167 0.25616038 0.09048857 -0.44935733 0.03296434 0.33726948 0.22220442 0.15140584 -0.040469706
前 -0.19044772 0.48341742 -0.045999974 -0.104530804 -0.1226492 -0.14644495 -0.13746 -0.61192507 -0.17258568 -0.03445862 -0.19207518 -0.53010285 0.02483059 0.16974409 -0.1230315 -0.7313936 -0.3798435 -0.16356479 0.014940221 0.5251212 0.6334353 -0.084302455 0.18786949 -0.3070205 -0.16840139 -0.10944687 0.47709516 -0.21321703 0.67540324 -0.36402315 -0.2070804 0.050697334 -0.1647413 -0.31233677 -0.82230645 0.3928763 0.12305344 0.28341147 0.046224505 -0.021265663 0.30177033 0.36785755 0.053660896 0.2509556 0.3218891 0.6640196 -0.028166145 -0.47598118 0.55661 -0.35299182 -0.16684292 0.21963695 -0.06391828 0.15290175 0.0646535 -0.38163543 -0.28617013 -0.21954796 0.325695 -0.36738428 0.020680502 0.22164407 -0.21787107 0.3123234 0.19346854 -0.4691055 0.5374998 0.34655005 0.56425333 -0.32486737 -0.046124157 0.64577496 0.553329 0.0074199415 -0.3881368 0.4791271 0.2253386 0.49958393 -0.07367441 0.11644943 0.15655597 0.10718105 -0.41708517 0.3292025 0.27514854 0.17334725 0.69861573 -0.16404165 -0.47304738 -0.35850608 -0.29498523 -0.37680116 0.19420965 -0.13395871 -0.62238026 0.0528082 0.49821752 0.34763628 -0.06510812 0.15614498
萎缩性 -0.58243847 0.86319816 0.4363172 -0.5632646 -0.61420554 -0.43269616 -0.04715858 -0.8593509 0.1847873 0.290298 -1.017006 -0.9173215 -0.19391692 0.34687078 -0.22184177 -1.3336169 -0.38558316 -0.74151486 0.22770225 0.6980128 0.6136235 -0.041776907 0.38043043 -0.46067524 0.14042194 -0.40905458 0.48455375 0.0150851775 0.9793687 -0.36932734 -0.1892127 0.0052769203 -0.07211126 -1.067981 -1.3948509 0.6082591 0.6700583 0.084494874 -0.0021900588 -0.19469814 0.9341507 0.6277655 0.01988062 0.06223974 0.5543477 0.85393816 -0.10856444 -0.48704028 0.9637015 0.024638863 0.012802334 0.53952664 0.25615522 0.22464034 -0.108469695 -1.0855303 0.16970171 -0.1928154 0.64494586 -0.88571614 -0.81972855 0.2533356 -0.64515096 0.57173175 0.19528235 -0.39801627 0.786555 0.30619118 0.99588174 -0.52161986 0.3507376 1.1580253 1.6183659 -0.2115343 0.06861065 0.48452273 0.6257384 1.0156549 0.051833097 0.19764388 0.04466315 0.58783066 -0.85778534 -0.13117935 0.20681643 0.22912438 0.9498755 -0.7340129 -0.4847088 -0.6083122 0.117151655 -0.7805092 0.83204097 -0.3849673 -1.2597018 0.71468896 0.43873608 0.94396037 -0.037010122 0.43683776
- -0.13993597 0.5093748 0.61512935 -0.18862684 -0.48590526 0.14839219 -0.31991652 0.9246846 -0.8172996 -0.73261505 0.33640504 -1.2210566 -1.4794456 -0.23203547 0.18703437 0.43675855 -1.4317789 1.1658077 -0.71212083 1.6962546 -0.24269585 0.4354544 1.289783 0.2843132 -0.47527876 1.5586458 0.5458054 -1.5690744 0.115333565 -1.7513412 -0.9854816 -0.37150657 -0.7617317 0.55654556 -2.0801423 0.38325047 0.8404651 0.15689224 2.0318425 0.64358443 0.6046993 1.0003119 -1.5755576 -1.3326024 0.42044416 0.92890793 1.5231581 -1.8112653 0.24437545 -0.6941572 1.0359619 0.49547365 -0.3262082 -0.4433878 0.22353874 -0.797725 -0.9750613 1.3600591 -0.06972234 0.0902556 0.51018405 -0.4957869 0.376433 0.5054261 -0.2843788 -1.8137541 1.2495561 1.494825 1.6021574 -0.9931962 -0.6312451 0.09442671 0.9050594 -0.5626318 -0.21801668 0.32479054 0.54853606 0.5518459 0.81185395 -0.19172406 -0.41996548 -0.67599845 -0.21556842 1.3736662 -0.5566992 0.97104937 1.047136 0.26668876 -0.7684149 0.46255788 -0.69485694 0.9403274 -0.2829475 -0.122847 0.916594 0.5232009 1.837683 -0.83547086 0.17374328 -0.21282803
感觉 0.21730526 0.31227565 -0.2154522 0.21657318 0.14222188 -0.19022703 -0.41374394 0.06810471 -0.5170665 -0.38329047 0.47598892 -0.5518409 -0.48427212 0.069507495 0.061674763 -0.009165307 -0.72741336 0.530876 -0.16365705 0.79368377 0.35784775 0.06666856 0.2661191 -0.16674519 -0.37531337 0.6103514 0.3987997 -0.87983173 0.40010777 -0.85163945 -0.23305298 -0.08616295 -0.21614438 0.3435429 -0.8289509 0.24820831 0.12709104 0.31844872 0.60199875 0.33417094 0.17780454 0.50258535 -0.28215995 -0.027146153 0.32580787 0.6495517 0.40463594 -0.7967239 0.20046677 -0.6294336 -0.09150028 0.18239303 -0.43443108 0.0915144 0.23105542 -0.14547493 -0.40996072 0.19967003 -0.17363946 0.040791746 0.46360388 -0.012847348 0.2726202 0.16048545 0.20397705 -0.8876002 0.48336542 0.66791695 0.5049047 -0.36218897 -0.44979572 0.15061273 -0.060301293 0.052277166 -0.6196727 0.6804734 0.088856384 0.30983284 -0.056570012 -0.014332322 0.136436 -0.41576314 0.051033232 0.75192755 0.030707765 0.29423398 0.4294594 0.26893076 -0.6172799 0.14804223 -0.8795364 0.4336544 -0.15923995 0.12554964 0.10015052 -0.3218714 0.8266097 -0.29507023 0.07481237 -0.095037915
治疗 -0.11755745 0.6022996 0.008932063 -0.14775252 -0.229323 -0.2766416 -0.19641832 -0.404526 -0.10628719 -0.016920464 -0.2692131 -0.6278574 -0.25531965 0.24986845 -0.08768616 -0.7026102 -0.45798317 -0.08116245 0.12659964 0.6810734 0.43844545 -0.0746121 0.26594076 -0.32492432 -0.093376 0.11051718 0.4136226 -0.19656223 0.6688793 -0.43596625 -0.1023069 -0.09311203 -0.12253806 -0.28416052 -0.9410373 0.32906055 0.29743397 0.2974582 0.1997192 0.0056164167 0.40317675 0.5176695 0.03525063 0.06863429 0.34563503 0.7926715 0.01247512 -0.571254 0.5902897 -0.38519496 -0.12258535 0.26417658 -0.09935876 0.18331236 0.022306472 -0.61985344 -0.11816844 -0.15280391 0.15617381 -0.31957784 -0.24893396 0.11378896 -0.27337497 0.31613347 0.26304355 -0.48872608 0.59594274 0.40777534 0.56560713 -0.42468697 -0.02837482 0.61404836 0.7103954 -0.034887243 -0.250258 0.5421616 0.28821722 0.6027481 0.06475787 0.0031072432 0.19764897 0.11554081 -0.39205825 0.18353178 0.19358 0.33758315 0.64002305 -0.15977608 -0.5034549 -0.20597644 -0.33909163 -0.18885012 0.35558188 -0.054454487 -0.6139857 0.19951257 0.41026893 0.3988014 0.0604306 0.10284368
检查 -0.15055674 0.6128629 -0.00458052 -0.19039404 -0.21478502 -0.32345587 -0.1501918 -0.4125999 -0.026815249 0.0068167094 -0.3070267 -0.5912656 -0.28104556 0.2751946 -0.10139576 -0.7094415 -0.39807123 -0.12864415 0.1413254 0.6390858 0.3947126 -0.062524855 0.25031278 -0.31927797 -0.0326583 0.0998401 0.38132367 -0.15551321 0.62597775 -0.42085475 -0.045421463 -0.116141886 -0.08692973 -0.31845468 -0.895838 0.3199505 0.29351294 0.25912806 0.17293859 -0.0064040017 0.4643217 0.45586514 0.03227333 0.07824804 0.30761492 0.75077724 -0.013820588 -0.47729266 0.5672545 -0.3346857 -0.12762426 0.28045842 -0.0767333 0.1946985 -0.012376152 -0.6156859 -0.08369514 -0.16816302 0.15395866 -0.31797343 -0.3019662 0.12476849 -0.3034678 0.31434602 0.25835586 -0.40433842 0.5503675 0.35526544 0.5041795 -0.4199685 0.036439188 0.59927905 0.7263537 -0.04314995 -0.23215461 0.5101028 0.25529316 0.62764 0.08395744 -0.0057401964 0.20312887 0.16893041 -0.39753702 0.114966325 0.17761932 0.27060977 0.6076981 -0.20682707 -0.42672503 -0.25683174 -0.31457454 -0.15398534 0.4050484 -0.06197487 -0.6351029 0.25167742 0.36019146 0.41459894 0.09065193 0.12024145
伴 -0.62008536 0.9671662 0.40158647 -0.5700655 -0.6686059 -0.49918362 -0.037955415 -0.9965367 0.18773529 0.29703808 -1.036807 -1.0027968 -0.20641099 0.3796897 -0.25302818 -1.4434112 -0.43132535 -0.7497223 0.2492228 0.78097993 0.70111567 -0.05126935 0.36669216 -0.5681983 0.09592759 -0.4193553 0.5201365 0.020368591 1.093978 -0.3876079 -0.20624174 -0.010506501 -0.06893224 -1.1246874 -1.493671 0.6462293 0.6625239 0.14949748 -0.028850868 -0.19940211 0.9495456 0.6943213 0.1091336 0.12671858 0.60594404 1.0062687 -0.12724471 -0.5219743 1.0650263 -0.05259263 -0.06777917 0.568911 0.22153702 0.25794667 -0.13311693 -1.1659044 0.14459755 -0.28364325 0.67538816 -0.9166357 -0.8688518 0.30480498 -0.6791715 0.60671985 0.24651547 -0.43316248 0.8611242 0.3285886 1.0413555 -0.5680068 0.38085186 1.2869846 1.6991 -0.21164115 -0.012534128 0.60420483 0.68058115 1.1136087 0.06298661 0.22326641 0.09024315 0.6204907 -0.9148802 -0.12892005 0.24662156 0.26024994 1.0278592 -0.7615681 -0.5505438 -0.6812834 0.047665585 -0.8260554 0.89875054 -0.40400386 -1.4198794 0.7109758 0.49089554 1.0453728 -0.03784623 0.43177998
医生 -0.024769528 0.5956315 -0.054810375 -0.09382148 -0.1943676 -0.29699922 -0.27195123 -0.24531604 -0.21227264 -0.1012663 -0.08718315 -0.6390482 -0.42843598 0.20921355 -0.07387301 -0.53222394 -0.57310474 0.11233928 0.07264601 0.7630635 0.34487063 -0.055370726 0.29713196 -0.29540518 -0.15225008 0.32416505 0.4193481 -0.37043425 0.61367166 -0.5793497 -0.10351378 -0.15756476 -0.1742862 -0.10618655 -0.97216845 0.32733157 0.2765238 0.33528998 0.36525664 0.113691 0.37849435 0.58458406 -0.074766375 -0.0073968847 0.32786304 0.8616563 0.16413318 -0.6865209 0.5150565 -0.52791524 -0.12267968 0.26548502 -0.22259784 0.14608932 0.03504708 -0.58430696 -0.20933098 -0.0557524 0.017914029 -0.20449436 -0.12647393 0.051884513 -0.17547047 0.276717 0.27766827 -0.6358603 0.6093168 0.52374923 0.53945327 -0.45161438 -0.15062585 0.492023 0.56989664 -0.020501716 -0.33229092 0.6015542 0.272964 0.5731565 0.12038404 -0.03647738 0.21726607 0.02559807 -0.30909678 0.33372897 0.14121698 0.42091998 0.6316016 -0.031301603 -0.54636014 -0.1346373 -0.53164846 0.006931694 0.31120652 0.0016639029 -0.42609328 0.16082406 0.5405414 0.22399436 0.12300124 0.005448932
没有 0.14268485 0.42049485 -0.20236316 0.07999239 -0.01195993 -0.24791189 -0.32416686 -0.084273525 -0.3573897 -0.21737961 0.21709587 -0.5150464 -0.40434653 0.12517881 -0.021646969 -0.26740342 -0.57608175 0.3258885 -0.011940824 0.73119736 0.33825064 -0.05126667 0.2056077 -0.23313603 -0.22931288 0.45355377 0.36768103 -0.5267323 0.5008427 -0.6280665 -0.09094141 -0.12917395 -0.18830758 0.16092655 -0.7653871 0.24842225 0.13305299 0.34692618 0.40887082 0.2139002 0.18221323 0.49897978 -0.10077943 0.014193942 0.27202746 0.76683444 0.21436702 -0.67824614 0.3376052 -0.62552065 -0.15642856 0.17159474 -0.37985572 0.12021012 0.12971734 -0.33684933 -0.27487642 -0.0062212767 -0.12744384 -0.020924374 0.14176798 0.014274048 0.029166128 0.15873481 0.28414878 -0.6997673 0.49942163 0.5206802 0.3965438 -0.36408114 -0.29337958 0.27635399 0.18230154 0.0503272 -0.49177068 0.6352433 0.14531857 0.40858364 0.029106883 -0.054563016 0.22389483 -0.19002722 -0.1051413 0.47493795 0.123720236 0.35511866 0.48019552 0.16386539 -0.5553758 0.0044134916 -0.7133418 0.20779493 0.10075638 0.08497708 -0.17058216 -0.1067582 0.5701458 -0.026356649 0.10751305 -0.07661977
岁 -0.080052376 0.6774849 0.010403558 -0.113677025 -0.27958524 -0.3676924 -0.3017754 -0.41605613 -0.014690616 -0.045659807 -0.36729288 -0.7266985 -0.24365725 0.30384073 -0.045546446 -0.81148505 -0.4972208 -0.11457616 0.2907246 0.7384663 0.5334186 -0.09771691 0.23190989 -0.43987924 -0.07901086 0.10448043 0.41395757 -0.11395647 0.7315639 -0.43467778 -0.052034974 -0.14176928 -0.049259573 -0.40614933 -1.0199856 0.2850472 0.38519078 0.35377696 0.19290155 -0.059104465 0.5047782 0.5404088 0.092778325 0.024967322 0.38093197 0.8562579 -0.111070074 -0.63850623 0.72220594 -0.3734556 -0.16296044 0.26691052 -0.05915508 0.25124452 0.051463086 -0.7786027 -0.037343808 -0.23777734 0.17437959 -0.36115918 -0.4676693 0.18378125 -0.3749715 0.41487783 0.32383537 -0.4909343 0.6784109 0.44790387 0.54135054 -0.4708541 -0.011947468 0.68697006 0.80009794 -0.04907646 -0.21860763 0.61424154 0.29187587 0.67071337 0.024439948 0.007283528 0.23598951 0.10884253 -0.46045113 0.016265376 0.19845422 0.318071 0.62098163 -0.17253563 -0.52023363 -0.16825938 -0.2935331 -0.2846123 0.4118333 -0.037348844 -0.77558196 0.23750459 0.29061154 0.6011674 0.14856967 0.07811189
医院 0.015184057 0.5415698 -0.118561454 -0.055072974 -0.122465335 -0.28963813 -0.25610358 -0.18792787 -0.21530755 -0.13299964 -0.02304546 -0.5558359 -0.41300648 0.20883457 -0.057995953 -0.461031 -0.52737206 0.15762053 0.0652395 0.7273122 0.3218332 -0.062957525 0.2585641 -0.26859826 -0.14170517 0.35769224 0.382534 -0.36689168 0.54902554 -0.5766325 -0.075780585 -0.15328567 -0.16117443 -0.024485208 -0.8702108 0.28951782 0.22625202 0.33017418 0.364777 0.13393989 0.3322947 0.52383703 -0.056417916 0.008192946 0.27728647 0.82370055 0.13927276 -0.6189603 0.44781977 -0.5395107 -0.14192991 0.23715253 -0.26075715 0.14987187 0.042462062 -0.5027567 -0.2009205 -0.06362411 -0.029357461 -0.14230485 -0.078259915 0.049258217 -0.14973068 0.24257204 0.2730484 -0.5916328 0.55415344 0.49372157 0.46288338 -0.42445868 -0.1509321 0.4230432 0.46480048 -0.0045512724 -0.36371505 0.58624554 0.2062427 0.5374166 0.096066184 -0.06838522 0.22826384 -0.022002667 -0.25894716 0.3238337 0.16358192 0.37964 0.5661305 0.017983856 -0.5116918 -0.10652609 -0.5603501 0.08189321 0.24826911 0.043381575 -0.36751503 0.09042919 0.49585944 0.17503811 0.1402322 -0.010343844
; -0.15871657 0.63800377 0.6605946 -0.22727993 -0.6009862 0.15021574 -0.37691912 0.95162064 -0.9048589 -0.76784486 0.3164316 -1.3827447 -1.6068343 -0.23833159 0.18438068 0.36089456 -1.593947 1.2413402 -0.74109435 1.9107289 -0.24287929 0.42195603 1.4328414 0.25310513 -0.508581 1.7076087 0.6442229 -1.6534696 0.22298406 -1.9015143 -1.0518324 -0.42087543 -0.87202996 0.57190734 -2.307101 0.4272144 0.93968004 0.2398011 2.1825626 0.6824328 0.6413648 1.1575755 -1.6826305 -1.4615753 0.45165718 1.1362423 1.6304821 -2.0515795 0.3589229 -0.8357007 1.1014884 0.54902494 -0.37490162 -0.4796099 0.25034514 -0.9693295 -1.068727 1.4163458 -0.091777295 0.098435916 0.45875666 -0.55334264 0.34248063 0.5792019 -0.24004197 -2.002112 1.4244092 1.6527475 1.7608273 -1.1132989 -0.68526125 0.14770304 1.069085 -0.5808956 -0.24475478 0.39468604 0.61839646 0.65867376 0.9221368 -0.214414 -0.40061098 -0.7180459 -0.3186752 1.4581327 -0.5726179 1.1453445 1.2286699 0.29983458 -0.8741974 0.45980835 -0.7720039 0.9495823 -0.2245752 -0.12665878 0.91480404 0.64050585 1.9738824 -0.83496535 0.21097957 -0.2410862
变性 -0.22232339 0.48683184 0.057345156 -0.18076332 -0.1420811 -0.11996451 -0.110874675 -0.6157455 -0.10615865 0.03702576 -0.26606035 -0.48163345 0.08474614 0.15230599 -0.11580775 -0.742109 -0.30445275 -0.2869053 0.016085371 0.4555406 0.6065506 -0.051580112 0.21085626 -0.29475895 -0.15024553 -0.19344935 0.44262865 -0.14075136 0.6157868 -0.31029865 -0.24463461 0.08262549 -0.12977344 -0.38815472 -0.7856325 0.3438085 0.10727777 0.23165692 0.009068919 -0.102293976 0.35819012 0.35030776 0.054327257 0.25447524 0.32495302 0.5505927 -0.029222615 -0.34875172 0.546396 -0.2402132 -0.10560537 0.20718417 0.0317328 0.15480916 0.029863777 -0.33507776 -0.2284386 -0.18631221 0.4214785 -0.3829827 -0.021695886 0.21819007 -0.23251411 0.31932554 0.1570047 -0.37419233 0.46266553 0.27913684 0.57274723 -0.2883558 0.05116905 0.62554795 0.6165916 -0.03055796 -0.26829112 0.41341326 0.21800342 0.49059013 -0.09088932 0.13126962 0.11002752 0.18313104 -0.43740696 0.27688637 0.2263949 0.09817548 0.67110795 -0.21516752 -0.40740296 -0.37938038 -0.15175937 -0.4286661 0.21353483 -0.17598116 -0.663485 0.096824944 0.43690747 0.39862162 -0.111203276 0.16441377
现在 0.12428092 0.47892508 -0.1827084 0.049497094 -0.046285152 -0.26749128 -0.32926404 -0.107299566 -0.32811418 -0.20394248 0.14841191 -0.5666284 -0.4086708 0.15841384 -0.015484422 -0.34911013 -0.5958373 0.29446587 0.029603489 0.7653957 0.35792023 -0.05772771 0.2430036 -0.25954998 -0.22636357 0.4449346 0.39728168 -0.5016281 0.5490501 -0.63546354 -0.10053828 -0.13908926 -0.18133052 0.10730285 -0.8241378 0.26278624 0.18755536 0.3590019 0.41278332 0.18517739 0.231948 0.54246736 -0.07797036 0.013256427 0.29166433 0.80270654 0.19514447 -0.71712977 0.40187484 -0.61039466 -0.15198442 0.20069715 -0.35270798 0.1452674 0.124551505 -0.4204878 -0.24975777 -0.016069686 -0.10416753 -0.069970965 0.071309835 0.02421597 -0.021766737 0.20264259 0.2985961 -0.70694596 0.5357148 0.5485568 0.447392 -0.41431713 -0.27350792 0.33094698 0.27362067 0.048768893 -0.46556762 0.64790326 0.1799307 0.45201203 0.04301979 -0.049563512 0.23377071 -0.1642206 -0.14739951 0.43569967 0.14563185 0.3924839 0.523022 0.13783492 -0.5859044 0.0025731074 -0.6871708 0.16840154 0.14264303 0.0803262 -0.24335098 -0.055849466 0.55628526 0.041219797 0.11159119 -0.05685806
大便 0.22813362 0.4032153 -0.24701461 0.11073188 0.044894602 -0.30742538 -0.38296965 -0.057027236 -0.43314618 -0.29499963 0.32821593 -0.56351584 -0.45580488 0.10006458 -0.022529863 -0.17681414 -0.68027383 0.41424477 -0.041231308 0.83037025 0.35667396 -0.059535727 0.22320035 -0.24407536 -0.3276598 0.552032 0.39787287 -0.7072648 0.54440534 -0.74913347 -0.14627618 -0.16686833 -0.24140534 0.23619945 -0.8290895 0.22891559 0.0809046 0.40032426 0.5186969 0.29988363 0.14150305 0.57069707 -0.13981982 0.022997312 0.2488369 0.7857212 0.2925255 -0.78233206 0.32457435 -0.71176016 -0.15940584 0.20469536 -0.45073175 0.12072317 0.18517283 -0.3233393 -0.35518315 -8.990898e-05 -0.17532194 0.025524504 0.23215833 -0.002129396 0.15558645 0.15455894 0.3511245 -0.8702074 0.5330736 0.59841424 0.43970892 -0.38727814 -0.38300997 0.2285485 0.09419476 0.08803005 -0.64911884 0.7396651 0.12779914 0.44330758 -0.029259093 -0.055627484 0.21822087 -0.27709436 -0.040839437 0.58278483 0.108582094 0.3454598 0.47431964 0.23199333 -0.6024905 0.025259592 -0.88415116 0.30053872 0.10010365 0.09248316 -0.103668064 -0.21240954 0.6810531 -0.10739242 0.08298772 -0.09206108
年 -0.09594551 0.5875464 -0.041292742 -0.13676521 -0.18917854 -0.33467746 -0.17549072 -0.40313512 -0.017491633 0.0128838215 -0.28608355 -0.55001545 -0.23236233 0.28725246 -0.0856865 -0.7259967 -0.3726771 -0.13526262 0.19741881 0.6067595 0.4436277 -0.06873218 0.19655673 -0.33325934 -0.04743473 0.08591176 0.3618603 -0.11500058 0.6363165 -0.3722445 -0.021127464 -0.11470728 -0.060486987 -0.30797917 -0.82603633 0.29228377 0.27234042 0.28165808 0.13012418 -0.021393761 0.41559175 0.4452727 0.106205404 0.11255513 0.3094575 0.7612198 -0.07047742 -0.4594118 0.5651598 -0.34504566 -0.16766061 0.24734764 -0.078169085 0.22962837 0.0106322 -0.6057667 -0.03369797 -0.22777815 0.13221468 -0.3067882 -0.3134927 0.13086702 -0.31910342 0.32290983 0.29753026 -0.3891267 0.5317411 0.33991313 0.45456916 -0.40169656 0.019396847 0.59806764 0.653086 -0.015649216 -0.24127662 0.5324785 0.24586865 0.6204237 0.030510493 -0.0053160414 0.23799072 0.13668774 -0.37907177 0.0732712 0.22568679 0.2704601 0.5655216 -0.16532065 -0.44161603 -0.2000431 -0.32883006 -0.15650755 0.38405246 -0.035343256 -0.68954515 0.2057451 0.27682692 0.46030435 0.10334285 0.09313795
糜烂 -0.51421905 0.8019312 0.33055648 -0.47135994 -0.5351686 -0.41426897 -0.057990536 -0.82343024 0.14823933 0.24320662 -0.8550535 -0.8496865 -0.16563235 0.34440908 -0.20921382 -1.2112514 -0.3476952 -0.6547226 0.21397075 0.66593146 0.6033115 -0.050660536 0.3034584 -0.47347328 0.08390873 -0.3602133 0.43942955 0.009075738 0.9183421 -0.3247341 -0.1521296 -0.015092174 -0.080360375 -0.9492839 -1.2625369 0.54027474 0.5501217 0.12140379 -0.018243661 -0.16649097 0.80665934 0.56831396 0.0894958 0.1238576 0.5194324 0.8195244 -0.11231914 -0.43273765 0.8899451 -0.05575665 -0.062318448 0.46623933 0.18735534 0.20950264 -0.08422967 -0.9587067 0.11215054 -0.2185467 0.55241036 -0.75822294 -0.7166419 0.2649275 -0.5656512 0.5063758 0.21250948 -0.36391985 0.72896844 0.26887977 0.875671 -0.4762394 0.30976307 1.0634265 1.4097329 -0.17975524 -0.011674291 0.5007173 0.5601194 0.92575026 0.026593372 0.1751607 0.096397 0.5079146 -0.7360495 -0.0805049 0.20196031 0.21937622 0.8566667 -0.6433186 -0.4692385 -0.54676175 0.009962162 -0.686111 0.7413483 -0.3166098 -1.1782832 0.5857613 0.41834727 0.8711642 -0.032126445 0.3647097
药 0.11254257 0.46384338 -0.21698451 0.025257355 -0.045659434 -0.2747375 -0.30385122 -0.21864662 -0.29132918 -0.15216076 0.11251597 -0.47953558 -0.33331233 0.15474267 -0.06775333 -0.39065754 -0.5017372 0.18514377 0.062203854 0.6489798 0.3700013 -0.09821213 0.12655233 -0.28339928 -0.18715447 0.3289922 0.35476622 -0.40768152 0.56246936 -0.52690446 -0.024999732 -0.10487946 -0.14268802 0.059885867 -0.71239656 0.27157515 0.11911458 0.35974187 0.27315506 0.14917563 0.1967696 0.49408543 0.026831599 0.1056367 0.27311897 0.7801307 0.112505265 -0.5837025 0.3887092 -0.5976506 -0.25030956 0.15773919 -0.32967758 0.1655372 0.07748294 -0.375513 -0.21020094 -0.12494861 -0.09878634 -0.08251683 0.05013913 0.053064577 -0.051231883 0.15517186 0.33530837 -0.5858264 0.46393588 0.4294271 0.351283 -0.34099296 -0.2208032 0.3607712 0.24208744 0.07193685 -0.4748328 0.64877886 0.15449637 0.44098207 0.0011610583 -0.038155805 0.27069652 -0.07262772 -0.16466679 0.37131047 0.17547597 0.34637314 0.47632495 0.094420776 -0.5395899 -0.07839996 -0.66214913 0.08708657 0.2012395 0.07030146 -0.31696624 -0.07836184 0.46476346 0.10099273 0.10370495 -0.040897917
急性 0.06233804 0.45907137 -0.15529905 0.0019168829 -0.13053657 -0.23499608 -0.31348383 -0.18189971 -0.298053 -0.17788357 0.06893484 -0.4941648 -0.34149936 0.14278185 -0.07331244 -0.32946417 -0.52374053 0.17163467 0.028378986 0.58023113 0.27512375 -0.1375819 0.110814035 -0.2980265 -0.19360036 0.26102608 0.34959027 -0.37552094 0.57227236 -0.56168985 -0.1035358 -0.12299218 -0.15387484 -0.00194427 -0.7043099 0.22812843 0.14518052 0.2995991 0.30271992 0.15700988 0.21178837 0.5535538 0.015240367 0.028599879 0.2554428 0.76518196 0.16229546 -0.5677032 0.4341262 -0.5491471 -0.13314112 0.14353679 -0.27863398 0.12305857 0.030992981 -0.43222424 -0.21889739 -0.11179715 -0.055110402 -0.14194499 -0.023550238 0.00129552 -0.07034519 0.123482876 0.27456057 -0.58384734 0.48343128 0.4656493 0.41951624 -0.28428236 -0.21599025 0.33885923 0.40141857 -0.033905957 -0.3957143 0.634427 0.2588327 0.42770043 0.061958928 -0.039578542 0.22536734 -0.04432863 -0.17743617 0.3801717 0.16362272 0.35235366 0.45070082 0.10079539 -0.55773586 -0.13330434 -0.5866338 0.009979962 0.28035372 -0.024119535 -0.33614284 -0.023684803 0.550148 0.102438994 0.056845948 -0.06350039
疼 0.21015973 0.37618956 -0.23642673 0.12559856 0.07544513 -0.2880931 -0.3587161 -0.13583523 -0.3933899 -0.247522 0.28541362 -0.49504006 -0.35068187 0.10459347 -0.024655003 -0.19578591 -0.6000353 0.32309705 -0.027757145 0.7183984 0.40450975 -0.047022358 0.14573286 -0.24932726 -0.30020735 0.43203714 0.36549494 -0.6489114 0.5209814 -0.66107154 -0.112907715 -0.10669682 -0.17587502 0.17733017 -0.7204851 0.23441336 0.05553889 0.37161437 0.39489433 0.26043302 0.13559532 0.50691444 -0.06945716 0.10055867 0.25646597 0.6942284 0.21666896 -0.6757015 0.29610252 -0.61842793 -0.21239719 0.18287246 -0.38873196 0.14333656 0.18383862 -0.25159895 -0.29482403 -0.038883172 -0.1427689 -0.027056899 0.23784043 0.0468895 0.14474402 0.14888534 0.3239701 -0.75846237 0.44685 0.5102564 0.3965917 -0.32334414 -0.33394843 0.2461754 0.048207246 0.1090226 -0.61227506 0.6942974 0.1037539 0.38548517 -0.09205164 -0.018950703 0.20835571 -0.26255286 -0.020760097 0.5329337 0.12930481 0.26601526 0.40901527 0.19191167 -0.55447906 0.013381228 -0.8027713 0.24265556 0.058487255 0.08734365 -0.14787742 -0.25267237 0.6118279 -0.062527835 0.06074498 -0.04076367
非 -0.57128686 0.8179939 0.39429924 -0.5144505 -0.58648163 -0.41181466 -0.014175686 -0.8187999 0.2059819 0.27704218 -0.94668645 -0.8752724 -0.1887729 0.3369691 -0.23269299 -1.2611794 -0.3597065 -0.7008507 0.23208928 0.6484347 0.57610697 -0.05085861 0.3421455 -0.45547512 0.128376 -0.38443 0.42034164 0.05520342 0.91309255 -0.32106724 -0.18035258 -0.005547723 -0.06909508 -1.0066355 -1.3252602 0.5756785 0.61004764 0.08316008 -0.026054302 -0.20678632 0.85959184 0.56528425 0.056056563 0.07933874 0.5260523 0.8088096 -0.101816095 -0.42214534 0.93699574 0.018942242 -0.00804398 0.50462925 0.23369181 0.21863447 -0.11046847 -1.0243596 0.168367 -0.19362243 0.6063032 -0.8337962 -0.79957926 0.23804766 -0.61273175 0.5415398 0.18906723 -0.37986073 0.7382939 0.2862561 0.89505905 -0.52147025 0.36420184 1.1008284 1.5071363 -0.19805306 0.050071903 0.47520763 0.61786956 0.9503168 0.053063985 0.17627126 0.06062778 0.54351425 -0.78386796 -0.13099313 0.19742715 0.21741332 0.8893541 -0.69728947 -0.471573 -0.5652034 0.0970938 -0.7425623 0.7888974 -0.3513396 -1.223221 0.64075536 0.40407038 0.91385233 -0.02638802 0.41016272
会 0.15873227 0.37716016 -0.18597177 0.114982925 0.03010582 -0.23527454 -0.3695527 -0.046413627 -0.40562811 -0.27203307 0.27427748 -0.5484338 -0.42835262 0.10044683 0.0059044226 -0.1931043 -0.646718 0.38909253 -0.059077453 0.78025436 0.37220162 -0.020689398 0.24109238 -0.22249125 -0.29919034 0.4966005 0.37310514 -0.6644822 0.49430704 -0.71263385 -0.16267829 -0.11267514 -0.21366186 0.18432984 -0.8132141 0.24979308 0.15049422 0.34112462 0.4867226 0.25083312 0.2023426 0.5224499 -0.17330329 -0.00713381 0.3044497 0.72819555 0.29167843 -0.74600506 0.3074014 -0.61313295 -0.12376366 0.19602439 -0.38676512 0.10951194 0.17792691 -0.3053333 -0.30952477 0.06656378 -0.12652937 -0.026917892 0.24666697 0.007109821 0.12521718 0.17163672 0.26710922 -0.8015392 0.49659795 0.5706659 0.48519757 -0.36727563 -0.33850157 0.25619277 0.12684126 0.05700648 -0.5543413 0.66915286 0.14576438 0.3951928 -0.010431146 -0.015575874 0.1695793 -0.27741128 -0.05113969 0.5821553 0.09404717 0.3283031 0.47688165 0.1807136 -0.59585506 0.048417043 -0.7737857 0.25123978 0.03251185 0.07967699 -0.09729396 -0.18496396 0.68533385 -0.09830794 0.084793136 -0.054468594
肚子 0.12611857 0.2975037 -0.07392283 0.09326124 0.042238448 -0.15991054 -0.3148963 0.16169198 -0.45900434 -0.37255117 0.34763902 -0.53841436 -0.588973 0.036309276 0.049525034 0.038520478 -0.6972967 0.54792047 -0.20789357 0.8386873 0.2484345 0.08452473 0.34969723 -0.07800817 -0.3208082 0.6677185 0.32046595 -0.8251983 0.28981838 -0.8574602 -0.28196716 -0.14883171 -0.24867825 0.31868494 -0.9170718 0.2631495 0.19285415 0.24378632 0.74962735 0.33840504 0.25041917 0.49700287 -0.405919 -0.18329225 0.2847655 0.62475663 0.51118505 -0.7899355 0.18935707 -0.55343765 0.06992128 0.22112681 -0.385004 0.015737724 0.16360514 -0.23928706 -0.4232412 0.31811923 -0.12849294 0.022271393 0.40650386 -0.06451473 0.24198829 0.16302012 0.11496904 -0.8935742 0.5302566 0.6561049 0.59529704 -0.41145018 -0.36759004 0.15043315 0.11562456 -0.062986165 -0.5062249 0.5534761 0.15429235 0.34877646 0.09711307 -0.049887408 0.039384484 -0.3443141 0.027336204 0.72447693 -0.036599893 0.31827435 0.4406922 0.20981921 -0.5371903 0.16670877 -0.7404173 0.44765142 -0.109462455 0.04689077 0.15795659 -0.15214185 0.8726502 -0.33372667 0.08438608 -0.09623448
一直 0.096706346 0.41881073 -0.1648796 0.047602974 -0.034053136 -0.25585487 -0.30639252 -0.15369731 -0.30585098 -0.18280062 0.13667576 -0.5182375 -0.36716008 0.14296757 -0.03303445 -0.33533233 -0.54711336 0.23833746 0.005790729 0.69490874 0.3740497 -0.05034852 0.19642557 -0.2468875 -0.21436933 0.3697954 0.36079228 -0.4889627 0.5290422 -0.58908004 -0.11017394 -0.11128619 -0.16067952 0.07163431 -0.7733975 0.26529762 0.15439613 0.32905918 0.35843635 0.18267429 0.23023172 0.49733648 -0.06412685 0.046385765 0.2890158 0.73694146 0.18176039 -0.63170475 0.361795 -0.5590318 -0.16019243 0.19321516 -0.3227188 0.14237949 0.11792832 -0.35847273 -0.23248066 -0.022077888 -0.063507594 -0.08274074 0.10106793 0.041985337 -0.0014280945 0.17808467 0.27572912 -0.66961676 0.49302614 0.49187624 0.42888317 -0.36342326 -0.24445727 0.33000302 0.24600463 0.03682185 -0.46084598 0.624837 0.16365251 0.44285876 0.0021830318 -0.011788812 0.20811911 -0.14017649 -0.13459891 0.4337492 0.1379097 0.31313425 0.489341 0.09928105 -0.5391817 -0.03738558 -0.6522732 0.12737437 0.13901043 0.05227178 -0.25427884 -0.079686984 0.55655813 0.04030253 0.08456179 -0.030817721
胆汁 -0.5128141 0.8983222 0.31101683 -0.4606519 -0.56434107 -0.4805381 -0.03834317 -0.9131302 0.12045764 0.2575257 -0.8585816 -0.87340945 -0.21826485 0.37884623 -0.24323708 -1.3167762 -0.39958307 -0.6393767 0.20660183 0.72134185 0.65237755 -0.077196725 0.28519705 -0.51419896 0.029285839 -0.34978303 0.48842037 -0.06581386 1.022765 -0.4122636 -0.18279557 -0.018328017 -0.0683972 -0.95346695 -1.3864348 0.58508235 0.5627108 0.18079539 -0.024131257 -0.13557693 0.7995288 0.66081464 0.09934656 0.17285712 0.52220106 0.9914465 -0.097292155 -0.50829047 0.9624505 -0.15359503 -0.12745954 0.51305383 0.122843675 0.24575858 -0.09377359 -1.0191286 0.094744995 -0.2562823 0.55765593 -0.8125471 -0.6904848 0.24572454 -0.58611333 0.5450604 0.2235855 -0.4366943 0.79352283 0.32868302 0.8935938 -0.52665883 0.33686417 1.1475844 1.4676151 -0.19702506 -0.0894405 0.6383325 0.5873068 1.0448834 0.067833506 0.20333944 0.1359494 0.51379424 -0.7558508 -0.05811754 0.2709889 0.25397894 0.9274436 -0.65839666 -0.5502649 -0.62694484 -0.06462826 -0.6672631 0.75264513 -0.362515 -1.2729968 0.56427556 0.5248498 0.8975585 -0.053887933 0.36229244
症状 0.08499582 0.4491503 -0.14544071 0.029960258 -0.05372493 -0.24008942 -0.2988922 -0.14564903 -0.30687344 -0.19482785 0.117665164 -0.54411894 -0.36435682 0.14514752 -0.03851206 -0.35294846 -0.55835116 0.23892413 0.0062316693 0.7231452 0.37554386 -0.05193789 0.23311286 -0.24565925 -0.21130462 0.3913894 0.38090876 -0.48416603 0.5287037 -0.60472816 -0.12252071 -0.11424694 -0.1815826 0.06735533 -0.80771494 0.26604727 0.1678035 0.32928842 0.38396886 0.16641234 0.23444955 0.5036324 -0.08587344 0.01978952 0.2876012 0.76046914 0.18437332 -0.6543629 0.39118636 -0.57231534 -0.13649482 0.19422017 -0.3053205 0.14073482 0.10725732 -0.39183986 -0.26005647 -0.024577938 -0.055533037 -0.08932291 0.0943426 0.0277906 -0.016687432 0.20345081 0.26707536 -0.67638487 0.5127518 0.50887907 0.4536125 -0.37928396 -0.25227353 0.34716296 0.29156575 0.02124176 -0.45297778 0.6070571 0.17591597 0.45088843 0.0308697 -0.034605093 0.20458847 -0.13551934 -0.15606819 0.4332454 0.13452879 0.34409198 0.52286094 0.104353845 -0.5547949 -0.041765325 -0.6370422 0.12662365 0.13236207 0.051915787 -0.25886777 -0.054230243 0.5606741 0.04377921 0.08193663 -0.036339574
吐 0.21827419 0.34644267 -0.2949349 0.16327287 0.06766322 -0.21374854 -0.3916377 0.014457278 -0.48103896 -0.30168375 0.408398 -0.48378325 -0.46159747 0.07981898 0.009927935 -0.14609793 -0.640189 0.49961874 -0.06640776 0.76677084 0.34611523 -0.08317546 0.1807447 -0.21476972 -0.30684075 0.5700727 0.36757088 -0.6637113 0.46867415 -0.7343384 -0.12215741 -0.12226158 -0.2299236 0.3154477 -0.72194904 0.2413755 0.07491064 0.38737854 0.49395633 0.29758465 0.12071598 0.5119288 -0.13173653 0.029508604 0.26433474 0.79235077 0.30384997 -0.7399936 0.2537309 -0.73473406 -0.20295365 0.16112423 -0.51309705 0.13499716 0.16918823 -0.25060388 -0.36920255 0.048379194 -0.22404513 0.09158462 0.32717836 -0.027796704 0.16456003 0.12082113 0.31843832 -0.84058464 0.47003716 0.5972947 0.389904 -0.35072425 -0.4074902 0.19515553 0.017277766 0.09232953 -0.63676417 0.74568355 0.121738955 0.3634688 0.005563903 -0.050162338 0.24211444 -0.30998722 -0.018876517 0.62541944 0.13387412 0.37830445 0.47050202 0.29327595 -0.6499132 0.06019719 -0.88962185 0.33604595 0.0046618157 0.12520503 -0.008756632 -0.2451559 0.67820555 -0.19146033 0.11758063 -0.1604733
难受 0.101852074 0.2788639 -0.10941872 0.19292043 0.15656687 -0.11739235 -0.33574006 -0.025087507 -0.46482456 -0.3457092 0.41022924 -0.5250636 -0.37129828 0.05980016 0.05791389 -0.0058382815 -0.67249167 0.39851657 -0.22315255 0.6560794 0.36064765 0.1539143 0.26765952 -0.11471191 -0.36880034 0.4474412 0.39463967 -0.87552035 0.33011165 -0.80249393 -0.30312565 0.010898962 -0.17996337 0.2356515 -0.81540984 0.26780295 0.14000078 0.19636573 0.5355139 0.29212356 0.23223235 0.39327165 -0.3358355 0.009541623 0.3588962 0.44360203 0.3814199 -0.6848314 0.16352765 -0.41067204 -0.018908527 0.19320615 -0.27605823 0.059089605 0.2120223 -0.040981423 -0.39936545 0.24990954 -0.021420388 -0.06400071 0.5032421 0.040839132 0.2674449 0.20217441 0.079570465 -0.775115 0.41473302 0.60835856 0.5709814 -0.28679726 -0.38292086 0.19029187 0.0025106454 0.0014230402 -0.53144133 0.5483962 0.105153695 0.2577134 -0.118431844 0.06529363 0.03957872 -0.36496118 0.01732499 0.73883003 0.0030092439 0.15688133 0.42524374 0.12555628 -0.5489675 0.09333952 -0.70691496 0.335448 -0.24715677 0.053043127 0.08785581 -0.30354315 0.8672572 -0.28061318 0.010942092 -0.010162042
幽门 -0.29547945 0.8084917 0.022271376 -0.31127787 -0.36826617 -0.48658144 -0.17163311 -0.6781903 0.033886496 0.08341953 -0.51385295 -0.7962251 -0.29453588 0.38610068 -0.17137246 -1.0571663 -0.42216063 -0.39606345 0.17654447 0.7577575 0.53885347 -0.102783665 0.26741153 -0.5074936 0.026809825 -0.05154838 0.49424374 -0.032346997 0.8882765 -0.38621318 0.0041825464 -0.08899197 -0.05889349 -0.61544836 -1.1361614 0.46000203 0.43376318 0.2705926 0.005779694 -0.07098868 0.66979825 0.53955925 0.12324809 0.19428366 0.45461515 0.87465525 -0.09280083 -0.5093897 0.80703425 -0.3237174 -0.14554733 0.36771777 0.0013465919 0.2963413 -0.10004427 -0.863972 -0.019356953 -0.31834206 0.30126038 -0.52520096 -0.4930241 0.1585168 -0.422895 0.36202306 0.29114312 -0.3738406 0.644915 0.33455017 0.6509558 -0.46040088 0.15762371 0.92222345 1.1038893 -0.062553 -0.1989946 0.6042356 0.41572472 0.80535966 0.07112492 0.113229625 0.20566836 0.3813139 -0.5383004 0.08075375 0.20271368 0.3121699 0.82830495 -0.46589887 -0.52930415 -0.46386102 -0.23438053 -0.38386425 0.6249902 -0.17341968 -0.96806544 0.3854873 0.3672282 0.65851027 0.08764754 0.2468438
舒服 0.15264289 0.3505736 -0.19641557 0.124251924 0.051964328 -0.23371583 -0.33599535 -0.07926689 -0.34774745 -0.23882401 0.26005098 -0.4749595 -0.36178342 0.108036734 0.005489945 -0.19126026 -0.56224644 0.32157215 -0.032882605 0.6686611 0.35712552 -0.012957312 0.16762663 -0.21529676 -0.26844907 0.42348233 0.33070895 -0.59554327 0.4508773 -0.63323414 -0.11654114 -0.09286779 -0.1598386 0.16195615 -0.6963667 0.23336907 0.10949619 0.31613147 0.39808133 0.22990794 0.17835891 0.45054418 -0.098074906 0.04140278 0.27377632 0.6452185 0.22095689 -0.6281131 0.27009925 -0.5545119 -0.16307418 0.16721201 -0.35648093 0.12897646 0.16511211 -0.24219781 -0.25609913 0.024650034 -0.119574405 -0.020831268 0.21444619 0.03872022 0.09966091 0.14717413 0.2548774 -0.68151927 0.43180466 0.49574217 0.3940488 -0.3114233 -0.30621442 0.23388791 0.07263499 0.06182981 -0.5089118 0.6318088 0.10713288 0.3551009 -0.048102453 -0.0068027857 0.180889 -0.2367187 -0.041663148 0.5060066 0.09758776 0.27272958 0.39762634 0.16953589 -0.5308553 0.037311763 -0.72080433 0.23519167 0.019679338 0.078208745 -0.12105889 -0.19118766 0.58732766 -0.07481614 0.081854686 -0.049746167
说 0.004570254 0.51481956 -0.09180423 -0.05085508 -0.13460505 -0.26693374 -0.24695666 -0.19251414 -0.20490076 -0.11923246 -0.04150106 -0.5409442 -0.3776412 0.19314949 -0.04662939 -0.44650307 -0.5136631 0.14255184 0.05802097 0.6851285 0.31435084 -0.047731936 0.25569916 -0.25323945 -0.13439624 0.30865824 0.37234133 -0.35282665 0.53253555 -0.53432345 -0.08306135 -0.13874067 -0.1495465 -0.053227995 -0.83440006 0.27254382 0.22384323 0.30339217 0.34616455 0.11433233 0.31682435 0.50110996 -0.061312113 0.0084494585 0.2681452 0.770053 0.14162765 -0.5959858 0.43597838 -0.4889585 -0.115901396 0.2261455 -0.23552307 0.14165165 0.04638881 -0.4909373 -0.20176741 -0.053526722 -0.01222388 -0.13622029 -0.08667293 0.047367677 -0.13551211 0.23474027 0.25767213 -0.5693124 0.53176033 0.47503585 0.44823518 -0.41392538 -0.1391229 0.4064356 0.44799054 -0.0036827384 -0.32939017 0.5415526 0.19473529 0.501886 0.089407094 -0.048099138 0.20531985 -0.0073095206 -0.2431137 0.3032628 0.1400807 0.35582462 0.53972757 0.005458799 -0.5032476 -0.09883606 -0.511987 0.05243143 0.23181614 0.018463124 -0.35677683 0.10320424 0.46500406 0.17569238 0.121239804 -0.0022795424
没 0.15447232 0.40313452 -0.20043099 0.089688174 -0.00468089 -0.22264346 -0.34025562 -0.015439165 -0.3876986 -0.25869188 0.25958258 -0.523514 -0.45221403 0.117588095 0.0028927526 -0.21928304 -0.62490565 0.39974284 -0.032157466 0.7614949 0.3184869 -0.041522004 0.2448613 -0.2017978 -0.25896356 0.5178541 0.3632922 -0.5810953 0.47319138 -0.6783892 -0.12635684 -0.13804664 -0.2037998 0.20510729 -0.7921748 0.24213648 0.15555573 0.35602936 0.48066264 0.23230942 0.18827114 0.50991166 -0.1513944 -0.030905105 0.27705917 0.7631134 0.26616243 -0.72274673 0.31168556 -0.63778853 -0.13034546 0.1762971 -0.39224157 0.11579558 0.142301 -0.3361567 -0.304232 0.056689557 -0.14746729 0.008811187 0.19467086 -0.0032502096 0.06621974 0.16841778 0.27284053 -0.7596319 0.51050544 0.57937884 0.42483497 -0.38980806 -0.3354872 0.24874218 0.1675593 0.04252966 -0.51505286 0.6359442 0.14503379 0.39764664 0.052228954 -0.06353487 0.20718151 -0.22932404 -0.07805949 0.5278072 0.10789194 0.37481087 0.48892382 0.19497463 -0.5849858 0.05783775 -0.744981 0.26166722 0.05349415 0.100150146 -0.09775558 -0.11538151 0.6220601 -0.08313111 0.11872473 -0.0956916
东西 0.19271176 0.37431854 -0.2168392 0.14583746 0.043892596 -0.21721216 -0.37439674 -0.021089012 -0.4420166 -0.287744 0.32952568 -0.5325278 -0.4501392 0.09893872 0.010589433 -0.175193 -0.64803886 0.4262732 -0.062442094 0.7694118 0.35434827 -0.028664052 0.2102396 -0.21983378 -0.3089824 0.5202847 0.3713445 -0.6705803 0.47480148 -0.7224476 -0.13924012 -0.1108216 -0.21087213 0.24067953 -0.7757008 0.24307519 0.13124801 0.36088163 0.49224025 0.27507752 0.17268132 0.51463455 -0.15188564 -0.0038968748 0.2905658 0.74739337 0.29605028 -0.74135476 0.28597492 -0.64981043 -0.15110482 0.16487955 -0.42651787 0.12692676 0.17293607 -0.2821895 -0.3226536 0.074013405 -0.16700122 0.014056576 0.27614275 -0.004133822 0.13531311 0.15515739 0.27903438 -0.8062086 0.48229402 0.58274025 0.43842256 -0.36776406 -0.3672253 0.23262608 0.07281157 0.06136601 -0.57451624 0.6861232 0.124010265 0.36618727 -0.009580511 -0.03034761 0.19858326 -0.2937234 -0.033618722 0.59935534 0.09500769 0.3648969 0.4633635 0.232755 -0.61648965 0.07809773 -0.8114201 0.28535017 0.011451735 0.108282916 -0.06416724 -0.21083611 0.6666094 -0.13155633 0.09109809 -0.106348224
有点 0.16176881 0.32378396 -0.18721075 0.19955741 0.14075167 -0.18333524 -0.3872424 0.0017461926 -0.49043408 -0.36574286 0.43506157 -0.5668092 -0.44276914 0.07396687 0.04487619 -0.051067922 -0.7179789 0.469561 -0.1677527 0.75309145 0.37488016 0.071827896 0.26015398 -0.1740904 -0.37237003 0.5386958 0.40810078 -0.8647299 0.41674653 -0.83298844 -0.25173894 -0.050655592 -0.20987348 0.27686775 -0.84810823 0.2690023 0.13451168 0.2748915 0.5533181 0.3176589 0.20276335 0.4702855 -0.2846379 0.0085315555 0.34264952 0.595829 0.3857093 -0.7718762 0.22621673 -0.5597983 -0.087050594 0.19471177 -0.37725255 0.094942145 0.2184232 -0.12622443 -0.3978675 0.19612989 -0.104405575 -0.015530007 0.44360143 0.013946959 0.25620213 0.18867117 0.1880114 -0.8614497 0.46928805 0.638681 0.5293133 -0.33737624 -0.4178268 0.19616158 -0.01045904 0.044387355 -0.5965846 0.6627105 0.10723649 0.31715754 -0.09039149 0.02618133 0.114510395 -0.38130763 0.021814883 0.7415531 0.042373467 0.24670017 0.4647038 0.20323536 -0.6143425 0.10941204 -0.82111794 0.37030187 -0.16059586 0.09430582 0.05536196 -0.29532096 0.8398571 -0.24882999 0.05620363 -0.0616493
呕吐 0.14757058 0.44062117 -0.2126414 0.08201918 -0.0372679 -0.24035428 -0.37624684 -0.049266335 -0.4284627 -0.27965406 0.25002635 -0.5810081 -0.48227447 0.121805094 -0.020762607 -0.2670812 -0.6696785 0.39373732 -0.023126522 0.7995961 0.35520148 -0.07537574 0.22373016 -0.26475516 -0.27380943 0.5199173 0.3982496 -0.6004072 0.5535931 -0.7336167 -0.14926408 -0.14440542 -0.22799432 0.18986559 -0.846154 0.2536552 0.15507591 0.38433442 0.49163106 0.26400325 0.19323304 0.5822362 -0.12306905 -0.02097502 0.3027842 0.86381024 0.27943146 -0.7758766 0.36884 -0.70377374 -0.14306708 0.18057635 -0.42395362 0.12762098 0.13704282 -0.39487317 -0.33108142 0.0143599445 -0.14745292 -0.013401498 0.17335501 -0.022711126 0.060996752 0.17456228 0.30378935 -0.8133076 0.55641764 0.60888463 0.4874709 -0.3844279 -0.3547806 0.29288816 0.23995999 0.028801043 -0.5450059 0.7285653 0.20066833 0.4590235 0.046585448 -0.058708522 0.23210114 -0.23083504 -0.109396525 0.55273783 0.14038362 0.40944558 0.5349936 0.21578304 -0.65304244 0.0037491426 -0.7993424 0.22396025 0.12577152 0.063650094 -0.16576956 -0.12970147 0.6797227 -0.05705828 0.11305139 -0.11392507
吃饭 0.14841461 0.32767057 -0.1894135 0.17922269 0.11232533 -0.17444263 -0.35797352 -0.08612099 -0.43432882 -0.30136403 0.35241792 -0.51336515 -0.35163474 0.09536157 0.03710265 -0.15631795 -0.62355226 0.36194688 -0.11634719 0.6694687 0.40268254 0.034376636 0.2015112 -0.1999232 -0.3227903 0.4175096 0.38935858 -0.718587 0.45458335 -0.7042274 -0.20827398 -0.031697012 -0.16754854 0.19450279 -0.7644318 0.257514 0.10223052 0.27767423 0.42591003 0.26277095 0.18728168 0.43131652 -0.18515274 0.070793934 0.32410705 0.58928937 0.27517128 -0.6850321 0.25899452 -0.5194989 -0.135548 0.17235842 -0.33503813 0.12571064 0.18499228 -0.14128578 -0.33391577 0.10119013 -0.08644656 -0.054711178 0.3638151 0.038555652 0.18383546 0.19041432 0.21208769 -0.735064 0.43088856 0.5661337 0.47633663 -0.29234225 -0.36037263 0.22647828 0.03349873 0.058834568 -0.5492782 0.64330554 0.111402586 0.31057304 -0.11251905 0.026428716 0.14510472 -0.3034523 -0.03319228 0.63479173 0.082470156 0.23188087 0.4552939 0.16596417 -0.57727706 0.04868139 -0.74104375 0.2630772 -0.09765804 0.075083815 -0.06133656 -0.2677711 0.7128739 -0.14640568 0.04762969 -0.045741867
一次 0.12483637 0.45409456 -0.19436066 0.04959394 -0.053361617 -0.26590824 -0.35552815 -0.035843242 -0.43031174 -0.2768227 0.25210536 -0.6206213 -0.5380443 0.11690615 -0.014006316 -0.26819214 -0.6978541 0.43039164 -0.037041407 0.87766653 0.34908295 -0.055735018 0.29247603 -0.23999685 -0.28371492 0.577703 0.42214522 -0.6494462 0.552572 -0.78182137 -0.18143283 -0.18199572 -0.2576003 0.19688952 -0.96226436 0.29287708 0.18480152 0.388092 0.57530916 0.2820977 0.23835307 0.6056449 -0.20008665 -0.049954563 0.30811375 0.8921233 0.34007317 -0.8268986 0.37348363 -0.7205861 -0.09920021 0.2289839 -0.44822836 0.10716341 0.14891599 -0.42512843 -0.36342612 0.07613867 -0.12782486 -0.0059626047 0.1766892 -0.017161071 0.06528953 0.20479943 0.30411652 -0.88314736 0.6116645 0.65670884 0.52503335 -0.45257765 -0.3530634 0.31264633 0.27693266 0.031860694 -0.56730485 0.73081917 0.19974726 0.49986693 0.087299906 -0.057334255 0.21027073 -0.22282383 -0.13212778 0.5927743 0.10412475 0.4262718 0.60538644 0.1943947 -0.648861 -0.00056726503 -0.80830836 0.2743725 0.12523574 0.061786555 -0.13650322 -0.06655862 0.72295994 -0.093758024 0.12193679 -0.098121166
手术 0.059014942 0.574665 -0.0811787 -0.020479942 -0.13008803 -0.23187792 -0.28937784 -0.08464131 -0.21674144 -0.1808381 -0.015182361 -0.62597764 -0.41209692 0.23304561 0.012880162 -0.462583 -0.6011331 0.2558044 0.09469444 0.7825609 0.32418534 -0.03521723 0.36940122 -0.22465919 -0.1900904 0.41957757 0.43756947 -0.34272075 0.525199 -0.5773501 -0.13842393 -0.19632645 -0.15955637 0.0032722005 -0.9312134 0.23195161 0.2803084 0.3767181 0.45743662 0.11850687 0.3003357 0.5451095 -0.08393877 -0.054767355 0.2976633 0.82784456 0.14380774 -0.76656026 0.5050077 -0.55530626 -0.054365173 0.21761324 -0.24537633 0.14419691 0.10566248 -0.5588178 -0.21648271 -0.02174149 -0.041709274 -0.12214348 -0.08067009 0.024595195 -0.17921874 0.31165886 0.2668051 -0.6563763 0.630756 0.5935849 0.49832305 -0.5058637 -0.2248742 0.40964174 0.46022424 -0.012758926 -0.3259301 0.5474416 0.18654488 0.4980544 0.12833351 -0.09784672 0.22260652 -0.11308791 -0.2576733 0.3077966 0.14979205 0.45389733 0.599726 0.0941635 -0.5502436 0.06261547 -0.50833845 0.1179715 0.16119628 0.07803301 -0.3260157 0.11018604 0.43880925 0.18072401 0.16936454 -0.05714641
想 0.12361163 0.39395538 -0.15931109 0.07468944 -0.0158457 -0.21750034 -0.34578398 -0.030077418 -0.38310975 -0.25522247 0.22492087 -0.5454111 -0.43792328 0.10227352 0.002724784 -0.20616208 -0.62516904 0.37736523 -0.0458423 0.75615084 0.3031292 -0.02942131 0.25908467 -0.20795713 -0.24918886 0.48051342 0.36384568 -0.58600783 0.460045 -0.66965795 -0.1455644 -0.13321728 -0.2088038 0.17572372 -0.81244475 0.23964438 0.17804162 0.3278335 0.4725394 0.23221269 0.21596153 0.5116524 -0.17721015 -0.033532858 0.29034603 0.72443926 0.2792381 -0.73434114 0.3155513 -0.58325815 -0.10148096 0.19958812 -0.36896244 0.107547894 0.1316104 -0.34024233 -0.2975423 0.074940085 -0.12794875 -0.022946253 0.17518984 -0.01428363 0.07939657 0.17805085 0.2413274 -0.75036305 0.50588113 0.5716325 0.46532214 -0.37883142 -0.3226364 0.25384504 0.20074674 0.031529147 -0.48041052 0.6242837 0.15692155 0.3913287 0.041342106 -0.051613428 0.178083 -0.22058004 -0.09938059 0.52702016 0.08548293 0.3759305 0.48165497 0.16822566 -0.57337683 0.035118483 -0.71081233 0.23672448 0.0642471 0.07280191 -0.09652026 -0.10797498 0.632562 -0.07219126 0.09540064 -0.06678713
晚上 0.19829625 0.39998305 -0.24368258 0.14063334 0.025815815 -0.23641309 -0.39560118 0.021915272 -0.47762498 -0.319833 0.37460598 -0.56086135 -0.52513945 0.0919575 0.002299754 -0.16234559 -0.69770217 0.50658804 -0.07429912 0.84163976 0.34756818 -0.049644057 0.23897134 -0.21758182 -0.32381916 0.61313456 0.39719507 -0.72066754 0.49902573 -0.80737907 -0.15886787 -0.15082407 -0.23988603 0.29044133 -0.8581141 0.25705874 0.13964884 0.3967052 0.5719767 0.31787425 0.18046995 0.5643483 -0.18406263 -0.027999653 0.30315697 0.83584833 0.35319117 -0.8218966 0.29972345 -0.750874 -0.1485863 0.18512157 -0.48745143 0.1155678 0.17384844 -0.32094473 -0.37328202 0.09522361 -0.19312954 0.05336802 0.29507065 -0.027484763 0.14634328 0.1620862 0.29401442 -0.8975896 0.5454055 0.6622658 0.46782035 -0.41015178 -0.40677983 0.22903739 0.10821737 0.0638685 -0.6250086 0.7419825 0.15654516 0.4219471 0.038769294 -0.055386927 0.21958037 -0.3120407 -0.04650068 0.65588766 0.113085404 0.4137486 0.5221792 0.26949552 -0.661472 0.06280012 -0.8864634 0.34372857 0.028249137 0.10601982 -0.03402856 -0.19265383 0.73656225 -0.17996636 0.11774387 -0.14374685
拉肚子 0.15716551 0.40525198 -0.20944145 0.08454737 -0.012898447 -0.24584983 -0.3686825 -0.06615016 -0.43700424 -0.27895322 0.27876788 -0.5561324 -0.45859545 0.09659777 -0.014109686 -0.22121114 -0.650016 0.3975588 -0.049615014 0.78786093 0.3599606 -0.054909978 0.22818038 -0.24172579 -0.2924863 0.51312643 0.38650322 -0.6377426 0.5369897 -0.72493017 -0.1548341 -0.13922459 -0.23337868 0.19937232 -0.8300238 0.27025184 0.12960385 0.3692688 0.49045786 0.2695164 0.19231746 0.5628879 -0.1373479 0.005573943 0.29815793 0.80230427 0.30069917 -0.7548355 0.343224 -0.6781512 -0.1459211 0.19345294 -0.42005435 0.11762622 0.14800376 -0.33827698 -0.34145877 0.033182945 -0.13515492 -0.015966428 0.2234089 -0.0011153168 0.10708255 0.15530173 0.2981674 -0.8247662 0.5271149 0.5878581 0.48215878 -0.38245767 -0.35213387 0.26894155 0.18423773 0.05250774 -0.57661706 0.702409 0.17516513 0.42858386 0.019449407 -0.032953523 0.20393844 -0.23571713 -0.088450074 0.5904444 0.11346414 0.36998123 0.5212486 0.20950939 -0.6227171 0.011254411 -0.8024001 0.23350677 0.08564826 0.06277031 -0.12520626 -0.15167964 0.69804746 -0.09710368 0.090502866 -0.09296182
最近 0.07098802 0.48206526 -0.1489451 0.027987206 -0.0668473 -0.29518297 -0.32347736 -0.18605435 -0.31489104 -0.18586333 0.094651 -0.58992964 -0.38989666 0.16730444 -0.037921734 -0.4132063 -0.5958842 0.22752756 0.02235458 0.77314687 0.41829762 -0.05128681 0.23825784 -0.28433335 -0.21781619 0.3851846 0.39333278 -0.50297797 0.59161955 -0.6367751 -0.12416733 -0.12027892 -0.18497409 0.025110325 -0.88129646 0.29495177 0.19414493 0.3475596 0.3917624 0.17059857 0.28195593 0.55437016 -0.07876031 0.030458946 0.3203648 0.809512 0.18277836 -0.6972676 0.4278459 -0.5718338 -0.14961359 0.22501636 -0.31598416 0.15163785 0.124905795 -0.44746625 -0.24353075 -0.031990338 -0.044337735 -0.12934619 0.056078188 0.047069866 -0.031845957 0.22971456 0.30254203 -0.70959824 0.5547547 0.52831256 0.49993262 -0.40749073 -0.24003005 0.3991482 0.34238452 0.023995327 -0.4727961 0.67754835 0.1962495 0.50955653 0.00937462 -0.010847737 0.2111476 -0.12470339 -0.17648786 0.43400738 0.14419107 0.35358813 0.55456173 0.07262128 -0.58656085 -0.053061165 -0.6661199 0.1098074 0.17880839 0.030839853 -0.31379086 -0.042568035 0.5848971 0.09021105 0.08962018 -0.006557399
腹泻 0.11514459 0.43659532 -0.18313502 0.04636866 -0.060078263 -0.24850841 -0.32831466 -0.076452784 -0.36632705 -0.22597846 0.1872482 -0.55171883 -0.4477388 0.119493686 -0.024762638 -0.2836025 -0.6135078 0.32200393 -0.012286386 0.75568277 0.3291644 -0.06641411 0.22299393 -0.25136173 -0.25347972 0.46977383 0.3723599 -0.54191977 0.5381643 -0.6860063 -0.13306193 -0.14454083 -0.22232056 0.122584604 -0.8237369 0.25256377 0.16632539 0.3557589 0.44910005 0.23672484 0.21015209 0.5523669 -0.11398526 -0.018384939 0.28454962 0.8096804 0.2591694 -0.71944636 0.37087587 -0.646887 -0.12541224 0.1952002 -0.37683314 0.114266284 0.118336394 -0.40978855 -0.30215865 0.002513011 -0.101152346 -0.047836836 0.11558242 -0.017567888 0.025413407 0.18095574 0.2783711 -0.7509593 0.53679025 0.57032055 0.4720114 -0.3786445 -0.2899702 0.3035759 0.2742268 0.024920033 -0.5008148 0.66476905 0.19779618 0.45419195 0.06242212 -0.055532705 0.21943307 -0.17365284 -0.13565561 0.49178785 0.1294245 0.38332623 0.5250047 0.16536169 -0.60559195 -0.026256084 -0.71595514 0.18706116 0.15039773 0.039949678 -0.19422404 -0.07839915 0.63022816 -0.016452683 0.095675744 -0.08868221
男 -0.067072175 0.60748553 -0.0185165 -0.10613488 -0.23606746 -0.24604319 -0.18258528 -0.37083703 0.018868651 0.038733378 -0.28753823 -0.56425196 -0.17464249 0.32631955 -0.025719823 -0.7471803 -0.3805162 -0.13406637 0.1972071 0.5492793 0.4295021 -0.11546442 0.2589976 -0.32205138 -0.07797826 0.0237175 0.41241798 0.009082367 0.6612733 -0.26667097 -0.08225353 -0.10495648 -0.03646148 -0.34824046 -0.7606825 0.21930341 0.31073278 0.27045062 0.085648604 -0.035880584 0.39822695 0.46045253 0.17018652 0.11677158 0.26475516 0.65743107 -0.13517326 -0.5090139 0.6009763 -0.29473352 -0.11713025 0.20125428 -0.011894158 0.24292132 0.052428883 -0.64830935 0.044182844 -0.2691374 0.10511411 -0.2996058 -0.3825151 0.086397655 -0.3758643 0.37362203 0.31272566 -0.35920215 0.50487524 0.3546379 0.4077757 -0.43060717 0.008222882 0.5670488 0.6492061 -0.004416596 -0.13150735 0.48338094 0.2494806 0.53528625 0.0069207563 -0.042279255 0.1741535 0.14714678 -0.3699198 -0.032913517 0.19468914 0.3243926 0.5669912 -0.17168647 -0.45961618 -0.08178442 -0.21302412 -0.2017661 0.35777664 -0.034757182 -0.695544 0.22885522 0.18152378 0.55287355 0.11519312 0.048581686
胃胀 0.076675884 0.45908743 -0.14923298 0.029889662 -0.04349616 -0.28049847 -0.30299377 -0.25420716 -0.24381308 -0.14751364 0.04703843 -0.52819335 -0.28299937 0.17705376 -0.03776965 -0.43786362 -0.50741655 0.12096459 0.053692866 0.67230886 0.4508681 -0.06990327 0.17310995 -0.3084552 -0.20285738 0.27150792 0.35799628 -0.42419383 0.58543724 -0.52837086 -0.08560181 -0.088152096 -0.12908392 -0.044890355 -0.77155477 0.26735836 0.1552338 0.33384597 0.26043925 0.13513334 0.2600877 0.48757717 0.009417435 0.10614013 0.30565637 0.7226333 0.08335427 -0.6009005 0.42803645 -0.50027615 -0.19419545 0.19614169 -0.25694957 0.17495894 0.11436334 -0.4073865 -0.18783209 -0.11570832 -0.015210376 -0.14715418 0.0163057 0.07249635 -0.0415099 0.20655066 0.30952537 -0.6121825 0.48171616 0.44262552 0.43867153 -0.3422296 -0.19166552 0.4004757 0.31278268 0.053357724 -0.45023593 0.6354161 0.16935521 0.47932848 -0.047917813 0.009479496 0.21435851 -0.09320214 -0.17659616 0.3588006 0.15910001 0.28543612 0.49775434 0.031119725 -0.53921723 -0.076487035 -0.597546 0.019221894 0.19048849 0.02083553 -0.38889754 -0.07098642 0.49173352 0.16714327 0.06125611 0.016061736
打嗝 0.123435214 0.38660362 -0.17467624 0.09090884 0.008896267 -0.25789094 -0.33126184 -0.15245833 -0.32170635 -0.20528471 0.17183828 -0.51153576 -0.32984143 0.1280411 -0.010526494 -0.30818707 -0.55325633 0.24889013 -0.0034657107 0.68784934 0.41202292 -0.041896246 0.18462615 -0.2651393 -0.24705027 0.3600007 0.35280895 -0.536201 0.5217771 -0.6053075 -0.114174336 -0.08235882 -0.16547112 0.068892315 -0.75685906 0.2566781 0.12629144 0.32822046 0.34246418 0.18549208 0.21179646 0.48606393 -0.06546851 0.07246008 0.29441348 0.7023441 0.17559311 -0.6347017 0.35321015 -0.53221697 -0.16800036 0.1829671 -0.3350393 0.15376669 0.1510559 -0.31085542 -0.24160798 -0.033742175 -0.06958525 -0.07737261 0.14528584 0.04056962 0.05826149 0.17517214 0.28824285 -0.6727109 0.46190244 0.48371282 0.4366101 -0.3240337 -0.25671723 0.31442338 0.18596663 0.057898853 -0.4990797 0.6503032 0.14307645 0.41770092 -0.058437735 0.009164651 0.18944982 -0.17450897 -0.0989088 0.4575391 0.13296191 0.27620605 0.45525876 0.11159863 -0.5564222 -0.022917112 -0.6794791 0.12575227 0.09585133 0.0432151 -0.24139936 -0.1432642 0.5767734 0.026280362 0.06474752 -0.01883265
腹部 0.16178752 0.44942144 -0.18911512 0.058223356 -0.012905871 -0.3042856 -0.3332149 -0.14828409 -0.30943996 -0.21122576 0.16799851 -0.5453485 -0.3732892 0.14339185 -0.033126134 -0.30126733 -0.5998487 0.27532402 0.024155688 0.7548657 0.38200206 -0.045933533 0.20190851 -0.26265666 -0.25021198 0.4246139 0.36733693 -0.5410774 0.55220187 -0.62777394 -0.10976067 -0.13654596 -0.17602602 0.09030828 -0.8012096 0.22925285 0.12561366 0.35930794 0.3960081 0.21509762 0.20354547 0.5193396 -0.06486555 0.046614353 0.25470507 0.75183666 0.17928627 -0.6825033 0.38507727 -0.59009916 -0.17430553 0.21147653 -0.33866823 0.15239984 0.1484651 -0.38580713 -0.2597341 -0.048058454 -0.10631627 -0.066433966 0.09556947 0.030226557 0.0350082 0.19917582 0.33386514 -0.72425157 0.5178185 0.5201021 0.423288 -0.3888521 -0.26804835 0.29888922 0.21044596 0.05676452 -0.5231054 0.6631143 0.1344036 0.461744 -0.025302388 -0.048072897 0.22120127 -0.18961744 -0.11036931 0.42851603 0.14277403 0.3164913 0.45941436 0.12891737 -0.5504401 -0.0056944396 -0.7144923 0.18818457 0.15164371 0.07225865 -0.25379023 -0.120382525 0.54685044 0.046006877 0.0907867 -0.043029636
饿 0.12076851 0.08369953 0.18424724 0.18165219 0.12612924 0.11043879 -0.29903942 0.8476287 -0.7093283 -0.7014215 0.70472616 -0.6140188 -1.0212675 -0.18377875 0.21609738 0.7956428 -0.9963774 1.1059693 -0.6257228 0.9919017 -0.12176466 0.43644726 0.70335305 0.31906796 -0.50352037 1.1952205 0.30018878 -1.464415 -0.21440512 -1.3444182 -0.67979324 -0.17852119 -0.39207494 0.7604668 -1.1770821 0.22482283 0.36867657 0.006881595 1.488724 0.61808896 0.2843798 0.46302766 -1.1345794 -0.72411174 0.3151533 0.29880866 1.1510397 -1.0965192 -0.20345058 -0.42524505 0.6094351 0.24132791 -0.37840086 -0.2798034 0.27057022 -0.0037357546 -0.7229253 1.0847837 -0.20289189 0.20952284 0.93708026 -0.30129454 0.62893057 0.17956708 -0.31974855 -1.2542187 0.56581414 1.0143855 0.9158361 -0.50086266 -0.6421606 -0.1954841 -0.094782434 -0.31773424 -0.3802687 0.28398454 0.16525902 0.061823815 0.29531127 -0.07883427 -0.34166452 -0.73225576 0.2793445 1.2453703 -0.4547231 0.36551014 0.37903562 0.37298012 -0.4990806 0.5841025 -0.7661702 1.0568185 -0.6562092 0.0525679 1.0306431 -0.15861054 1.436441 -1.0183896 0.096575856 -0.20427515
正常 0.03672315 0.46280643 -0.07048589 -0.019707387 -0.11186328 -0.23137729 -0.27357575 -0.07962223 -0.31604597 -0.20691678 0.092468806 -0.5965436 -0.45604903 0.12503494 -0.02220687 -0.3164308 -0.61145926 0.27513584 -0.04051331 0.7898384 0.3003606 -0.020438276 0.32561973 -0.21320367 -0.21928008 0.44665658 0.39002582 -0.53680927 0.5093857 -0.66548336 -0.19514164 -0.15756 -0.23630133 0.061604798 -0.92247975 0.26887885 0.22265615 0.305301 0.49836123 0.19461444 0.28304768 0.55297035 -0.2082693 -0.08962452 0.28031677 0.7608455 0.27747157 -0.7289448 0.3958161 -0.5472075 -0.022920921 0.23985073 -0.295481 0.08173984 0.1044254 -0.45116478 -0.29566562 0.07045104 -0.029376216 -0.08810967 0.06918415 -0.00452337 -0.01655213 0.22678226 0.22913097 -0.73859584 0.5728095 0.57356834 0.5476824 -0.44183552 -0.24252033 0.35605225 0.39452842 -0.027107919 -0.4035345 0.57057214 0.21811593 0.48287395 0.10100709 -0.042828206 0.14938778 -0.13228369 -0.18860246 0.473994 0.07788665 0.37465492 0.5712138 0.08246389 -0.5429026 -0.044724282 -0.5954666 0.1564996 0.15517977 0.014511925 -0.19429609 0.033716753 0.62833244 0.012848189 0.07771869 -0.026670372
胃窦 -0.43092075 0.71894795 0.29779762 -0.40641108 -0.4634965 -0.31952178 -0.0564435 -0.64365834 0.1051883 0.15056594 -0.71273994 -0.77465916 -0.21262 0.2865401 -0.15637912 -1.01077 -0.38500774 -0.48072943 0.14796843 0.6611769 0.5045241 -0.016388955 0.36427206 -0.37128013 0.041552167 -0.18231016 0.41036624 -0.046762075 0.7714929 -0.3696921 -0.1746582 -0.043025114 -0.11293456 -0.75528616 -1.1868651 0.46891138 0.49648613 0.13427806 0.11274574 -0.114369325 0.7207156 0.53444993 -0.016949343 0.027958432 0.44414812 0.7639273 -0.02358801 -0.4763332 0.76099867 -0.07401918 0.012616917 0.40309888 0.16963732 0.15529075 -0.06743523 -0.8494564 0.0272325 -0.12905833 0.47530898 -0.6288982 -0.58482647 0.20179561 -0.46822757 0.48005354 0.1676256 -0.38748437 0.68498427 0.33178225 0.82796705 -0.46409917 0.21634999 0.8866913 1.2462972 -0.16322792 -0.015117239 0.4222149 0.48590183 0.8101331 0.089754105 0.10572742 0.056331865 0.401909 -0.6633241 0.008095738 0.1543794 0.25168392 0.8015737 -0.51259875 -0.42044058 -0.43988857 -0.0099970065 -0.51407707 0.5966682 -0.26357996 -0.95077145 0.5449388 0.42164606 0.70239985 0.011236067 0.28578937
请问 0.057325028 0.4648072 -0.11281599 -0.024428396 -0.09131668 -0.26735318 -0.2707564 -0.2085368 -0.26553816 -0.15147829 0.031314973 -0.5397412 -0.32961494 0.1560336 -0.051405 -0.39540777 -0.5245499 0.1655851 0.026076436 0.6947709 0.35517904 -0.059747107 0.21656026 -0.2535768 -0.1827981 0.29967788 0.3790929 -0.41785282 0.55241513 -0.5404142 -0.11322828 -0.11685235 -0.16908553 -0.011070147 -0.8114294 0.2571673 0.17567801 0.32312942 0.33772472 0.14807643 0.24131174 0.5022584 -0.05723429 0.040196445 0.26737124 0.73550874 0.1487314 -0.6291286 0.4179605 -0.50963444 -0.14080359 0.2134458 -0.2567518 0.14285 0.09419438 -0.4433621 -0.21638869 -0.060395412 -0.023348708 -0.12812746 -0.007796261 0.038479496 -0.05135921 0.22192317 0.27500772 -0.63769823 0.52015966 0.4741877 0.46084908 -0.3851733 -0.19470337 0.38946393 0.37637562 0.021437157 -0.40783402 0.5876622 0.19014418 0.4734615 0.03159315 -0.028048245 0.19863668 -0.08674599 -0.20065969 0.3584853 0.14728466 0.33804864 0.5136164 0.04657865 -0.5153449 -0.08008896 -0.5701016 0.05466005 0.20580398 0.022853604 -0.31428263 0.0031762586 0.50025535 0.13428007 0.07302736 -0.003178135
开 0.07061765 0.5042537 -0.14852467 0.0038538424 -0.1109142 -0.28218687 -0.3106378 -0.1424036 -0.31250373 -0.17217137 0.08519035 -0.56236094 -0.4620067 0.15873757 -0.050580353 -0.36816207 -0.57678163 0.24871984 0.030839134 0.73925275 0.31206742 -0.053081274 0.2336938 -0.25149074 -0.17725943 0.4224379 0.3887271 -0.4551625 0.5381285 -0.6187493 -0.073481135 -0.14559513 -0.18115555 0.063541025 -0.83924395 0.28639597 0.20782638 0.33380514 0.41146687 0.16700828 0.26309362 0.53704673 -0.07955101 -0.015582503 0.28278992 0.83963937 0.20661056 -0.6749099 0.4122366 -0.6096812 -0.14661817 0.19821206 -0.32105893 0.1279643 0.07591734 -0.4640956 -0.25223622 -0.018873563 -0.09024935 -0.0764168 0.021836229 0.017609268 -0.06427714 0.19935215 0.2758098 -0.6782917 0.5670919 0.525237 0.4496399 -0.41017926 -0.23449722 0.376919 0.36024296 0.008342897 -0.42102075 0.61348563 0.19790627 0.48461685 0.09939527 -0.06250231 0.24617644 -0.07870374 -0.1917416 0.4028043 0.14017606 0.4173965 0.55800736 0.09060655 -0.57581097 -0.054025896 -0.6574659 0.122407295 0.19304068 0.057220634 -0.26153442 0.015482728 0.5513572 0.078799106 0.12867239 -0.058096945
左右 -0.013055011 0.33972758 0.058650542 -0.038343105 -0.06261089 -0.14071263 -0.19322266 0.16779517 -0.33294353 -0.31429902 0.15496041 -0.53802073 -0.6188321 0.05528766 0.022888243 -0.02479997 -0.64443433 0.44983715 -0.1822202 0.8209539 0.16802774 0.13505565 0.41538554 -0.019474173 -0.22530901 0.63569427 0.28460348 -0.70154035 0.23248935 -0.8237541 -0.3118409 -0.16866317 -0.22453228 0.20994581 -0.9897709 0.2759462 0.28957793 0.17904058 0.79160726 0.28150105 0.36304146 0.44324017 -0.46131143 -0.27776036 0.2788982 0.59184057 0.509333 -0.7154647 0.19165808 -0.4380876 0.18181562 0.24725698 -0.26668534 -0.0036321396 0.08645634 -0.3411512 -0.37631518 0.38308778 -0.036099665 -0.041210547 0.28329286 -0.07882625 0.12519886 0.2273299 0.010471744 -0.7993653 0.54472023 0.6265568 0.6571122 -0.44181818 -0.258295 0.22697502 0.34872517 -0.16540675 -0.34331474 0.4340407 0.20567708 0.40626404 0.21696137 -0.076950125 -0.022005303 -0.23421098 -0.07563213 0.62699383 -0.0879063 0.32258117 0.47899958 0.09738593 -0.46352926 0.11486412 -0.5434138 0.4102383 -0.03880871 -0.001955963 0.11526608 0.042932484 0.8392708 -0.2665038 0.10458715 -0.060032297
经常 0.05411878 0.40772474 -0.108166166 0.03404222 -0.049065545 -0.2324874 -0.29139662 -0.15285888 -0.28894076 -0.17652549 0.10387043 -0.52863115 -0.34353024 0.12989281 -0.024409568 -0.3230589 -0.53282654 0.20052685 -0.016034119 0.6684251 0.3728894 -0.024657436 0.22164184 -0.23307452 -0.21764593 0.32848758 0.34565103 -0.4919238 0.5095461 -0.5795984 -0.1433531 -0.09344285 -0.1637097 0.02183697 -0.7851003 0.265222 0.17628808 0.28734082 0.35508907 0.16531543 0.25806698 0.4796624 -0.1058746 0.022028321 0.29864264 0.66882104 0.19053401 -0.6312522 0.36046088 -0.47533786 -0.10440324 0.19788659 -0.2666014 0.118086606 0.11734671 -0.36314347 -0.22368373 0.00237461 -0.015209739 -0.11743774 0.08457512 0.03710531 0.01857851 0.19636282 0.23891796 -0.65688145 0.4774107 0.4846714 0.47141466 -0.3512932 -0.22392291 0.33625868 0.28625748 0.012841098 -0.4227405 0.5779698 0.18645981 0.42349276 -0.005919159 0.0018732502 0.14217588 -0.13392542 -0.14229453 0.43057466 0.10105727 0.28253925 0.48544422 0.06339403 -0.52224255 -0.03183657 -0.5849689 0.092783935 0.11927162 0.0090949 -0.25058463 -0.060076218 0.56463134 0.05135496 0.06256121 -0.00052569254
疼痛 0.0969952 0.45135176 -0.14166617 0.034680404 -0.04259017 -0.25987858 -0.3149669 -0.12940641 -0.32134783 -0.21577711 0.14341003 -0.57956934 -0.39024022 0.14940287 -0.0168756 -0.3402962 -0.60241294 0.26725626 0.0014294572 0.7739797 0.3845617 -0.031808373 0.24710278 -0.2504361 -0.23959121 0.4121059 0.39506978 -0.5372788 0.54329264 -0.65646005 -0.13890176 -0.12996747 -0.19149433 0.08078967 -0.84582245 0.25734264 0.180426 0.3481474 0.42933193 0.18560904 0.25618157 0.5396399 -0.100909784 0.008762905 0.2853545 0.7753163 0.21786019 -0.7062063 0.40422875 -0.58434844 -0.12507606 0.21560511 -0.31813586 0.14449221 0.14292338 -0.40590337 -0.28244928 -0.0012684802 -0.056722164 -0.07799944 0.10336566 0.038188804 0.00834478 0.2231134 0.27221957 -0.7334377 0.55056274 0.55383986 0.48416048 -0.4015197 -0.27047637 0.34137282 0.28115445 0.035865992 -0.49210784 0.63967824 0.17374262 0.45932996 0.01281008 -0.03586388 0.20174672 -0.176695 -0.14843278 0.4646238 0.13851021 0.35117295 0.5232441 0.12810358 -0.5731791 -0.025106497 -0.67247576 0.1636862 0.11843274 0.0485192 -0.23907542 -0.08002569 0.59160775 0.03378991 0.0871285 -0.030492175
女 -0.05653695 0.5789039 -0.012221819 -0.085665435 -0.2052153 -0.25623137 -0.19487177 -0.3535015 -0.04198917 0.015118192 -0.2293298 -0.5521913 -0.2106882 0.2897046 -0.038210247 -0.6737601 -0.41399106 -0.10446399 0.14418885 0.561642 0.42744753 -0.09636709 0.23435128 -0.32578698 -0.09729498 0.0570826 0.39498666 -0.09004721 0.6476385 -0.33519572 -0.09453273 -0.08982102 -0.047806676 -0.29481074 -0.7715885 0.23493287 0.29628086 0.25387236 0.12531121 0.004210882 0.39351404 0.46835637 0.121761024 0.10752537 0.27940038 0.65907055 -0.07514161 -0.5083609 0.5611644 -0.3102504 -0.11775345 0.20206402 -0.043568343 0.2215713 0.04800892 -0.59490633 0.0070067397 -0.22767884 0.0875398 -0.28124273 -0.30336148 0.07531866 -0.29710287 0.33920175 0.30241555 -0.41184753 0.49219334 0.37052098 0.44098052 -0.39760563 -0.02397762 0.5469145 0.6031995 -0.01131572 -0.18193683 0.52200496 0.25790283 0.5240717 -0.002758684 -0.023733333 0.1664049 0.10580174 -0.33732447 0.05870303 0.1721309 0.30155006 0.5409569 -0.15247032 -0.4720579 -0.098598965 -0.2945986 -0.15987322 0.3418086 -0.038020004 -0.6410565 0.18732686 0.28455305 0.46759978 0.10019404 0.058568276
严重 0.003412748 0.42705733 -0.054833412 -0.028109811 -0.10038095 -0.21372394 -0.24820085 -0.16895051 -0.2573928 -0.15440987 0.018344179 -0.5365519 -0.34091988 0.13171488 -0.038002647 -0.36282146 -0.5242917 0.15964897 -0.0068155644 0.673644 0.33416742 -0.020605337 0.2588907 -0.21822028 -0.18601337 0.30633044 0.3495275 -0.43769658 0.50347245 -0.56185305 -0.15209967 -0.09694871 -0.17682292 -0.030238668 -0.8185287 0.2630798 0.21323973 0.27774227 0.3678425 0.14868951 0.2825953 0.4859545 -0.1228669 -0.012217255 0.28195328 0.67702556 0.19102588 -0.6174343 0.39030704 -0.4486687 -0.074835055 0.21548606 -0.22750959 0.10613218 0.09113907 -0.41134343 -0.2305811 0.0150455795 0.013625714 -0.14581212 0.02350743 0.031011607 -0.03992849 0.22209808 0.21799843 -0.6204079 0.50622 0.4732851 0.5062602 -0.36617306 -0.18043031 0.36927506 0.38701198 -0.016481303 -0.36367202 0.52615446 0.2026967 0.44709876 0.043392077 -0.008526666 0.13160983 -0.084467374 -0.19966778 0.3802815 0.096478775 0.31057453 0.5124498 0.017683413 -0.48423073 -0.069117285 -0.5090249 0.05569607 0.1690635 -0.007275953 -0.26665646 0.026059013 0.54606843 0.081823654 0.063477084 0.010608745
号 0.08984454 0.4184465 -0.17612565 0.026429916 -0.05694346 -0.2431921 -0.2864786 -0.07539796 -0.31951487 -0.2066 0.16610023 -0.51026857 -0.42953068 0.12769435 -0.02492619 -0.30761534 -0.5521312 0.30126068 0.004041362 0.7180511 0.32552686 -0.06318632 0.2052082 -0.21988826 -0.20494722 0.449604 0.3618318 -0.48872462 0.50056237 -0.6254993 -0.11423981 -0.15233098 -0.19766252 0.12085939 -0.7974159 0.25636536 0.15218675 0.34052846 0.43561497 0.20404601 0.21867716 0.5037822 -0.10028008 0.0030432353 0.26738727 0.79620737 0.2227352 -0.6642577 0.34810445 -0.62261707 -0.13197082 0.18011497 -0.35811818 0.12261939 0.104626924 -0.4002778 -0.27746427 -0.00048466976 -0.09887642 -0.042100087 0.091713004 -0.0014505294 0.0012067141 0.19557182 0.2729959 -0.70442206 0.5165457 0.53332406 0.43064502 -0.3811196 -0.27321842 0.3131817 0.28048146 0.021976454 -0.47282037 0.6385255 0.1860974 0.45936435 0.061740838 -0.054490924 0.22328429 -0.15407541 -0.14832471 0.45443356 0.14924715 0.36682922 0.5249566 0.1513096 -0.55923676 -0.039526597 -0.6712071 0.18860999 0.14368926 0.050292417 -0.21070363 -0.04160209 0.55457217 0.005296566 0.11149278 -0.08513633
转移 0.10089488 0.6042065 -0.08535129 0.0018423998 -0.16670434 -0.22153215 -0.34491014 -0.02202262 -0.2622051 -0.24012142 0.03335924 -0.69574773 -0.45019174 0.2313083 0.044395667 -0.43852288 -0.68546736 0.36126313 0.09473636 0.8935593 0.33711493 -0.044628706 0.4448263 -0.23834804 -0.2261577 0.5037904 0.506977 -0.38354513 0.5648784 -0.63918746 -0.18868019 -0.22693813 -0.18875375 0.052800417 -1.0181851 0.22255875 0.3385097 0.40653357 0.5520683 0.1259373 0.30958465 0.61644566 -0.14198193 -0.12765644 0.3211 0.89783996 0.19946437 -0.9131213 0.540537 -0.6288593 -0.014254267 0.2397551 -0.3009779 0.1521339 0.13669057 -0.61261934 -0.27486357 0.03109963 -0.07410906 -0.09843204 -0.07505809 0.00783498 -0.17913279 0.35006136 0.28605834 -0.7544617 0.71604043 0.68150246 0.5493107 -0.5723768 -0.28294733 0.41333294 0.4642166 -0.01836354 -0.34503 0.57146156 0.21540712 0.50912124 0.1611641 -0.12760958 0.2191178 -0.15655692 -0.2561872 0.3591933 0.14276743 0.53802556 0.64140844 0.13494715 -0.61049956 0.14289308 -0.5399331 0.17151508 0.13435116 0.09650407 -0.2898569 0.107904404 0.4898969 0.16452852 0.19232021 -0.10342474
胃部 0.080408305 0.43135723 -0.12634896 0.036974505 -0.052530877 -0.24318777 -0.28915212 -0.15107757 -0.26707423 -0.17468178 0.08773238 -0.52181613 -0.3323646 0.15010811 -0.01972949 -0.35733196 -0.5341139 0.20276727 0.030990846 0.6825068 0.3776982 -0.030936563 0.21726929 -0.24396077 -0.19368646 0.35160932 0.35917148 -0.43695396 0.5154152 -0.55667317 -0.11368721 -0.11059527 -0.15368299 0.019649534 -0.7661657 0.23831712 0.17094721 0.30714422 0.34540898 0.14710617 0.2530753 0.4738051 -0.06595772 0.022289203 0.2783728 0.70868534 0.14416872 -0.6239174 0.3911349 -0.5112817 -0.13223822 0.1979886 -0.2735697 0.14631689 0.121067345 -0.39291504 -0.21577483 -0.028190685 -0.037052874 -0.10302087 0.0518759 0.049384985 -0.03799306 0.21278225 0.26399654 -0.6361016 0.48696738 0.48113987 0.4324767 -0.37044972 -0.21685207 0.3341199 0.27781934 0.02781121 -0.4215067 0.584348 0.15471868 0.438478 -0.0041677784 -0.03174382 0.19778806 -0.13826579 -0.15809414 0.37002453 0.13231435 0.31274718 0.47185642 0.082203716 -0.5164625 -0.0109418 -0.58191615 0.10247656 0.13233635 0.052229695 -0.28858995 -0.050488748 0.48675764 0.091607966 0.081506446 -0.022827199
发烧 0.1101575 0.5079341 -0.17523785 0.03361322 -0.09932031 -0.2703422 -0.36541933 -0.10030898 -0.40623388 -0.25555933 0.1922605 -0.6253469 -0.49179736 0.13791172 -0.04001895 -0.3402154 -0.67744523 0.3450477 -0.018627048 0.8365835 0.36461368 -0.08657641 0.24758825 -0.27643433 -0.26835465 0.5000378 0.42761067 -0.57952845 0.6033829 -0.75700223 -0.15419045 -0.1628243 -0.2461488 0.124325424 -0.946522 0.30624488 0.20078716 0.39307415 0.5011493 0.24667297 0.2593001 0.6248597 -0.12387329 -0.025097195 0.32780865 0.93104887 0.28312692 -0.798388 0.4502162 -0.7227725 -0.12972158 0.20934343 -0.4067454 0.12899038 0.12630248 -0.48110756 -0.33025625 0.0006830442 -0.10083417 -0.08184131 0.10382757 -0.002707166 -0.0030014345 0.20797174 0.30264485 -0.83310366 0.62211293 0.633262 0.54448354 -0.43535474 -0.31638286 0.36489272 0.35812584 0.014167331 -0.5289817 0.74974364 0.23968951 0.525404 0.08458196 -0.05063565 0.23828277 -0.1672628 -0.1876029 0.54431176 0.16372845 0.43694213 0.61666715 0.16015711 -0.6857639 -0.047579046 -0.7760696 0.16728258 0.18816821 0.037283037 -0.24626121 -0.056811377 0.71431535 0.009358348 0.10674026 -0.09236459
日 0.04074765 0.53562546 -0.14075513 -0.027104583 -0.12371236 -0.2908164 -0.27497718 -0.16621844 -0.23856133 -0.15931822 0.018312186 -0.55655766 -0.416201 0.20098907 -0.044171546 -0.48212153 -0.53292614 0.18616694 0.08436134 0.73747605 0.37318826 -0.06328655 0.23699658 -0.26945812 -0.17430452 0.38379264 0.39040425 -0.38374868 0.5735777 -0.5920899 -0.08975728 -0.17275222 -0.15813422 -0.010018194 -0.8615974 0.27584264 0.22014068 0.3522172 0.37604895 0.13602477 0.31096753 0.5177403 -0.033728257 0.010275168 0.27826244 0.8487365 0.13598362 -0.64614433 0.46370828 -0.5818845 -0.14562896 0.21606857 -0.27555242 0.17105389 0.08040578 -0.517323 -0.20838384 -0.083379276 -0.026375499 -0.1258573 -0.057352748 0.04075157 -0.13994128 0.26026136 0.2865383 -0.6260744 0.5748487 0.5087011 0.46409997 -0.4352015 -0.19466157 0.43602154 0.42547092 -0.0050283433 -0.39939016 0.6145967 0.19870591 0.55169713 0.07599249 -0.0614681 0.255965 -0.061975762 -0.25051624 0.33394325 0.19407825 0.38244513 0.56606275 0.06848521 -0.5600929 -0.079633825 -0.59959596 0.10318164 0.23069626 0.03877805 -0.3929895 0.060571007 0.4874496 0.17266677 0.13847737 -0.043878056
早上 0.15205926 0.42530742 -0.22249882 0.08742631 -0.010164132 -0.2580475 -0.37538308 -0.042079896 -0.4361242 -0.28041384 0.28927848 -0.583186 -0.49362257 0.11006734 -0.00976557 -0.24839465 -0.687141 0.42059124 -0.05001867 0.84005785 0.370889 -0.05591983 0.24522215 -0.25340453 -0.2974719 0.5440864 0.4017889 -0.65800947 0.5436287 -0.7633045 -0.16783054 -0.14474638 -0.24108735 0.21216787 -0.89321333 0.28343102 0.1621811 0.3906368 0.5182636 0.27834308 0.21775274 0.5807325 -0.15122984 -0.013168326 0.31281054 0.84973675 0.30728498 -0.8026637 0.3414587 -0.71575576 -0.1469149 0.21008849 -0.44902742 0.12414625 0.15328023 -0.37501454 -0.3414033 0.048782986 -0.14519148 -0.004152631 0.21746394 -0.009892041 0.1003926 0.18541794 0.31370097 -0.8620572 0.5563086 0.63465846 0.4995464 -0.41356522 -0.3582068 0.29159102 0.19761877 0.056531973 -0.58653414 0.7465338 0.18665817 0.46424332 0.028049054 -0.044743154 0.2251704 -0.2575588 -0.09945033 0.608675 0.11770986 0.40043443 0.5457984 0.21235776 -0.65630555 0.01594289 -0.8368723 0.25739703 0.09060569 0.0744021 -0.12582305 -0.13966854 0.7079342 -0.101855114 0.11234637 -0.10688743
恶心 0.1314537 0.31325382 -0.17523608 0.08819876 0.02203372 -0.20219201 -0.30188566 -0.096774675 -0.3180083 -0.20247898 0.20405714 -0.425671 -0.30996567 0.09609789 0.001639235 -0.21054499 -0.49938434 0.26796728 -0.015523758 0.5938817 0.3340576 -0.043184526 0.1507248 -0.21750472 -0.23076113 0.34345642 0.30113778 -0.48594913 0.44184387 -0.53973955 -0.10683968 -0.07373793 -0.15604377 0.12033105 -0.6236687 0.20842996 0.09738007 0.29016516 0.31368378 0.18313405 0.16811146 0.42445597 -0.072006404 0.051279232 0.24591018 0.6102426 0.17467865 -0.5645335 0.2684545 -0.49357346 -0.15922067 0.15333597 -0.3150409 0.1308759 0.12565704 -0.25446585 -0.23721728 -0.0080165 -0.092309475 -0.03774736 0.15734647 0.010470024 0.07384022 0.13593093 0.24759883 -0.6043077 0.38627985 0.43609008 0.36549807 -0.26690358 -0.25213575 0.23104705 0.122624494 0.060072538 -0.45037544 0.5689407 0.124257185 0.32993913 -0.034211867 -0.016580295 0.17084162 -0.18360451 -0.06834955 0.42550617 0.11228519 0.26213685 0.37626177 0.13980934 -0.49898207 0.0015165788 -0.6185247 0.16135186 0.06500945 0.06666358 -0.14344946 -0.15565461 0.51952475 -0.027088685 0.058077477 -0.048686866
诊断 -0.19510946 0.55062574 0.076565206 -0.21425979 -0.26366025 -0.26014364 -0.12647069 -0.3572117 -0.031552993 0.0130627975 -0.33905312 -0.5632164 -0.27353743 0.2192546 -0.092520475 -0.6384751 -0.3860303 -0.1409951 0.10740271 0.58763134 0.3453057 -0.041070633 0.26371834 -0.26674628 -0.022836996 0.06111684 0.33992544 -0.1557482 0.56536067 -0.40081814 -0.09959814 -0.08288051 -0.101833016 -0.34732616 -0.87193257 0.3192737 0.3194498 0.196806 0.19278322 -0.0075470274 0.45774555 0.44108617 -0.029656872 0.009108223 0.30409127 0.6802168 0.043387208 -0.45598713 0.5357085 -0.25685623 -0.05148831 0.27857202 -0.03732984 0.13826427 -0.008148536 -0.5894568 -0.07077779 -0.08346264 0.1915848 -0.33689904 -0.29864168 0.10469733 -0.28658724 0.31075844 0.18100536 -0.40747166 0.54111993 0.34272948 0.54534674 -0.3961421 0.04391433 0.57719016 0.75196475 -0.07925104 -0.15098618 0.42252788 0.29270464 0.588234 0.10235844 0.022054702 0.13020901 0.17301813 -0.4064425 0.12346282 0.13497452 0.2601419 0.58662844 -0.21918295 -0.3980661 -0.24003696 -0.22250994 -0.19723189 0.37773204 -0.09744538 -0.5686279 0.2940826 0.3780854 0.38520128 0.06958814 0.119070806
拉 0.17364308 0.43285093 -0.23065682 0.088048585 -0.010823667 -0.25040317 -0.39212367 -0.010825399 -0.48036006 -0.30541143 0.33455837 -0.6020519 -0.5447816 0.10681437 -0.015245031 -0.2251534 -0.7149679 0.4775765 -0.058298267 0.8877484 0.36481556 -0.0650981 0.27826577 -0.24180053 -0.3110251 0.60919154 0.4258613 -0.70920795 0.55166095 -0.81806904 -0.18351889 -0.17100692 -0.26951554 0.2630455 -0.9384148 0.28049484 0.15786186 0.40821585 0.5858997 0.29979354 0.19923702 0.6031144 -0.18970908 -0.036967143 0.3127277 0.89182866 0.3603275 -0.85288346 0.3474883 -0.7777546 -0.12747172 0.21052103 -0.48904586 0.114997745 0.16478887 -0.38259205 -0.39663318 0.07505052 -0.16748878 0.031071467 0.25463086 -0.01902611 0.11953857 0.17948191 0.31510243 -0.93469113 0.5992228 0.68248796 0.5159347 -0.45458573 -0.3997304 0.28125533 0.20108591 0.054386552 -0.62204736 0.75981367 0.19298397 0.4718161 0.052544888 -0.053306658 0.22922355 -0.2636145 -0.09457168 0.6579793 0.11032411 0.44028014 0.5962715 0.25455076 -0.68561023 0.025392594 -0.8880372 0.3057649 0.07808811 0.078535534 -0.08139332 -0.14357421 0.74931204 -0.1394188 0.12256793 -0.13571002
不好 0.09142595 0.40424386 -0.13763504 0.05181622 -0.046284333 -0.2244591 -0.2987126 -0.09625845 -0.32489246 -0.21442664 0.15269509 -0.52289903 -0.3925574 0.12254445 -0.006727191 -0.2764663 -0.5669856 0.29184282 -0.03701537 0.7224256 0.3309723 -0.037150785 0.2385722 -0.21341836 -0.22674298 0.41256997 0.3546857 -0.51688486 0.49026754 -0.61345255 -0.15344426 -0.11602679 -0.19401927 0.10321731 -0.79903346 0.24915572 0.16276537 0.32280248 0.42070138 0.19999908 0.22255857 0.5009777 -0.14079508 -0.024165051 0.27834576 0.71147484 0.23660737 -0.6751008 0.333794 -0.5484317 -0.10263239 0.19113746 -0.3237717 0.099261284 0.12261277 -0.34640563 -0.2709468 0.030869491 -0.07520636 -0.059605327 0.12849751 0.019213313 0.033456948 0.18026261 0.23631656 -0.69745755 0.4975228 0.52661896 0.45555493 -0.37586844 -0.26632753 0.3038947 0.24987318 0.020011125 -0.44614157 0.589647 0.17045401 0.41247168 0.038891964 -0.021056112 0.16536029 -0.17153867 -0.121409446 0.46356347 0.093227275 0.33614168 0.48226735 0.12127355 -0.5303576 -0.004146031 -0.6385779 0.16635221 0.09215709 0.035689406 -0.1660996 -0.068689056 0.59656805 -0.008626675 0.069918916 -0.040701304
螺杆菌 -0.16630282 0.6886567 0.022783874 -0.2472492 -0.26076633 -0.42332694 -0.13420966 -0.6418792 0.05775393 0.11675669 -0.4411967 -0.6110243 -0.20729247 0.35674283 -0.16161144 -0.8817106 -0.31254706 -0.33643326 0.18754178 0.55579627 0.4779654 -0.106017984 0.14852728 -0.47906467 0.05386969 -0.12860279 0.40892422 0.05072685 0.70351255 -0.2747595 0.07810988 -0.05874489 0.004913496 -0.4771764 -0.82954866 0.31303722 0.29709578 0.2617514 -0.07677999 -0.09820332 0.5165078 0.38018063 0.20736282 0.24090357 0.35402355 0.72274286 -0.16540383 -0.33019358 0.6399248 -0.28951335 -0.18566161 0.28265852 0.0002639195 0.26927587 -0.103705026 -0.67610943 0.06664156 -0.37120336 0.22701229 -0.37676373 -0.4403187 0.15111615 -0.42424184 0.24552894 0.3111478 -0.22387418 0.49951378 0.23384468 0.46678334 -0.3827257 0.12794371 0.75074947 0.83859825 -0.016031038 -0.16165061 0.5040048 0.3158501 0.614364 0.03363732 0.07878825 0.2561153 0.32447523 -0.4528938 -0.014455902 0.21897763 0.17763673 0.611664 -0.39955467 -0.37056473 -0.41733855 -0.2570872 -0.36445266 0.56382626 -0.11997322 -0.81838024 0.23126389 0.26846024 0.56524014 0.06929312 0.24173139
反流 -0.36145234 0.6792481 0.21873541 -0.3395165 -0.42254302 -0.35769188 -0.06426497 -0.6673366 0.049064443 0.15780012 -0.62391144 -0.6716039 -0.20261215 0.26220638 -0.18233313 -0.94375855 -0.34213594 -0.42789802 0.15766396 0.55493736 0.4907114 -0.042584628 0.20401435 -0.40384933 0.010392645 -0.2202766 0.3624947 -0.04471126 0.7708422 -0.3137297 -0.14245181 -0.039581604 -0.043434788 -0.6553003 -1.0192481 0.43774262 0.40174282 0.15717 -0.009617472 -0.10747651 0.5849076 0.5011218 0.07005136 0.09675964 0.38087785 0.766686 -0.061544005 -0.38988802 0.72423303 -0.13575143 -0.094421595 0.39653665 0.063442774 0.20256868 -0.048506714 -0.78480154 0.06636262 -0.19778456 0.38150924 -0.5826742 -0.51976776 0.16490263 -0.40927625 0.3829358 0.17668274 -0.35708705 0.60040784 0.24295752 0.6888988 -0.40330276 0.22211908 0.8586031 1.0581012 -0.12330818 -0.07068541 0.50859183 0.45894572 0.762799 0.023283817 0.14647408 0.1022441 0.34881148 -0.56851333 -0.0378384 0.1832585 0.19930366 0.6870528 -0.45066035 -0.44465804 -0.4487742 -0.08367406 -0.46318328 0.5676774 -0.24148324 -0.93094736 0.3941636 0.392576 0.6345995 -0.01865219 0.26839095
术后 0.06651739 0.59653014 -0.09468105 -0.019233286 -0.14667572 -0.24339087 -0.3178173 -0.11194133 -0.22357358 -0.19499232 -0.0077549145 -0.65496194 -0.39963055 0.24844722 0.014388069 -0.50981224 -0.6162789 0.25956282 0.11629703 0.8219839 0.3657842 -0.051396422 0.3743902 -0.24950422 -0.19406058 0.42184684 0.47784752 -0.33457366 0.5826825 -0.5787193 -0.15411626 -0.19611211 -0.1620684 0.0010416983 -0.96060836 0.23800035 0.29441208 0.39762443 0.46155265 0.10489853 0.30668423 0.5699238 -0.06309005 -0.044415683 0.31369436 0.865982 0.13261713 -0.8045545 0.5438086 -0.5830608 -0.0726578 0.22554946 -0.27132338 0.16520391 0.123863496 -0.5880428 -0.22726826 -0.043620203 -0.03259648 -0.13056648 -0.092836455 0.034111917 -0.20207846 0.32846686 0.2984611 -0.6818396 0.65487474 0.61387306 0.525159 -0.5263245 -0.22454347 0.44880036 0.47547925 -0.0069548963 -0.3482688 0.58166075 0.20773445 0.5270477 0.11252044 -0.10192407 0.22739446 -0.114805415 -0.27595308 0.30397952 0.17187296 0.48019764 0.6350526 0.096197896 -0.5938978 0.0634962 -0.52817816 0.0944544 0.16850647 0.07453426 -0.3754174 0.10101087 0.43913192 0.21349809 0.17234878 -0.06624407
痛 0.081529476 0.420702 -0.116127364 0.046257306 -0.03739268 -0.23099756 -0.31469986 -0.11431718 -0.34342805 -0.2257951 0.15726353 -0.5639842 -0.40115976 0.12228994 -0.01118152 -0.29019833 -0.60512924 0.28506812 -0.036176797 0.75638103 0.37602416 -0.013438026 0.26060453 -0.2315923 -0.26014188 0.41108194 0.38238376 -0.57276195 0.5091564 -0.670048 -0.17445292 -0.10123232 -0.20145282 0.07108619 -0.85886544 0.27500054 0.17919669 0.31614706 0.4506108 0.20858784 0.25131917 0.51528424 -0.14936079 -0.0070862644 0.31357443 0.72436064 0.25310752 -0.7085327 0.3577699 -0.5432161 -0.09625989 0.2073686 -0.30329728 0.104981564 0.13599102 -0.36184368 -0.29673025 0.050614644 -0.033623103 -0.09544148 0.14636837 0.024726579 0.034642864 0.20768559 0.23859277 -0.73180115 0.5351754 0.5540115 0.5134416 -0.39447787 -0.27038962 0.32500482 0.2703451 0.007931393 -0.46732304 0.60890955 0.1803612 0.43930677 0.016689943 -0.009800273 0.15496738 -0.17986633 -0.13448276 0.5137879 0.09132308 0.32992163 0.517897 0.09846383 -0.55971104 -0.018045798 -0.65570396 0.14758328 0.09078689 0.024867615 -0.18590747 -0.07286295 0.64784074 -0.010685409 0.06751982 -0.026075285
今天 0.08476214 0.4498158 -0.15517147 0.025774637 -0.06594976 -0.23426682 -0.3127429 -0.10070235 -0.3560674 -0.22865851 0.16216896 -0.5730442 -0.43411052 0.1280902 -0.027165536 -0.3164464 -0.61208576 0.31833643 -0.023861727 0.7691349 0.34592688 -0.05290094 0.2550573 -0.24056865 -0.24566777 0.44629842 0.38833874 -0.5449007 0.5326912 -0.6782346 -0.15629943 -0.1333361 -0.2202395 0.11117467 -0.8727982 0.27898824 0.17901644 0.3460859 0.4641679 0.2140473 0.25149447 0.5421695 -0.1327727 -0.014989065 0.29866758 0.79706025 0.2577886 -0.718326 0.37919742 -0.6205018 -0.11105615 0.20378712 -0.34791854 0.120930545 0.111590736 -0.4029555 -0.3092318 0.028250674 -0.07257474 -0.060515013 0.11711979 0.004204576 0.017429052 0.20704319 0.26416555 -0.7498358 0.55824053 0.57380533 0.48708156 -0.40798882 -0.2755737 0.33010364 0.30956686 0.016718294 -0.48660251 0.6431372 0.19714482 0.46562913 0.06988941 -0.035884563 0.19735046 -0.16247769 -0.16107836 0.49676847 0.12649752 0.3739594 0.5485162 0.12575449 -0.5911303 -0.02540805 -0.68288636 0.17636368 0.13412362 0.045739613 -0.19900364 -0.044936087 0.63030034 -0.0014238992 0.097731315 -0.068876445
情况 0.03826396 0.4641854 -0.082531966 -0.019685991 -0.11191238 -0.22008164 -0.2658946 -0.105264656 -0.27740413 -0.17184041 0.058387414 -0.5655526 -0.39886186 0.13630453 -0.025113568 -0.35384974 -0.56020486 0.23085363 -0.002800788 0.72682685 0.30758357 -0.037476376 0.28961214 -0.21493788 -0.1791165 0.39748904 0.3771545 -0.44094026 0.49354407 -0.5932609 -0.14031275 -0.12940446 -0.1919949 0.038544513 -0.8559231 0.26027605 0.23191404 0.3155334 0.41217986 0.16410816 0.25963655 0.50776976 -0.13019079 -0.055057533 0.29181206 0.74633205 0.20585163 -0.6811946 0.3977983 -0.5185873 -0.07386208 0.21090804 -0.26958907 0.09853903 0.098035626 -0.4401893 -0.2469589 0.031891637 -0.041908562 -0.098058864 0.03479047 0.00054051826 -0.048428327 0.2065086 0.23500784 -0.6642825 0.54311216 0.512994 0.50235385 -0.40542302 -0.21671906 0.36077502 0.3804309 -0.008559325 -0.36233607 0.55146587 0.20263946 0.45385185 0.09567733 -0.047199424 0.16815625 -0.11264447 -0.19263798 0.40897587 0.10159848 0.37913945 0.5417493 0.07295506 -0.53085536 -0.022413736 -0.55769545 0.10872889 0.1657546 0.03161439 -0.23189436 0.031679835 0.548825 0.06820423 0.08496572 -0.020588905
反流性 -0.46378946 0.747492 0.27317488 -0.4139833 -0.4881307 -0.36899316 -0.021513076 -0.80344784 0.09735372 0.20293254 -0.76687557 -0.7445512 -0.16000897 0.30165422 -0.20882729 -1.104288 -0.336882 -0.54391927 0.18435444 0.5958918 0.56894505 -0.058708224 0.24038641 -0.45537686 0.036267452 -0.31171623 0.42906705 0.011885766 0.86051893 -0.32050136 -0.18514508 -0.028128995 -0.047590487 -0.78591716 -1.1459996 0.4715326 0.450615 0.16434895 -0.044779684 -0.14984201 0.67773974 0.54601353 0.07623028 0.1206991 0.42852095 0.83618146 -0.08429186 -0.399732 0.8127406 -0.097208075 -0.091131635 0.43591315 0.14596382 0.21484737 -0.09974614 -0.86852115 0.04127154 -0.261143 0.5041822 -0.68275684 -0.5938652 0.20198599 -0.48649013 0.47020307 0.18990606 -0.32305402 0.6764887 0.24910876 0.8042989 -0.43090796 0.29736912 0.98492724 1.2676588 -0.16783293 -0.036586262 0.5109227 0.52167696 0.85820353 0.0751028 0.14856832 0.10679653 0.45596418 -0.7020716 -0.060478143 0.2231951 0.20469664 0.8233632 -0.560879 -0.44472027 -0.5613665 0.0003918053 -0.5888249 0.65483296 -0.3136537 -1.089163 0.5172826 0.43876666 0.76085675 -0.03493617 0.30975008
嗳气 0.10136121 0.42816815 -0.15683725 0.03584698 -0.019252308 -0.29498282 -0.30363452 -0.22010806 -0.2878849 -0.17380391 0.091836244 -0.52904296 -0.30587584 0.13868289 -0.049081534 -0.34754336 -0.541967 0.17433047 0.027237576 0.70117635 0.40967634 -0.0474858 0.17728646 -0.2785946 -0.23120083 0.30939603 0.35907617 -0.5057708 0.56948686 -0.5726781 -0.11015999 -0.10612274 -0.15199423 0.0058939746 -0.78030866 0.2500382 0.13739769 0.31990433 0.31095788 0.1817931 0.22379853 0.50157964 -0.04332199 0.075971745 0.2811259 0.70352983 0.14764799 -0.61740804 0.38627303 -0.50981736 -0.16546023 0.21550336 -0.28695667 0.14573921 0.13848713 -0.3805202 -0.22575267 -0.08210131 -0.04907 -0.12602887 0.062981114 0.052950513 0.029534439 0.18611105 0.308769 -0.66536134 0.4852686 0.45822448 0.43468344 -0.34209824 -0.2185094 0.34309188 0.26540715 0.050814506 -0.48224038 0.64819074 0.16407394 0.47037247 -0.06003476 0.0005107952 0.1898697 -0.13209172 -0.12908645 0.3943906 0.13109055 0.26211548 0.45444328 0.053183913 -0.5216545 -0.059668418 -0.6514048 0.09139166 0.17624623 0.02120321 -0.3140003 -0.09444588 0.54124635 0.091366835 0.054215718 0.014683067
好转 0.07165737 0.46662498 -0.1401767 0.0183007 -0.076019764 -0.24605791 -0.3030051 -0.12758005 -0.3196862 -0.19853981 0.09993544 -0.5596144 -0.41271663 0.14792633 -0.03161228 -0.34624383 -0.5750463 0.25853795 0.0055094487 0.7403683 0.34463966 -0.05505678 0.24378313 -0.24854405 -0.20812523 0.41914496 0.38129175 -0.49520794 0.5340127 -0.63172644 -0.11951743 -0.13382728 -0.1940147 0.06930238 -0.84751296 0.27985016 0.19083712 0.33729076 0.42214864 0.18102776 0.25591317 0.53308773 -0.10409972 -0.013129569 0.30097112 0.795085 0.20909579 -0.68505037 0.39429846 -0.5875652 -0.124786995 0.2069038 -0.31434458 0.12810926 0.10313171 -0.425212 -0.2663651 0.006979624 -0.060567327 -0.08532997 0.06865328 0.02491121 -0.033489224 0.19969684 0.26766333 -0.6875839 0.5404192 0.52614343 0.48308134 -0.40411922 -0.24552342 0.35136315 0.33523634 0.012736881 -0.43627274 0.6240562 0.19571525 0.4740005 0.06280241 -0.041285638 0.20015185 -0.13488223 -0.17055355 0.43945903 0.13555112 0.3755877 0.5445551 0.10443995 -0.55990833 -0.031909592 -0.6423211 0.13454661 0.16299485 0.049031932 -0.24646357 -0.020138714 0.57750213 0.042449076 0.09938153 -0.047629867
十二指肠 -0.43826666 0.66381013 0.21483709 -0.3925423 -0.44562888 -0.29349044 -0.055287305 -0.69910306 0.0946678 0.14405155 -0.68291676 -0.7109909 -0.09698208 0.2886035 -0.16351947 -0.99056655 -0.2970091 -0.47725478 0.16499235 0.5653409 0.5331243 -0.060534973 0.32292372 -0.37964264 0.013486931 -0.289281 0.3981426 0.004167491 0.77709574 -0.3064084 -0.18130048 0.019196872 -0.122467674 -0.7725342 -1.0789665 0.42648405 0.40780813 0.12398943 -0.010856217 -0.16033524 0.64120936 0.46340942 0.02815079 0.10997035 0.40430468 0.7052566 -0.05969499 -0.39941594 0.7485065 -0.06363196 -0.012307606 0.36172083 0.17238112 0.16984084 -0.04236216 -0.8063976 0.031927913 -0.21280327 0.51856524 -0.61065894 -0.5349004 0.2311009 -0.46912053 0.4298237 0.15904248 -0.33443034 0.60967094 0.2416544 0.7046235 -0.4390821 0.22408088 0.8801473 1.1807885 -0.1686588 -0.043794606 0.39142498 0.48268986 0.7933369 0.062530175 0.17453012 0.03991655 0.41045076 -0.61416686 -0.010536985 0.17100412 0.2020602 0.7873144 -0.52878356 -0.37980285 -0.49904835 0.054044392 -0.6097234 0.5593732 -0.27559957 -0.95965815 0.47867426 0.37057936 0.68534476 -0.03149349 0.3067475
吃药 0.09480774 0.4099064 -0.14635849 0.030013818 -0.058382805 -0.2274796 -0.28341302 -0.10717159 -0.2938761 -0.18558128 0.12148142 -0.49677822 -0.3630722 0.13595216 -0.030138632 -0.29878122 -0.52346706 0.24415411 0.005435849 0.6549147 0.30977067 -0.0518057 0.20510963 -0.22303681 -0.19194569 0.36908033 0.33510935 -0.4311102 0.47501546 -0.5576886 -0.09201361 -0.12896872 -0.16015683 0.07839038 -0.7320057 0.23252231 0.16177776 0.30526644 0.35502282 0.15930767 0.20671283 0.47799134 -0.07385959 0.005997643 0.25934777 0.7014928 0.17621236 -0.61151344 0.35323903 -0.5373817 -0.12464366 0.17613263 -0.29816526 0.12591653 0.09625483 -0.36352652 -0.22891292 -0.021237276 -0.07458484 -0.066255435 0.071011454 0.007076382 -0.012524296 0.17333995 0.25648034 -0.6160509 0.47766507 0.467616 0.4054113 -0.3471441 -0.23176971 0.30753464 0.258893 0.020009995 -0.40271935 0.56744844 0.16324787 0.40882015 0.040394295 -0.034018088 0.19706562 -0.12273152 -0.12948425 0.39252707 0.116829865 0.3406716 0.46857756 0.10322473 -0.5129252 -0.020940501 -0.59656787 0.13057023 0.14085506 0.054350547 -0.21149935 -0.048219115 0.49937174 0.036050156 0.0859035 -0.054323193
